tree
version=v4
num_class=1
num_tree_per_iteration=1
label_index=0
max_feature_idx=20
objective=binary sigmoid:1
feature_names=Column_0 Column_1 Column_2 Column_3 Column_4 Column_5 Column_6 Column_7 Column_8 Column_9 Column_10 Column_11 Column_12 Column_13 Column_14 Column_15 Column_16 Column_17 Column_18 Column_19 Column_20
feature_infos=[-2.7401980028011725:11.622150898346302] [-1.592776126648092:10.476451148150428] [-2.4050811104559768:4.3676508926543711] [-1.8328460805175326:2.0464606108303549] [-1.4168202021830572:5.7517465938697878] [-1.4589686730674611:3.3231556422542172] [-1.0324658243700009:9.2210038690322591] [-2.2050346744424849:2.2714357465827311] [-2.3604926895910507:1.9972215159260664] [-1.7359740161000687:1.7375063868420226] [-1.2500736318560768:10.668834739066988] [-1.2822138978625444:11.028866035197971] [-1.17334784373162:4.3433908575950566] [-1.2021569240760897:4.2928681356819043] [-1.0305128429936359:1.1395899316944669] [-0.67011916702874608:1.9643286480456836] [-1.1287123363966063:1.2976810979218192] [-1.9300263826918791:0.89645300913261405] [-0.54061975849571609:279.50638597035783] [-4.9594101106246313:0.72101018569707953] [-5.0134508175143226:9.9068969748179523]
tree_sizes=3522 3510 3516 3514 3538 3536 3535 3544 3556 3536 3569 3543 3578 3566 3574 3561 3571 3568 3574 3569 3572 3595 3581 3596 3588 3580 3603 3582 3576 3599 3593 3594 3606 3587 3581 3583 3609 3603 3613 3607 3589 3597 3606 3595 3608 3608 3586 3602 3605 3612 3610 3579 3615 3594 3613 3607 3616 3593 3596 3616 3597 3597 3622 3584 3605 3606 3620 3628 3609 3604 3606 3604 3573 3600 3607 3613 3591 3601 3599 3620 3578 3584 3607 3606 3615 3626 3611 3621 3568 3604 3593 3525 3597 3599 3604 3604 3602 3601 3582 3535 3620 3613 3595 3617 3584 3580 3568 3527 3582 3475 3446 3633 3562 3498 3581 3579 3592 3597 3567 3463 3480 3588 3517 3585 3593 3580 3517 3603 3562 3566 3498 3564 3494 3557 3537 3429 3518 3496 3446 3602 3578 3510 3528 3488 3503 3511 3521 3435 3581 3508 3534 3476 3477 3492 3556 3512 3609 3501 3537 3513 3460 3426 3494 3525 3467 3502 3597 3557 3570 3549 3493 3511 3576 3408 3444 3593 3439 3576 3584 3428 3548 3398 3462 3527 3499 3599 3420 3560 3545 3456 3489 3577 3491 3505 3436 3542 3459 3482 3510 3559 3407 3435 3402 3401 3535 3550 3394 3409 3542 3546 3444 3574 3502 3461 3410 3446 3417 3521 3452 3413 3428 3497 3518 3532 3572 3406 3402 3572 3476 3398 3410 3419 3408 3422 3448 3418 3518 3553 3533 3464 3608 3479 3416 3465 3493 3550 3605 3508 3410 3466 3442 3491 3595 3426 3396 3499 3419 3395 3479 3478 3433 3441 3567 3490 3452 3542 3541 3589 3539 3574 3425 3534 3511 3536 3557 3439 3409 3457 3396 3440 3568 3412 3480 3410 3429 3418 3427 3427 3556 3433 3415 3411 3566 3452 3403 3422 3454 3450 3471 3446 3493 3429 3413 3449 3417 3402 3426 3418 3423 3417 3437 3423 3438 3437 3418 3438 3448 3416 3424 3456 3410 3435 3456 3457 3436 3591 3542 3585 3565 3587 3416 3458 3452 3546 3584 3413 3470 3500 3483 3447 3499 3490 3417 3443 3393 3390 3507 3499 3559 3434 3411 3576 3462 3469 3462 3604 3450 3451 3419 3545 3375 3489 3486 3413 3541 3454 3419 3416 3435 3460 3399 3555 3480 3468 3416 3402 3405 3487 3447 3486 3424 3436 3447 3441 3440 3472 3594 3596 3525 3426 3483 3430 3427 3401 3395 3400 3410 3469 3425 3438 3429 3455 3414 3436 3472 3580 3443 3498 3538 3493 3439 3429 3605 3520 3585 3610 3491 3414 3431 3456 3487 3554 3517 3575 3452 3419 3486 3472 3438 3403 3400 3505 3503 3463 3480 3386 3430 3469 3444 3486 3454 3494 3544 3457 3442 3430 3510 3476 3524 3427 3420 3408 3455 3514 3390 3419 3394 3435 3563 3557 3566 3482 3482 3397 3459 3513 3515 3409 3405 3529 3413 3406 3468 3519 3412 3419 3522 3504 3457 3401 3521 3493 3475 3441 3402 3441 3540 3424 3419 3529 3543 3419 3466 3484 3505 3477 3492 3511 3537 3417 3449 3509 3535 3493 3402 3434 3452 3473 3449 3400 3532 3439 3474 3489 3454 3431 3422 3414 3439 3454 3409 3434 3403 3397 3419 3517 3461 3443 3558 3471 3442 3479 3493 3396 3465 3423 3463 3488 3438 3451 3414 3397 3434 3413 3442 3412 3428 3467 3408 3443 3574 3475 3436 3437 3408 3420 3461 3494 3430 3482 3417 3468 3471 3432 3435 3457 3400 3558 3407 3452 3456 3413 3422 3430 3536 3461 3521 3422 3481 3448 3440 3428 3425 3442 3443 3418 3416 3443 3415 3469 3541 3448 3459 3499 3534 3449 3446 3481 3512 3416 3399 3401 3397 3415 3410 3443 3453 3417 3455 3414 3394 3517 3550 3524 3432 3426 3438 3439 3458 3431 3472 3465 3471 3440 3456 3460 3521 3413 3450 3505 3541 3389 3477 3424 3488 3473 3435 3447 3425 3408 3474 3437 3403 3471 3451 3552 3476 3428 3452 3414 3477 3461 3422 3434 3511 3487 3535 3583 3482 3416 3433 3453 3429 3441 3474 3415 3423 3441 3453 3415 3447 3447 3432 3404 3412 3559 3418 3541 3503 3486 3421 3413 3422 3444 3432 3405 3393 3479 3479 3450 3394 3421 3423 3476 3446 3429 3392 3600 3500 3464 3442 3410 3439 3458 3509 3422 3454 3411 3412 3437 3471 3549 3464 3408 3467 3493 3486 3544 3403 3472 3430 3417 3426 3503 3518 3451 3396 3554 3498 3483 3435 3492 3461 3486 3451 3437 3449 3524 3410 3428 3412 3401 3398 3397 3399 3415 3407 3423 3422 3396 3416 3415 3403 3426 3489 3404 3432 3396 3453 3457 3407 3424 3392 3523 3481 3532 3450 3455 3429 3466 3549 3439 3453 3454 3456 3464 3432 3444 3418 3446 3412 3451 3419 3452 3462 3464 3438 3537 3489 3474 3412 3434 3550 3480 3469 3547 3420 3532 3461 3476

Tree=0
num_leaves=31
num_cat=0
split_feature=14 0 0 2 5 5 15 1 2 14 15 0 0 5 0 20 19 6 5 1 14 19 18 19 19 14 19 14 0 0
split_gain=1.16176e+06 349674 406323 68040.5 41589.9 39076.1 28490.4 24733.9 17206 15405.4 13569.4 8898.85 7572.47 7192.4 6717.53 4909.95 4516 3972.14 3968.75 3860.38 3454.1 3249.07 3060.52 2680.7 2487.25 2328.32 2270 2232.3 2191.54 2495.26
threshold=-0.16948040427721336 0.31226182345053483 -0.48818989859751571 -0.43275452494782846 0.90035955892950781 -0.66348160997928785 -0.51903791076393813 0.6498184227494439 -0.52241371311318829 -0.68814611918835233 -0.49654634539113834 0.10389611799189544 -0.80130093753412968 1.0747449401572384 -0.27915171199533745 0.65902093621883917 0.047491992901614842 0.51006788075934939 -0.85574273602898232 0.37789095886048463 0.51809333188792428 -0.20083111883122637 -0.23675902531378742 1.0000000180025095e-35 0.081447020106700366 0.72720491201070625 0.064757592530069477 -0.89748989808347879 0.068359064724684546 -0.24942789570562859
decision_type=2 2 2 2 2 2 2 2 2 2 2 2 2 2 2 2 2 2 2 2 2 2 2 2 2 2 2 2 2 2
left_child=9 2 7 10 5 22 15 12 26 27 20 14 -2 18 23 25 -14 -9 -12 -11 -4 -16 -5 -8 -13 -7 -3 -1 29 -6
right_child=1 8 3 4 28 6 11 17 -10 19 13 24 16 -15 21 -17 -18 -19 -20 -21 -22 -23 -24 -25 -26 -27 -28 -29 -30 -31
leaf_value=-1.0268125681731204 -1.0008300926972744 -0.88462069886446659 -0.75771767070546003 -0.72747298666013371 -0.95822124177286816 -0.8167730371438966 -0.81316073753112983 -0.86032067266721735 -1.0099329603202274 -0.96405997447305725 -0.65935987887221015 -0.86112241188019489 -0.96916344215586847 -0.75898281030164794 -0.65162152830853515 -0.88859362466536607 -0.84468694338087313 -0.62561890433840972 -0.5657523565029865 -0.8708420963308009 -0.64655113951825438 -0.58933888046608751 -0.83608253825359946 -0.66556610338900546 -0.70118037522039967 -0.72287628345457566 -0.64210555790130253 -1.003503103947482 -0.97685948817501989 -0.83637215627073536
leaf_weight=284185.48346757889 37599.51277859509 528.71449515223503 3240.2822099626064 3134.7865663468838 2106.4100872725248 3256.1477657407522 1941.7791903018951 1047.1266813576221 48435.275282710791 20818.699873611331 4812.8266476094723 1631.267598643899 5991.4107911288738 2093.4291779994965 10422.845961526036 2577.8437446802855 5675.5419988185167 2315.9590512514114 76887.986085936427 5647.7257646620274 20340.878784656525 42646.20183929801 15054.558017849922 3359.7889937460423 2406.8254161626101 13974.876040220261 1429.5483894646168 48029.158264026046 1936.0098972916603 8314.3754124641418
leaf_count=1379232 182481 2566 15726 15214 10223 15803 9424 5082 235070 101039 23358 7917 29078 10160 50585 12511 27545 11240 373159 27410 98720 206974 73064 16306 11681 67824 6938 233099 9396 40352
internal_value=-0.893693 -0.756175 -0.711464 -0.651787 -0.706038 -0.684733 -0.65539 -0.96108 -0.998184 -1.01759 -0.594815 -0.622226 -0.978991 -0.575956 -0.612294 -0.759877 -0.90861 -0.698695 -0.571267 -0.944168 -0.661827 -0.601571 -0.817365 -0.719625 -0.765792 -0.74062 -0.707583 -1.02344 -0.879154 -0.861002
internal_weight=0 323162 272769 220139 112764 100407 82217.6 52629.6 50393.5 358681 107375 62408.7 49266.5 83794.2 58370.6 19808.9 11667 3363.09 81700.8 26466.4 23581.2 53069 18189.3 5301.57 4038.09 17231 1958.26 332215 12356.8 10420.8
internal_count=3309177 1568397 1323823 1068397 547274 487303 399025 255426 244574 1740780 521123 302887 239104 406677 283289 96138 56623 16322 396517 128449 114446 257559 88278 25730 19598 83627 9504 1612331 59971 50575
is_linear=0
shrinkage=1


Tree=1
num_leaves=31
num_cat=0
split_feature=14 0 0 1 5 5 15 1 2 14 15 0 0 5 0 20 6 19 14 2 5 14 0 14 0 18 15 19 19 20
split_gain=937999 261100 284956 47029.4 30080.2 28397.7 19789 18282.3 11760.9 11626.3 9624.61 7082.64 5543.53 5213.7 5174.79 4683.6 3473.3 3262.61 2916.08 2899.88 2644.63 2584.25 2471.9 2707.06 2549.84 2275.3 2212.51 2109.21 2068.22 2058.04
threshold=-0.23529217061027169 0.35132375607598337 -0.51344082305033323 0.10843485829589329 0.95151215896557217 -0.69895106609365343 -0.43780272205609766 0.53678228579079834 -0.4104787223803712 -0.75130418526604548 -0.56933210882476071 0.11497053097473095 -0.3014833520035553 1.1406585110930496 -0.85927682348023926 0.97499546797106873 0.38141790797365177 0.13047154206119002 0.3217195129908953 -0.22515736069819717 -0.74773493109439915 0.54250737423728446 0.076047986257490471 0.42362160279692107 -0.26039049887131605 1.0000000180025095e-35 -0.52837251392402684 -0.21548736510376529 0.21348744640323439 0.69447029975262231
decision_type=2 2 2 2 2 2 2 2 2 2 2 2 2 2 2 2 2 2 2 2 2 2 2 2 2 2 2 2 2 2
left_child=9 2 7 4 5 22 15 14 28 -1 18 12 27 20 -2 21 -9 -16 -5 26 -12 -7 23 -4 -25 -14 -11 -8 -3 -26
right_child=1 8 3 10 -6 6 11 16 -10 19 13 -13 25 -15 17 -17 -18 -19 -20 -21 -22 -23 -24 24 29 -27 -28 -29 -30 -31
leaf_value=-0.12499052976587866 -0.10457678491631162 -0.0073362961133462872 -0.024151599115990643 0.078269749668457955 0.0033482608579416188 0.051326811583107139 0.033025804632820545 0.0020542005456129389 -0.11405761060814811 -0.044492940483206518 0.20114501973696389 0.087312271638967112 0.24661112718957581 0.10614558003666337 -0.074273377417562375 -0.035218709954003329 0.20204039476655866 0.030626186895407928 0.19291574835196826 -0.084883957740171642 0.26209119109693918 0.14226358346906795 -0.052173638121331183 -0.012514036354189285 0.11818684475862906 0.20033874946267766 0.060871838917815224 0.16966893184424608 0.19387356229895472 -0.018911255245320183
leaf_weight=305789.69614775479 33912.21224232018 796.55881462991238 2669.4324325323105 2515.8377030640841 12188.151403471828 3694.4626961797476 1546.1891073286533 1274.5708526819944 44753.74469037354 9392.7585329711437 7747.3585734218359 3861.9877216815948 45412.945875003934 2342.3180375993252 6760.2008293867111 1891.0369935035706 2725.4854853004217 5281.2634788304567 18779.349248945713 19269.322562366724 87904.439750418067 20275.671902447939 1899.6289391964674 2227.119991093874 10650.504001006484 13872.858740866184 2529.6852277070284 4193.2465166449547 1424.3021755516529 1220.4056795090437
leaf_count=1572785 172532 3873 12686 11711 58731 17417 7262 6188 228640 46512 34498 18084 198534 10832 33870 9069 12187 25357 83776 96792 381709 92216 9032 10451 49844 61119 12469 18812 6448 5741
internal_value=0 0.116051 0.150936 0.195337 0.15263 0.168672 0.190883 -0.066732 -0.102911 -0.119058 0.240304 0.218884 0.226699 0.253545 -0.0845806 0.116295 0.138317 -0.0282655 0.179371 -0.0609001 0.257155 0.128248 0.055939 0.0681873 0.0856715 0.235783 -0.0221368 0.132858 0.121705 0.104092
internal_weight=0 341821 294847 244893 125604 113415 94748.4 49953.7 46974.6 336981 119289 68887.2 65025.2 97994.1 45953.7 25861.2 4000.06 12041.5 21295.2 31191.8 95651.8 23970.1 18667.1 16767.5 14098 59285.8 11922.4 5739.44 2220.86 11870.9
internal_count=3309177 1580619 1341658 1091524 568998 510267 422513 250134 238961 1728558 522526 303811 285727 427039 231759 118702 18375 59227 95487 155773 416207 109633 87754 78722 66036 259653 58981 26074 10321 55585
is_linear=0
shrinkage=0.1


Tree=2
num_leaves=31
num_cat=0
split_feature=14 0 0 1 5 5 2 15 1 14 15 5 19 19 0 0 5 20 0 19 15 18 0 20 15 2 8 10 15 6
split_gain=773922 203470 217015 34223.2 20727.3 19576.3 14144.1 13320.1 12161.4 11097.8 8796.73 5439.62 5407.52 3102.79 3087.72 3031.59 3003.59 2857.79 2766.61 2646.1 2628.99 2587.24 2537.56 2488.46 2178.48 2134.68 2018.08 1902.11 1857.54 1779.02
threshold=-0.23529217061027169 0.27915576019209748 -0.57108589669146581 -0.04648224232426356 1.0418212653527323 -0.62727094931730787 -0.45427498723204046 -0.57432129327239423 0.55571605264688095 -0.76795615436846243 -0.56361868792505121 1.0418212653527323 -0.13418625408716295 0.13047154206119002 -0.31936481154398993 0.044321201915277872 -0.9491855888397015 0.59842987336860798 -1.1018292540460906 0.29491284838758353 -0.4698300673812294 0.061012800739622002 0.53724139456278996 0.46923244543948295 -0.29384060952679925 -0.90277749223276571 -0.33750470112879255 -0.6011902715744033 -0.12581775264520337 0.2649384024185733
decision_type=2 2 2 2 2 2 2 2 2 2 2 2 2 2 2 2 2 2 2 2 2 2 2 2 2 2 2 2 2 2
left_child=9 2 8 4 5 26 29 23 13 -1 17 16 14 -2 -9 -16 -12 25 -15 -10 27 -14 -8 -7 -6 -5 -4 -11 -28 -3
right_child=1 6 3 10 24 7 22 12 19 20 11 -13 21 18 15 -17 -18 -19 -20 -21 -22 -23 -24 -25 -26 -27 28 -29 -30 -31
leaf_value=-0.12033230861960116 -0.10632247013212036 0.0066520610763639125 0.019204489651064111 0.18911174279019791 0.041467112333730329 0.099898917702265028 -0.043318828981985004 0.012497748532430623 -0.0047812794926528302 -0.10069518473082384 0.14544050731039856 0.086729178482268021 0.20506529748607855 -0.085224444467819863 0.16335073716107879 0.026819517482646372 0.2198683441665028 0.040655890716342728 -0.00097400761806449405 0.1755099381097156 0.012968884831962683 0.13978775117859724 -0.11366620430540691 0.0017899660428173352 -0.051727109144166533 0.12977006697003798 0.04654532209186199 -0.048068615661759267 0.14326455478270689 0.17831458672414857
leaf_weight=285090.27771912515 25772.58452744782 870.33397240936756 10630.804655641317 11725.76379224658 4572.0916697978973 14124.230167537928 5907.9968709498644 1942.3722508996725 1287.6667921096087 11779.269370362163 5713.9098467826843 3349.0527813285589 44719.964156225324 9409.8682834655046 13164.745994001627 1855.5495751351118 106178.02853602171 2251.236447557807 6653.6820273548365 2213.3181416839361 4414.6735586374998 7025.5605268776417 38822.855540364981 3164.5514834225178 5556.7456592768431 12550.066331282258 4990.222833648324 16471.926689594984 3298.0348308682442 1970.7135266214609
leaf_count=1560097 137030 3958 49282 49783 21949 62342 30531 9176 5893 61195 24390 14999 186524 50342 55581 8282 436550 9797 33101 9590 22271 29726 209623 14831 26929 54181 22983 84995 14748 8498
internal_value=0 0.101599 0.131864 0.167473 0.126949 0.140138 -0.0906329 0.160398 -0.0698398 -0.114006 0.200358 0.212309 0.18014 -0.0848223 0.131142 0.146484 0.216068 0.148438 -0.0503271 0.109199 -0.0587967 0.196202 -0.104375 0.081941 -0.00965984 0.158433 0.0480427 -0.0700111 0.0850315 0.125727
internal_weight=0 349722 302150 256813 115045 104916 47571.9 85997 45337.1 317756 141768 115241 68708.2 41836.1 16962.7 15020.3 111892 26527.1 16063.6 3500.98 32665.9 51745.5 44730.9 17288.8 10128.8 24275.8 18919.1 28251.2 8288.26 2841.05
internal_count=3309177 1580619 1328009 1092053 502353 453475 252610 366462 235956 1728558 589700 475939 289289 220473 73039 63863 460940 113761 83443 15483 168461 216250 240154 77173 48878 103964 87013 146190 37731 12456
is_linear=0
shrinkage=0.1


Tree=3
num_leaves=31
num_cat=0
split_feature=14 0 0 2 1 5 5 15 2 14 15 0 5 0 7 14 14 5 5 5 20 5 2 0 0 20 19 19 14 0
split_gain=647594 162748 167653 27525.1 16846.6 14874.9 15406.3 10492.2 8819.8 8769.12 7654.47 5587.71 4297.56 3529.09 3513.84 3495.61 2686.94 2656.23 2580.15 2553.82 2549.03 2528.62 2451.6 2405.37 1937.82 1906.19 1804.07 1693.55 1631.39 1532.56
threshold=-0.31649539842444846 0.35132375607598337 -0.44665205237604666 -0.20363325515743116 0.39275322892772646 0.8748543145775588 -0.53213252041311054 -0.37487462144239653 -0.2785225965256875 -0.82169358453960883 -0.48383197212136242 -0.74477595866835522 1.2802634663753392 0.068359064724684546 -0.2020432046439101 0.45971192626988855 0.58708953852742074 -0.55540247573677537 0.76656310790418192 -1.018069359588947 0.83021827697556405 -0.4885844272850714 -0.55644723657649775 0.068359064724684546 0.035095269759913374 0.87557916966784555 0.31042489245049892 0.047491992901614842 0.58708953852742074 -0.22290338755435907
decision_type=2 2 2 2 2 2 2 2 2 2 2 2 2 2 2 2 2 2 2 2 2 2 2 2 2 2 2 2 2 2
left_child=9 2 4 10 11 6 16 20 26 -1 15 -2 19 29 17 -4 -5 -6 21 -12 28 -13 -11 -18 -7 -17 -3 -23 -8 -9
right_child=1 8 3 5 14 24 7 13 -10 22 12 18 -14 -15 -16 25 23 -19 -20 -21 -22 27 -24 -25 -26 -27 -28 -29 -30 -31
leaf_value=-0.11696279506114123 -0.092222762223265864 -0.015874988766403596 0.060954417241781425 -0.026018521178546583 0.012220583091938254 0.023528007803850538 0.032967252982597887 0.13088978656429673 -0.10577457332447554 -0.022971566404557806 0.11544230357965145 -0.063613395997773964 0.05178207580645388 0.086690082787725775 -0.027719923763491524 0.15254316160186765 0.077871144381798832 0.18585196203708587 -0.098421613288639534 0.19304761132431708 -0.022247819626848821 -0.01386996740806219 -0.080673294293404224 -0.038052325381248801 -0.0760735047187997 0.015812940741385308 0.14165356036580348 0.094535733626348567 0.10872369975436953 0.18237735883109332
leaf_weight=258191.26894180477 33551.306946620345 1285.6399242430925 5485.4079819321632 4142.1455839127302 1160.0031531006098 9192.2400974333286 3429.2786085605621 6713.0102179646492 39655.165886491537 9957.640236467123 4410.3611057698727 2815.9937245100737 2292.7049501985312 4963.8620807975531 1580.0894780009985 29067.675405740738 14823.619980320334 3664.0679021328688 2620.9837947785854 110040.33816540241 2014.2412026524544 2399.7771254479885 28261.645928785205 2035.763424500823 2480.4515066742897 1056.6816829741001 1673.1087996512651 3607.3991854637861 16616.042764410377 41646.315704226494
leaf_count=1508391 187033 6373 24239 19600 5361 43295 15487 27783 226640 52497 18407 13841 10215 21396 7537 119915 65206 15492 13232 442577 9551 12234 154784 9532 12297 4550 7361 16155 70065 168131
internal_value=0 0.0899537 0.115005 0.147582 -0.0500431 0.108978 0.121889 0.142992 -0.0933478 -0.110345 0.174962 -0.0716416 0.187342 0.166988 0.101707 0.134377 0.046144 0.1441 -0.011303 0.190057 0.084988 0.0145762 -0.0656397 0.0638734 0.00236265 0.147747 0.073204 0.0512293 0.0957636 0.17523
internal_weight=0 354424 311810 260410 51399.6 108057 96384.3 75382.8 42613.9 296411 152353 44995.5 116743 53323.2 6404.16 35609.8 21001.5 4824.07 11444.2 114451 22059.6 8823.17 38219.3 16859.4 11672.7 30124.4 2958.75 6007.18 20045.3 48359.3
internal_count=3309177 1593505 1353131 1082246 270885 462343 406751 312413 240374 1715672 619903 242495 471199 217310 28390 148704 94338 20853 55462 460984 95103 42230 207281 74738 55592 124465 13734 28389 85552 195914
is_linear=0
shrinkage=0.1


Tree=4
num_leaves=31
num_cat=0
split_feature=14 0 0 2 5 5 15 1 2 14 19 15 0 0 14 19 14 0 0 0 18 10 7 0 0 14 2 20 20 6
split_gain=546906 132419 132545 29190.1 18562.8 19590.2 13575.8 7639.88 6470.09 5797.42 5594.79 4005.85 3517.11 3423.83 3186.19 2910.11 2325.37 2317.55 3271.02 2164.42 2142.53 2037.45 2027.45 1744.12 2165.53 1723.35 1589.61 1558.79 1553.81 1465.66
threshold=-0.45873373211202612 0.39981727105619363 -0.60394038786131998 -0.64884191732568919 0.80770734862663052 -0.77119935455681776 -0.56933210882476071 0.75591687917643735 -0.24586978256947464 -0.85831464806364932 0.038441373323248644 -0.58317307213109904 0.12812802574066062 -0.26039049887131605 0.28987510992651228 0.098351027555534723 0.3217195129908953 0.09362833297562799 -0.26625876724319558 -1.1018292540460906 0.066063846055241224 -0.46583941549215052 0.071160428079097005 -0.29365928534578134 0.076047986257490471 0.25696922675998307 -0.69476677600079906 0.55658439228844914 0.55658439228844914 0.56323011242460763
decision_type=2 2 2 2 2 2 2 2 2 2 2 2 2 2 2 2 2 2 2 2 2 2 2 2 2 2 2 2 2 2
left_child=9 2 7 11 5 16 14 15 29 -1 12 25 13 -8 -7 -2 -5 18 -6 -17 -12 -11 -13 -18 28 -4 -23 -16 -25 -3
right_child=1 8 3 4 17 6 10 -9 -10 21 20 22 -14 -15 27 19 23 -19 -20 -21 -22 26 -24 24 -26 -27 -28 -29 -30 -31
leaf_value=-0.11391393477102277 -0.099746420862647539 -0.017535241343813755 0.049530624519898023 -0.041449562497351503 -0.069219376265819255 -0.015977338891638142 0.032010119055149645 0.10317187428559633 -0.10378092236172923 -0.094679530411947183 0.16514488175053665 0.17911033490382741 -0.01666095668011508 0.13240442574658504 0.089026711752129728 -0.074760174427519532 -0.043859753559454887 -0.083513283451711412 0.042449814490138849 0.00028943051367917219 0.10486932766180378 -0.001448541957952426 0.12727370742844762 0.078452602034079999 -0.044409058327971214 0.13614511383628386 -0.066542459432529705 0.0096655176854038918 -0.024031619080467609 0.12640003548324868
leaf_weight=232990.72501194477 22778.825089171529 1441.0849755108356 2684.347847416997 4176.4470828324556 3283.2907326221466 4270.6663352698088 4020.2916345596313 2510.8925564736128 36699.499666824937 20844.54655829072 63385.931675314903 84552.583280101418 2135.9858419895172 21910.491364702582 18750.012970909476 9370.4820048958063 2127.6694460213184 2493.3618673831224 13045.519193053246 6514.1986262947321 6502.1230767965317 5052.4110271781683 8284.5848590135574 12463.402251154184 2019.6076511144638 15926.336552277207 14570.576579630375 2851.3535055965185 1678.6523156613111 1389.6612233072519
leaf_count=1457548 133722 7205 12141 20797 16186 20729 17823 10531 222653 121530 255893 340126 9807 88692 78248 54572 9929 12755 59198 33279 26607 27563 33836 53355 9692 64336 83781 13090 7502 6051
internal_value=0 0.0800575 0.101531 0.126452 0.0997613 0.111788 0.127375 -0.065859 -0.0925449 -0.107846 0.144392 0.165996 0.106679 0.116839 0.0629474 -0.0768363 0.0258761 0.00628427 0.0199961 -0.0439828 0.159537 -0.0729086 0.174485 0.0412501 0.0524548 0.123652 -0.0497825 0.0785511 0.0662878 0.053125
internal_weight=0 357267 317737 276563 165115 146293 123827 41174.4 39530.2 273458 97954.8 111448 28066.8 25930.8 25872 38663.5 22465.8 18822.2 16328.8 15884.7 69888.1 40467.5 92837.2 18289.3 16161.7 18610.7 19623 21601.4 14142.1 2830.75
internal_count=3309177 1618755 1382846 1150742 700303 612164 510889 232104 235909 1690422 398822 450439 116322 106515 112067 221573 101275 88139 75384 87851 282500 232874 373962 80478 70549 76477 111344 91338 60857 13256
is_linear=0
shrinkage=0.1


Tree=5
num_leaves=31
num_cat=0
split_feature=14 0 0 15 5 1 2 20 5 14 14 19 0 3 6 1 5 5 19 10 0 10 0 0 19 2 19 18 20 20
split_gain=464845 108973 111105 20508.4 16810.5 12919.8 10415.3 9872.29 7678.61 6961.38 5770.4 4948.88 4648.16 3829.39 3319.58 3307.86 2510.92 2519.31 2409.61 2154.52 2051.13 1893.69 1877.51 1988.09 1725.95 1707.45 1650.06 1543.99 1530.86 1373.85
threshold=-0.45873373211202612 0.24764136458736927 -0.42875586788201442 -0.39982054368056447 1.1406585110930496 0.31159896859633995 -0.14976058994616553 0.72877364366357777 -0.88976854897634172 0.28987510992651228 -0.85831464806364932 0.029228426277878312 -0.91467085103707102 -0.31564250561862128 0.060982329869790818 0.37789095886048463 0.76656310790418192 -0.46794243703909782 0.21348744640323439 -0.67785321942905241 0.71349459676760441 -0.5705414717983015 0.035095269759913374 -0.20903210690217178 -0.15949917848150319 -0.75410339404730953 0.21348744640323439 -0.0034278061493457344 0.55658439228844914 1.3044446970888042
decision_type=2 2 2 2 2 2 2 2 2 2 2 2 2 2 2 2 2 2 2 2 2 2 2 2 2 2 2 2 2 2
left_child=10 2 5 7 8 12 18 9 15 19 -1 22 -2 -11 -7 -5 17 -14 -3 -4 -8 -12 23 -10 -19 -6 -16 -13 -23 -9
right_child=1 6 3 4 25 14 20 29 11 13 21 27 16 -15 26 -17 -18 24 -20 -21 -22 28 -24 -25 -26 -27 -28 -29 -30 -31
leaf_value=-0.1104202278010481 -0.09073827162599056 -0.033033074108891447 -0.049556376405281134 0.017298800008224556 0.092995985088741323 -0.031986620682434179 -0.050298021669131346 0.0086171261608101127 0.068227265140781021 0.12830137922862478 -0.092695986009319289 0.16246399528936303 -0.06468564562131493 0.078471595086516424 0.016935867843845674 0.13674371746900635 -0.094419462639301899 -0.035249909950815082 0.10496526988482856 0.045897702225830075 -0.10655158120888863 -0.03405804636221571 0.044383529277856021 0.13623222029759194 0.061108681955259439 -0.03749610015125418 0.14507665655846444 0.12274490421765068 -0.09902716301227267 -0.076231493044220389
leaf_weight=217145.49192583561 25862.204080581665 2008.4696913808584 3297.3338231891394 6417.7988611608744 1219.2545913308859 2081.0899495631456 8302.9235876947641 4299.6336115151644 5293.7546601593494 30567.01658667624 17698.47107642889 118961.0162448138 4216.303270727396 31127.627634108067 1304.509545981884 3629.8730414509773 3772.0726122707129 2749.9115294963121 3419.6999916434288 8359.4938780665398 29551.420976772904 16481.139914691448 3361.5395980328321 22874.558089181781 5736.6870158910751 5646.0917115658522 4375.4323347210884 10664.290167272091 4650.0511529147625 3431.1775915771723
leaf_count=1457548 160444 10165 16068 27720 5033 10504 47589 19401 21921 123791 109176 484164 22196 130097 6004 14568 20925 14954 15043 38810 191320 96142 14191 92611 26300 27057 18360 43257 27556 16262
internal_value=0 0.072976 0.093776 0.12013 0.139113 -0.0425496 -0.0756372 0.0784412 0.145266 0.0897692 -0.104071 0.150554 -0.0642923 0.10316 0.0760594 0.0604501 -0.0227778 -0.00150415 0.0539047 0.0188969 -0.094213 -0.0685655 0.115022 0.123452 0.0298856 -0.0143213 0.115647 0.159196 -0.0483549 -0.0290414
internal_weight=0 352531 309249 259150 178068 50098.2 43282.5 81082.3 171203 73351.5 255975 161155 42337.2 61694.6 7761.03 10047.7 16475 12702.9 5428.17 11656.8 37854.3 38829.7 31529.9 28168.3 8486.6 6865.35 5679.94 129625 21131.2 7730.81
internal_count=3309177 1618755 1354638 1074951 730522 279687 264117 344429 698432 308766 1690422 656144 244819 253888 34868 42288 84375 63450 25208 54878 238909 232874 128723 114532 41254 32090 24364 527421 123698 35663
is_linear=0
shrinkage=0.1


Tree=6
num_leaves=31
num_cat=0
split_feature=14 0 0 2 5 5 15 14 1 2 19 15 18 6 0 0 18 19 14 10 0 0 19 3 0 10 0 0 15 5
split_gain=396875 90554.5 88389.2 23011.2 13203.9 14943.3 9446.32 5770.54 5670.45 5095.88 3943.48 3390.26 2823.28 2306.64 2011.57 2648.23 1779.31 1747.94 1747.65 1740.77 1594.13 1765.69 1468.26 1407.11 1372.23 1338.8 1319.19 1358.53 1303.83 1287.79
threshold=-0.45873373211202612 0.39981727105619363 -0.60394038786131998 -0.68295677860974069 0.76656310790418192 -0.59160064008777524 -0.58687472510837557 -0.85022086228478522 0.25990868624099972 -0.096701048761630784 -0.24630487045102195 -0.4698300673812294 -0.18250024745112473 0.22431755112451598 0.084018928088013548 -0.23561027378265301 0.007068823476406842 -0.085780382044210401 0.76647967579011211 -0.39884957562281959 0.076047986257490471 -0.26039049887131605 0.24396656681080539 -0.2924778331701447 -1.234437506605939 -0.54647193631693758 0.068359064724684546 -0.28606095971392348 -0.26422738570858695 1.4413188411314517
decision_type=2 2 2 2 2 2 2 2 2 2 2 2 2 2 2 2 2 2 2 2 2 2 2 2 2 2 2 2 2 2
left_child=7 2 8 11 5 12 18 -1 17 22 20 25 28 -10 15 -6 -12 -2 -7 -9 21 -8 -3 -21 -19 -4 27 -18 -5 -13
right_child=1 9 3 4 14 6 10 19 13 -11 16 29 -14 -15 -16 -17 26 24 -20 23 -22 -23 -24 -25 -26 -27 -28 -29 -30 -31
leaf_value=-0.10701388494435267 -0.097423432856633352 -0.045087829715856842 0.044790550925303686 0.03718413318586853 -0.053076195669658537 0.0011671237671393895 0.015187291776948459 -0.084110428878973686 -0.042477806265654366 -0.09768176097322151 0.13814048876038015 0.15243986827939315 0.0079431230984480499 0.089165547060335221 -0.074473181399949712 0.039056073203711891 0.021595715995301801 -0.079376324520248162 0.065749300925398338 -0.0045423777889967614 -0.007253917226632732 0.10497588690588085 0.083462349340243491 -0.06379621144832881 -0.020860645248320916 0.11699115896156319 -0.0062150773921259604 0.12206017230419695 0.10577037348987053 0.045489308781505325
leaf_weight=203920.35854102671 16461.03759855032 1570.8893370479345 2915.5042874515057 5659.3854135721922 4030.2498968988657 5625.548808246851 2643.3345717489719 18830.97251714766 2254.7716348767281 31668.99029289186 65171.495324462652 78969.441194117069 20133.04817225039 3248.8182216733694 2693.2327098250389 13811.079554721713 1587.1487731337547 8276.5649116635323 16421.670880392194 6754.9400119185448 1910.698422268033 12774.283281490207 2045.3702535480261 9854.1323730647564 7769.7322980314493 21561.159579724073 1146.2750124484301 8858.573657810688 5432.0626649558544 1142.1328116059303
leaf_count=1470066 108344 8716 12177 24663 20178 25969 11723 121316 12199 217752 269676 330477 90206 14250 14155 61029 6548 53949 67634 38668 8597 51819 9441 60372 43362 87837 4868 35956 22513 4717
internal_value=0 0.066965 0.0842162 0.104144 0.0812078 0.0916761 0.108188 -0.100541 -0.0586366 -0.08484 0.121993 0.140963 0.0302618 0.0352324 0.00608353 0.0182439 0.13172 -0.0745289 0.0492706 -0.0632962 0.0789042 0.0895817 0.0276206 -0.0396976 -0.0510426 0.108391 0.0956203 0.106795 0.0707744 0.150915
internal_weight=0 345782 310497 272486 167898 147364 116139 239360 38010.9 35285.2 94091.8 104588 31224.5 5503.59 20534.6 17841.3 76763.5 32507.3 22047.2 35440 17328.3 15417.6 3616.26 16609.1 16046.3 24476.7 11592 10445.7 11091.4 80111.6
internal_count=3309177 1618755 1382846 1150742 715534 620172 482790 1690422 232104 235909 389187 435208 137382 26449 95362 81207 317048 205655 93603 220356 72139 63542 18157 99040 97311 100014 47372 42504 47176 335194
is_linear=0
shrinkage=0.1


Tree=7
num_leaves=31
num_cat=0
split_feature=14 0 0 15 5 1 2 14 5 14 0 19 20 18 20 0 3 0 5 5 10 5 19 2 19 2 7 0 2 3
split_gain=340168 75824.9 76830.6 17743.5 11895.6 10529.5 8791.89 8499.22 6497.71 4859.95 4374.95 4254.89 3621.64 3029.13 3000.66 2889.82 2711.92 2421.16 2311.86 2219.86 2186.45 1902.19 1703.37 1654.27 1634.93 1236 1227.7 1181.81 1165.33 1091.18
threshold=-0.51432875246192811 0.22234002588664117 -0.39541021215825983 -0.45550627977350716 1.2802634663753392 0.39275322892772646 -0.63675393098686561 0.58708953852742074 -0.80764142500679903 -0.89748989808347879 -0.91467085103707102 0.21976909691639354 0.899419567524816 -0.15227977578851787 0.4921304548055509 0.71349459676760441 0.45303738747986483 -1.234437506605939 0.85175693604494584 -0.57973534720532682 -0.67785321942905241 0.67379560317007337 0.27338550558428826 -0.4104787223803712 0.13047154206119002 -1.0251676125530094 1.0000000180025095e-35 0.035095269759913374 -0.52241371311318829 -0.31564250561862128
decision_type=2 2 2 2 2 2 2 2 2 2 2 2 2 2 2 2 2 2 2 2 2 2 2 2 2 2 2 2 2 2
left_child=9 2 5 7 8 10 -3 14 13 -1 -2 21 16 -5 20 24 25 -7 19 -12 -4 27 -21 -11 -8 -9 -19 -10 -6 -22
right_child=1 6 3 4 28 17 15 12 11 23 18 -13 -14 -15 -16 -17 -18 26 -20 22 29 -23 -24 -25 -26 -27 -28 -29 -30 -31
leaf_value=-0.10542610951973939 -0.082172972883568784 0.10375964372601826 -0.039840325856151472 0.095283238859758618 0.054295809695596955 -0.034325839314114842 -0.070158899950254414 0.12846419653363175 0.11568001235536891 -0.039229569796492815 -0.06376390794990823 0.14023544883102443 -0.020933762549014745 -0.004173329802547295 -0.073261309711445524 -0.096573818795765348 0.048043238058902933 0.12162681071926117 -0.090404686247391425 -0.013460642778787977 0.080304204881527688 0.038126645501143107 0.065271848956259301 -0.081262689452338221 0.0083412382517855533 0.089114363338275673 -0.0047777741869461507 0.057303130965922558 -0.047227822838666444 0.017693708221415253
leaf_weight=177598.59912872314 23820.554294392467 2819.3849811702967 3962.1141275912523 7653.5292892754078 1528.8750042170286 1638.9230220913887 5983.6641484498978 10929.200156792998 35932.469339966774 13578.748096480966 4057.8184232264757 110159.4981418252 3312.7993494570255 5104.874236151576 4010.5050749927759 27264.256802126765 13546.869885385036 5136.7209433466196 3527.0863739550114 5982.2333080023527 5169.62260222435 4052.2926394641399 5082.5399872809649 30159.76089976728 4766.607763916254 29605.100816592574 903.51222896575928 3838.3492477834225 4340.2566415816545 6030.9260228276253
leaf_count=1379232 163886 11883 19638 31606 6293 7828 35732 44762 150833 87849 21932 474233 15094 22171 19952 198773 56220 21797 21036 31001 22378 17379 22303 209346 25531 120787 4165 16062 21249 28226
internal_value=0 0.0612039 0.0786421 0.101371 0.119143 -0.0342896 -0.0666241 0.0613047 0.124069 -0.0980725 -0.0537739 0.129751 0.0805614 0.0554888 0.00366059 -0.0792608 0.0867786 0.0734702 -0.0175009 -0.000497288 0.0240063 0.103396 0.0227047 -0.0682134 -0.0353524 0.0997242 0.102719 0.110046 -0.0207815 0.0465916
internal_weight=0 340161 299327 249177 172610 50149.4 40833.9 76567.1 166741 221337 42470.2 153983 57394 12758.4 19173.2 38014.5 54081.2 7679.16 18649.7 15122.6 15162.7 43823.1 11064.8 43738.5 10750.3 40534.3 6040.23 39770.8 5869.13 11200.5
internal_count=3309177 1632750 1360831 1066883 739826 293948 271919 327057 712284 1676427 260158 658507 236863 53777 90194 260036 221769 33790 96272 75236 70242 184274 53304 297195 61263 165549 25962 166895 27542 50604
is_linear=0
shrinkage=0.1


Tree=8
num_leaves=31
num_cat=0
split_feature=14 0 0 2 14 0 1 5 5 14 15 2 15 0 19 19 18 5 5 20 10 7 14 19 7 19 20 5 5 19
split_gain=292222 63337.8 61361.1 17444.9 10039.4 8413.26 8362.06 4988.22 5122.31 4903.89 4333.69 4332.06 4163.91 3374.69 2781.7 2378.47 2102.38 1878.88 1870.03 1778.1 1664.39 1460.66 1428.21 1410.42 1387.38 1380.48 1341.25 1269.07 1245.34 1169.12
threshold=-0.51432875246192811 0.39981727105619363 -0.41091708574946434 -0.5677976752803634 0.3217195129908953 0.061480140427490219 0.24770277522160425 1.1049119470023547 -0.8788691205973006 -0.89228201133232454 -0.60918523136815639 0.05430651288326007 -0.51903791076393813 -0.97234662246282222 0.18064727462453836 -0.20083111883122637 -0.0070024529505836952 0.72692499190363946 -0.46794243703909782 0.45809798825810349 -0.46583941549215052 -0.10681357587274042 0.58708953852742074 0.33971148746597207 0.1898062035054999 0.20691036663380438 0.45809798825810349 -0.65110013736081307 -0.4885844272850714 -0.36654731751945374
decision_type=2 2 2 2 2 2 2 2 2 2 2 2 2 2 2 2 2 2 2 2 2 2 2 2 2 2 2 2 2 2
left_child=9 2 6 12 19 7 13 8 -6 -1 -10 23 22 -2 -8 -12 25 18 -15 -5 -11 28 -4 -3 27 -7 -22 -14 -16 -20
right_child=1 11 3 4 5 16 14 -9 10 20 15 -13 24 17 21 -17 -18 -19 29 -21 26 -23 -24 -25 -26 -27 -28 -29 -30 -31
leaf_value=-0.10248157027620852 -0.081602360337870994 -0.040760314983657085 0.040474253613078742 0.0079960726964573587 0.029396048572735329 -0.010266820826203713 -0.02982744755852439 0.0097555052791377661 0.051497606302217849 -0.083519345233786541 0.074834542486880248 -0.092810505025459539 0.098360600587659511 -0.057797259551436414 0.022973348874375438 0.11719518985242883 -0.045753845525199358 -0.082594542344470737 -0.040446415397404435 -0.075068809239939679 -0.027795754719779776 -0.012772055458901633 0.098137574954402659 0.071955207280622421 0.087707426152635562 0.065335324166123962 -0.088020996297442186 0.14036606178678973 0.14140593532772761 0.041646196270968244
leaf_weight=166386.88244359195 20613.543255388737 2299.3972601741552 5550.5404387712479 10933.258457630873 11889.304897755384 4206.7495260238647 2754.1589790284634 8051.3601155132055 16047.215346172452 20527.75050792098 16726.020158827305 27216.564242213964 8052.8406178504229 4444.4728334993124 1153.213986158371 63867.033852189779 5132.9951219111681 3972.6986286193132 2313.0172501057386 3371.806567043066 14798.947271302342 1106.8849564641714 18993.346425697207 2146.4652310907841 6494.2963648736477 5671.4560799002647 4929.6889147162437 67314.544783979654 3858.6727564632893 6939.6426023244858
leaf_count=1391982 150518 14258 24021 52864 49900 19296 14040 36961 65856 151611 69285 212157 34296 25310 5293 276285 24576 24899 13390 17650 98390 5398 78407 10749 28288 24600 34444 305468 16710 32275
internal_value=0 0.0566431 0.0708644 0.0904342 0.0679783 0.0766272 -0.0338409 0.0857004 0.0913344 -0.0949042 0.0989545 -0.0778607 0.121225 -0.0541138 0.0536289 0.108404 0.00616221 -0.0220458 -0.00448429 -0.0115829 -0.0635856 0.091194 0.0850972 0.0136588 0.132056 0.0331393 -0.0428445 0.135878 0.114155 0.0211244
internal_weight=0 331122 299459 252303 145897 131592 47156.3 116581 108530 206643 96640.3 31662.4 106406 38283.4 8872.93 80593.1 15011.2 17669.8 13697.1 14305.1 40256.4 6118.77 24543.9 4445.86 81861.7 9878.21 19728.6 75367.4 5011.89 9252.66
internal_count=3309177 1632750 1395586 1107753 637273 566759 287833 498287 461326 1676427 411426 237164 470480 246392 41441 345570 68472 95874 70975 70514 284445 27401 102428 25007 368052 43896 132834 339764 22003 45665
is_linear=0
shrinkage=0.1


Tree=9
num_leaves=31
num_cat=0
split_feature=14 0 0 15 5 19 14 2 5 1 20 14 19 2 3 0 20 10 0 7 1 3 0 5 20 1 20 5 2 5
split_gain=251604 53380 53592 16581.5 9089.08 8693.07 7666.5 7618.28 4875.8 4574.43 4215.33 3649.15 3444.62 2417.93 2361.66 2355.81 2177.98 1629.46 1594.31 1524.26 1473.22 1446.47 1393.25 1362.61 1347.5 1320.67 1248.37 1189.21 1156.3 1098.48
threshold=-0.59393976012288585 0.19861937351829514 -0.36483147504569235 -0.32184441900706523 1.242932151138908 0.27338550558428826 0.22194038338916169 0.10712492132005326 -0.99548423859256363 0.087444093536612352 0.48097349236277537 -0.92303176304136947 0.029228426277878312 -0.80194180968227313 0.47700910033236127 -0.91467085103707102 0.40640505053530351 -0.76358235980311429 0.80957279760046996 0.11809668306216974 0.40869308772085661 -0.046892236561851347 -1.1018292540460906 -0.6157550970725546 1.5261186782619567 0.32489218402611836 -0.19765631832555233 0.72692499190363946 -0.98398144447819458 0.67379560317007337
decision_type=2 2 2 2 2 2 2 2 2 2 2 2 2 2 2 2 2 2 2 2 2 2 2 2 2 2 2 2 2 2
left_child=11 2 5 6 8 15 16 13 20 22 14 -1 27 -3 28 -2 17 -4 -9 23 -5 -13 -7 -11 -12 -14 -15 -10 -8 -17
right_child=1 7 3 4 -6 9 10 18 12 19 24 21 25 26 -16 29 -18 -19 -20 -21 -22 -23 -24 -25 -26 -27 -28 -29 -30 -31
leaf_value=-0.10107439884283137 -0.086872660182977804 0.11029652582396321 -0.050169784384030282 -0.0047827292607534235 -0.02142993227470302 -0.058580528350111197 0.11300327978382113 -0.046560977759931184 0.090511032895302171 0.0086634672628241229 0.023181217317939637 -0.047698017317275285 0.11259218320714451 -0.058558256649567424 0.041548415565005811 -0.014037487909515006 -0.069288694739340823 0.032492875952566842 -0.097285510759632834 -0.019118943623659561 0.093201446145155076 -0.083996023245371212 0.010607677936512043 0.12329925649679344 -0.073170556626306324 0.13462013665242745 0.029564894808931066 0.013901651320885021 0.077722552698479053 -0.079907830475557579
leaf_weight=144277.4320416227 16372.709770426154 2335.8641264885664 3132.0151514559984 4462.6255478858948 5329.7009816020727 4549.2720430642366 13041.464858576655 8757.6278184056282 26088.092591151595 1282.0028901696205 7877.9887053519487 19246.479960843921 53831.98704110086 2811.3430775403976 14533.817161843181 10147.938785359263 4292.4710463285446 9993.59459169209 21187.119270265102 1244.5959962159395 2338.5653397142887 25556.295476421714 8079.471682369709 5423.1277972310781 1779.3010277450085 55051.444098234177 3754.2572531104088 2196.8800963163376 32290.668530479074 3373.2627370432019
leaf_count=1301897 124170 10214 17321 19030 25178 34296 56571 55978 113418 6238 33714 144949 243780 17032 60176 53100 23946 48457 178333 6411 9824 204695 39739 24803 8266 263555 19256 9472 133944 21414
internal_value=0 0.051702 0.0666068 0.0865905 0.106808 -0.0269287 0.0518729 -0.0583058 0.111555 0.0230913 0.0667364 -0.0933329 0.115653 0.0229181 0.0766262 -0.0613617 -0.00745384 0.012768 -0.0824506 0.0825159 0.0289088 -0.068403 -0.0143161 0.101381 0.00542895 0.12373 -0.00816881 0.0845608 0.0878724 -0.0304708
internal_weight=0 325559 286713 236241 149299 50472.4 86941.3 38846.2 143970 20578.5 69523.2 189080 137168 8901.46 59866 29893.9 17418.1 13125.6 29944.7 7949.73 6801.19 44802.8 12628.7 6705.13 9657.29 108883 6565.6 28285 45332.1 13521.2
internal_count=3309177 1657636 1376823 1066652 684257 310171 382395 280813 659079 111487 292671 1651541 630225 46502 250691 198684 89724 65778 234311 37452 28854 349644 74035 31041 41980 507335 36288 122890 190515 74514
is_linear=0
shrinkage=0.1


Tree=10
num_leaves=31
num_cat=0
split_feature=14 0 0 2 14 5 5 15 14 15 19 2 19 6 20 18 0 0 15 0 0 10 5 5 10 0 0 20 6 7
split_gain=216908 45104.6 42737.4 18491 9469.09 8093.57 7627.97 4052.64 3705.6 3308.51 3199.43 3026.7 2667.18 2643.52 2377.37 2292.21 1709.31 2308.65 1539.09 1532.16 2132.24 1512.48 1370.17 1639.09 1198.02 1152.59 1690.91 1150.8 1100.74 1094.81
threshold=-0.59393976012288585 0.46466671542657645 -0.64653730765213668 -0.77809957625035819 0.65714722526906355 0.74584987956422777 -0.47829348715820069 -0.60689181593658292 -0.92303176304136947 -0.55154808039045378 0.064757592530069477 0.042875075266238828 0.24396656681080539 0.73221079421326041 0.61355189279512201 -0.1733908993026029 0.035095269759913374 -0.20903210690217178 -0.61119699929058935 -0.22700990257970274 0.030471883905744662 -0.46583941549215052 0.64007873186716024 -0.47829348715820069 -0.6921522660920697 0.055592654743288346 -0.21225637258908164 0.45809798825810349 0.54569861964075439 -0.035395774276900903
decision_type=2 2 2 2 2 2 2 2 2 2 2 2 2 2 2 2 2 2 2 2 2 2 2 2 2 2 2 2 2 2
left_child=8 2 10 9 14 6 15 -8 -1 24 -2 28 19 22 18 -6 17 -7 -5 -9 -21 -10 23 -12 -4 26 -17 -23 -3 -11
right_child=1 11 3 4 5 16 7 12 21 29 13 -13 -14 -15 -16 25 -18 -19 -20 20 -22 27 -24 -25 -26 -27 -28 -29 -30 -31
leaf_value=-0.098605999365935226 -0.080914418818361408 -0.035290268445088438 -0.0086652592862219383 -0.015505514474551372 0.062646345037693327 -0.042649119825029197 0.038761172302998359 0.02864013164333587 -0.08277418666609003 0.12630694838270304 -0.067922814261995534 -0.088376361314740207 0.11058177120564468 0.092289339525648634 -0.068496753160900689 -0.037490924253520179 -0.059751493721322824 0.042268598545355134 0.037510431553299355 0.097170884726605705 0.022927062205338657 -0.031367338795816095 -0.091133432819632279 0.016151288106626579 0.081841729646393954 -0.056106233434516206 0.036866623273984427 -0.08616276821618668 0.074275413059652753 0.081055565216841055
leaf_weight=133649.27388204634 16442.857639402151 2367.156310595572 1606.9191880971193 10328.714533530176 13124.575406596065 4501.6546231135726 14605.017490491271 6108.0265221744776 22295.449651695788 59565.579679198563 3687.107234813273 23427.416013084352 49492.707741856575 1927.6611848175526 4326.0728537812829 4118.4873746335506 3482.0106798112392 11085.63087156415 11654.657327584922 22055.600931271911 4691.0087656080723 15294.962008066475 3106.8722184896469 6248.9332177862525 16274.534922040999 2436.5130145549774 11879.579251810908 5114.3642520606518 1496.6693529933691 5873.7952203601599
leaf_count=1301897 129783 14836 7379 52157 56803 23556 60119 26901 191138 296383 25131 208458 232650 9396 24228 18891 18926 48130 55137 99053 21243 116486 21778 39888 70512 12114 49683 42020 7325 27176
internal_value=0 0.0480276 0.0596466 0.0730944 0.0545346 0.0643873 0.0734082 0.0873083 -0.0904121 0.111829 -0.0504629 -0.0748519 0.0959186 -0.0170166 -0.000733681 0.0307061 0.00359358 0.0177441 0.0126013 0.0738297 0.0841495 -0.0647683 -0.0331713 -0.0150473 0.0737083 0.00796604 0.0177243 -0.0450985 0.00715047 0.122245
internal_weight=0 315916 288625 257211 173890 147581 128512 96952.4 176354 83320.8 31413.4 27291.2 82347.3 14970.6 26309.4 31559.2 19069.3 15587.3 21983.4 32854.6 26746.6 42704.8 13042.9 9936.04 17881.5 18434.6 15998.1 20409.3 3863.83 65439.4
internal_count=3309177 1657636 1427017 1201041 799591 668069 577457 439966 1651541 401450 225976 230619 379847 96193 131522 137491 90612 71686 107294 147197 120296 349644 86797 65019 77891 80688 68574 158506 22161 323559
is_linear=0
shrinkage=0.1


Tree=11
num_leaves=31
num_cat=0
split_feature=14 0 0 15 5 19 2 20 5 1 14 14 18 1 19 0 20 10 19 2 0 20 8 10 5 0 5 5 3 18
split_gain=187076 38239.7 39073.4 14144 7235.92 6678.82 6346.48 5798.44 4634.03 3754.66 3752.87 3503.45 2783.05 2501.26 2014.3 1815.41 1770.05 1746.6 1588.66 1528.86 1494.8 1419.3 1335.88 1302.88 1287.75 1245.7 1221.34 1324.07 1131.48 1062.57
threshold=-0.59393976012288585 0.177276052429511 -0.3518062552866566 -0.32184441900706523 1.0747449401572384 0.20021244119306811 0.16074891308977934 0.40640505053530351 -0.63959349772488439 0.087444093536612352 -0.91546871731357837 0.76647967579011211 -0.14759659089633984 0.25990868624099972 0.22582523349540348 -1.035439991328946 1.2407775419201343 -0.86637487284904158 -0.030642660086196812 -0.90277749223276571 1.0194434432318833 0.32941667919734774 0.06796384510268362 -0.64707451008953043 -0.43726472329488081 -1.4630411009377307 0.85175693604494584 -0.4885844272850714 0.27159144658347373 -0.028554663476939333
decision_type=2 2 2 2 2 2 2 2 2 2 2 2 2 2 2 2 2 2 2 2 2 2 2 2 2 2 2 2 2 2
left_child=10 2 5 7 8 15 14 11 12 25 -1 17 -5 18 -3 -2 -9 -4 -10 -13 29 23 24 -12 -11 -7 27 -16 -19 -8
right_child=1 6 3 4 -6 9 20 16 13 22 21 19 -14 -15 26 -17 -18 28 -20 -21 -22 -23 -24 -25 -26 -27 -28 -29 -30 -31
leaf_value=-0.09585953465149015 -0.085726138955008635 -0.037413653887766102 -0.04716110718250778 0.081197614228338766 -0.0084790606488911024 -0.069569373424336597 -0.0096743739319607031 0.0075009155335180851 0.067125789564600788 0.017062623005492793 -0.07391575082717769 0.10196459274466754 -0.0069391694953649429 0.12347330357145464 -0.01604565087998602 -0.032924515328112268 -0.070777644933483153 0.051744496380464772 0.10353828948615405 0.060430443110623289 -0.094719586838090383 -0.08807470063261727 -0.013072467346325735 -0.028259616336161832 0.11396152847459751 0.00098385917651363499 -0.072525984965453538 0.099961851152584158 -0.0022585409504032451 -0.074645400563527947
leaf_weight=126340.12426070124 12210.478250712156 3993.8762521371245 3165.4912628084421 9926.3588540107012 6375.2653342336416 3232.568532705307 4484.8624105378985 11397.786027796566 16340.187375023961 1879.3542526438832 10529.58683539927 11669.750384584069 5606.0312525033951 53143.542235732079 1313.8006438836455 13951.232664868236 3869.3442162498832 11546.164824485779 44924.30474857986 36841.897861123085 16652.506759040058 12292.07544311136 1619.3111183345318 15380.02689345181 5075.2925539314747 11080.912417471409 670.47003392130136 3917.8510286957026 5843.3540175259113 5737.3686813563108
leaf_count=1327459 104610 24172 16791 44648 29744 26176 30667 52403 72426 9235 95300 54085 24079 284430 6748 83524 20331 52086 220849 154201 160963 108299 8429 120483 24481 60049 3704 19103 28029 41673
internal_value=0 0.0446331 0.0576761 0.075622 0.0955362 -0.0230543 -0.0510317 0.043433 0.100639 0.0163977 -0.087555 0.0557612 0.0493868 0.107598 0.0174316 -0.0575687 -0.0123382 0.021161 0.0938265 0.0704217 -0.0762417 -0.0600905 0.0687298 -0.0468141 0.0877765 -0.0149499 0.0545445 0.0708294 0.033598 -0.0461403
internal_weight=0 306469 269699 220649 136316 49049.1 36770.7 84333.8 129940 22887.4 164542 69066.7 15532.4 114408 9896 26161.7 15267.1 20555 61264.5 48511.6 26874.7 38201.7 8573.96 25909.6 6954.65 14313.5 5902.12 5231.65 17389.5 10222.2
internal_count=3309177 1657636 1370606 1054102 676176 316504 287030 377926 646432 128370 1651541 305192 68727 577705 53727 188134 72734 96906 293275 208286 233303 324082 42145 215783 33716 86225 29555 25851 80115 72340
is_linear=0
shrinkage=0.1


Tree=12
num_leaves=31
num_cat=0
split_feature=14 0 0 2 15 1 14 0 0 14 19 5 5 14 15 5 2 18 5 18 2 20 5 5 10 18 15 19 18 19
split_gain=161438 32493.2 30408.3 13693.7 6904.9 6391.98 5095.53 4805.46 3968.42 3377.95 2743.1 2491.42 2436.41 2229.7 2156.86 2995.48 2116.94 1743.08 1724.42 1609.14 1541.75 1463.3 1349.17 1790.44 1159.6 1080.82 967.223 931.558 920.011 906.2
threshold=-0.62896860349370709 0.53724139456278996 -0.3294553979661165 -0.041645934981327369 -0.39982054368056447 0.80199297313240636 0.28987510992651228 0.022894896977829159 -1.1018292540460906 -0.9471140928588091 -0.32959343514521616 0.90035955892950781 -0.60293433807685715 0.65714722526906355 -0.16219051668279022 1.3174391706151878 0.20424795598815362 0.078078341935695877 -0.80764142500679903 -0.0070024529505836952 -0.38873237818980677 0.33694642138676806 0.69080919374836869 -0.68689285570958003 -0.76358235980311429 0.050501414976288815 -0.57898859485243859 0.038441373323248644 -0.21390794861984824 -0.21548736510376529
decision_type=2 2 2 2 2 2 2 2 2 2 2 2 2 2 2 2 2 2 2 2 2 2 2 2 2 2 2 2 2 2
left_child=9 2 5 4 13 8 -5 14 -2 -1 -10 12 28 24 21 18 27 22 -16 29 26 -8 23 -12 -4 -20 -11 -3 -6 -9
right_child=1 16 3 6 11 -7 7 19 10 20 17 -13 -14 -15 15 -17 -18 -19 25 -21 -22 -23 -24 -25 -26 -27 -28 -29 -30 -31
leaf_value=-0.095328754222252565 -0.070470961807164431 -0.069306246473082839 -0.043781969397957032 -0.026105608047563362 0.085753838018695974 0.084843121460797921 0.04862959263101195 -0.032039898149133154 -0.05701652386412405 -0.047069155999331848 -0.034484441981941276 0.029414024776782191 0.11297396720384141 0.068786156740919632 0.0035424066425210686 -0.049254167468160838 -0.086298185035629721 -0.046772764908866934 0.098318559903725899 -0.042174870117933451 -0.075387701431870832 -0.0074175742355678661 -0.042817811462613931 0.055960676751342246 0.03382328901321479 0.056594769348665724 0.024139003620978802 0.028282051786780768 0.027487789231625533 0.042253777715793611
leaf_weight=105713.73009348661 16551.937181949615 1553.4104776233435 2349.0343388170004 11479.992756530643 7079.5191012099385 5275.3536403030157 20687.607206955552 2202.4060938581824 8414.2099488899112 12426.789628535509 2733.4031069949269 4427.6659418195486 74175.455662943423 32543.732960440218 2692.1939778476954 1882.2754503488541 19126.904804803431 4168.4680085778236 22776.001986429095 6614.3016355261207 31447.645785361528 6012.0046076625586 2436.2708001509309 10983.508279725909 10677.134990051389 8535.0506139993668 2253.4091820046306 2641.5031647756696 4390.6383648216724 6450.0189326256514
leaf_count=1200003 144335 11843 12695 64774 33737 25702 86468 11475 55394 113098 14849 20071 409177 144298 11200 9191 195325 23046 114152 34998 307383 26569 14325 52545 49281 38685 17961 15798 19920 30879
internal_value=0 0.0411484 0.0507414 0.0664905 0.086512 -0.0193323 0.0360894 0.0452606 -0.0314672 -0.0854762 -0.00900098 0.10256 0.106341 0.0547916 0.0575313 0.0735441 -0.0721887 0.0108799 0.0803417 -0.00504263 -0.0628967 0.0360093 0.0257577 0.0379375 0.0198286 0.0869451 -0.0361387 -0.00785568 0.0634503 0.0233429
internal_weight=0 298860 275538 224975 135643 50563.2 89331.9 77851.9 45287.8 151842 28735.9 90073.3 85645.6 45569.9 62585.1 35885.5 23321.8 20321.7 34003.2 15266.7 46127.8 26699.6 16153.2 13716.9 13026.2 31311.1 14680.2 4194.91 11470.2 8652.43
internal_count=3309177 1670732 1447766 1117570 689179 330196 428391 363617 304494 1638445 160159 482905 462834 206274 286265 173228 222966 104765 164037 77352 438442 113037 81719 67394 61976 152837 131059 27641 53657 42354
is_linear=0
shrinkage=0.1


Tree=13
num_leaves=31
num_cat=0
split_feature=14 1 0 0 7 15 5 5 14 14 5 0 0 15 0 5 5 20 19 10 5 5 19 2 19 0 7 19 20 5
split_gain=139331 28198.2 20034.5 21430.9 7259.08 6696.81 4588.32 4133.83 3412.91 3354.4 3173.96 3126.11 2439.17 2421.48 2100.31 2062.51 2052.37 1899.4 1604.17 1431.21 1356.92 1304.35 1294.8 1124.39 1115.56 1037.1 1031.74 1011.27 997.528 842.694
threshold=-0.62896860349370709 0.36447297358772129 0.15894498265337945 -0.3014833520035553 -0.10681357587274042 -0.26422738570858695 -0.56772283500958165 1.2802634663753392 -0.94200571986723103 0.18691154001834034 -0.77119935455681776 -1.1018292540460906 1.0194434432318833 -0.60918523136815639 0.22234002588664117 0.85175693604494584 -0.4885844272850714 0.33694642138676806 0.029228426277878312 -0.46583941549215052 0.65658608502984406 -0.36732962057224078 -0.10951768522921441 -0.90277749223276571 0.35371295704973571 -0.80130093753412968 -0.64692568118938321 0.081447020106700366 0.23193882965349938 0.59398394528977405
decision_type=2 2 2 2 2 2 2 2 2 2 2 2 2 2 2 2 2 2 2 2 2 2 2 2 2 2 2 2 2 2
left_child=8 2 3 11 6 9 22 10 -1 28 26 -2 20 -8 25 16 -13 -11 29 -10 21 -4 -3 -21 -18 -6 -7 -23 -5 -12
right_child=1 4 12 5 14 7 13 -9 19 17 18 15 -14 -15 -16 -17 24 -19 -20 23 -22 27 -24 -25 -26 -27 -28 -29 -30 -31
leaf_value=-0.092740507632911862 -0.068685978213589918 -0.020441924561791475 -0.054582193649801783 -8.2079329651333775e-05 -0.069739481994625055 -0.025216204226267393 0.056034215000822646 -0.035326728557482846 -0.076491141003106347 0.048655145308744166 0.067863924470413423 -0.045742605300951339 -0.091225226046786942 0.11689382783703402 -0.073741903386925073 -0.072545441100578908 -0.0021921967748612294 -0.0015439230776394667 0.094852180388935753 0.0094149099566168681 -0.082806834043586977 -0.027870792117854579 0.060599354652025497 -0.050926697278681814 0.050414335604738431 0.043158605023112695 0.052901439619215396 0.054325168439987581 -0.059518362727328446 0.0054104638413823829
leaf_weight=99937.447084508836 14621.413350313902 2313.9694952815771 4462.2477791383862 8319.0392595902085 873.68961248546839 3546.1163920536637 7458.0039326623082 3453.1437113657594 21770.626671329141 35788.128336161375 15189.880952261388 6861.5428031161427 13719.515143670142 52978.930417887866 2046.9225205555558 4654.2213263064623 9904.2863561734557 9548.4953892678022 42117.583657279611 3810.9426488727331 3879.8517088890076 2758.366007424891 13319.197917930782 16279.105504512787 6797.6390543282032 11843.242015182972 3231.4119713008404 3272.7573598474264 4274.6681141033769 2518.7675653100014
leaf_count=1225234 137874 12246 30764 44998 5075 15137 34749 17052 228454 151464 71816 40748 151257 311157 16060 33289 53598 42008 227638 31548 30352 18619 65840 153209 31495 58083 13623 17952 26652 11186
internal_value=0 0.038274 0.0171934 0.0300632 0.0844388 0.0505549 0.0968928 0.0713556 -0.0826998 0.0254 0.0768867 -0.0311586 -0.0610652 0.109384 0.02027 -0.0117133 0.000302225 0.0380826 0.0842342 -0.0587287 -0.0322768 -0.0135937 0.0486039 -0.0394803 0.0192185 0.0354022 0.012029 0.0167324 -0.0202565 0.0589809
internal_weight=0 289753 198919 170826 90834 127987 76070.1 70056.9 141798 57930.3 66603.8 42839.1 28092.7 60436.9 14763.9 28217.7 23563.5 45336.6 59826.2 41860.7 14373.2 10493.4 15633.2 20090 16701.9 12716.9 6777.53 6031.12 12593.7 17708.6
internal_count=3309177 1670732 1167522 918578 503210 621574 423992 356452 1638445 265122 339400 297004 248944 345906 79218 159130 125841 193472 310640 413211 97687 67335 78086 184757 85093 63158 28760 36571 71650 83002
is_linear=0
shrinkage=0.1


Tree=14
num_leaves=31
num_cat=0
split_feature=14 19 1 0 0 0 0 15 15 5 5 14 20 14 7 0 5 5 20 18 0 10 18 10 20 0 0 5 14 3
split_gain=120237 24764.7 13547.5 8495.26 10488.9 8022.48 6734.2 6988.53 4311 3505.28 3575.39 3097.81 2332.08 2244.35 1852.54 1648.46 1641.22 2034.82 1400.24 1399.03 1189.54 1152.43 1123.72 1095.82 1036.94 948.445 940.802 913.778 903.445 857.143
threshold=-0.66028226650701705 -0.041001200416451618 0.53678228579079834 0.14274266697404314 -0.24942789570562859 0.62011418213666236 -0.3402479154389772 -0.59035508361418454 -0.51903791076393813 -0.66348160997928785 0.72692499190363946 -0.9495687655950219 0.20221703828035914 0.15719009715824947 -0.070749188770926244 -0.80130093753412968 0.82940167419943489 -0.42781021507812872 0.25476929614449578 -0.013763377415372398 0.0059137809984694473 -0.67785321942905241 -0.24226711552816879 -0.50703968111740261 0.20221703828035914 -1.662810054037948 0.039667367851975104 0.8748543145775588 0.89916468855837473 -0.18712288531026375
decision_type=2 2 2 2 2 2 2 2 2 2 2 2 2 2 2 2 2 2 2 2 2 2 2 2 2 2 2 2 2 2
left_child=11 3 5 4 15 6 16 13 23 22 19 -1 20 -8 -10 -2 17 -3 21 -11 28 -13 -9 -4 -15 -19 -12 -25 -6 -23
right_child=1 2 8 -5 12 -7 7 9 14 10 26 18 -14 24 -16 -17 -18 25 -20 -21 -22 29 -24 27 -26 -27 -28 -29 -30 -31
leaf_value=-0.091090618277739566 -0.078649231903436506 -0.043455941789149098 -0.014690883865240449 -0.07681975985401153 0.018537056193776373 -0.062016155119701488 -0.035346593093118849 0.069311624675091152 0.11266463382698995 0.094020246165425647 0.031844952959638552 -0.069799334262230797 -0.035617543439271052 0.044110488732819045 0.038825696545762824 -0.024919848896138731 -0.071691275483281303 -0.044218739880591981 -0.082208496327682679 0.050875620867885198 -0.00073665641865712332 -0.00098419244077438905 -0.004324036512989275 0.069059377142494965 0.00027246338629208222 0.03655937293409544 -0.055743020620880358 -0.00057736312541493593 0.057716843331186152 -0.04787494734573642
leaf_weight=89597.360757887363 10678.658795312047 6153.048377417028 2347.6280552893877 15823.423917353153 7642.7497555091977 7843.8672053217888 7385.9216141402721 2851.1022074073553 44372.297689534724 46941.040411695838 6176.0252071842551 10435.36393994838 4364.2395685389638 14638.728008814156 3679.5538944154978 12273.073440335691 3369.1644066348672 1665.5880554839969 15147.68170324713 8948.4945742636919 5700.0442730039358 7035.7372984141111 7588.313926294446 12774.507756389678 8545.543966665864 11416.754788145423 1530.1718361005187 2210.4183405265212 25596.06875641644 8742.1524264290929
leaf_count=1186760 105308 42142 11654 150560 37435 87066 45238 13143 277716 265346 29136 118619 22317 61634 20688 67223 26293 14995 167133 45571 26312 63950 34800 60961 37212 60481 9063 10575 120591 89255
internal_value=0 0.0352786 0.0542246 -0.0109884 0.00473391 0.0361352 0.0421873 0.0528829 0.0915889 0.069492 0.0783079 -0.0806408 0.033701 0.0126588 0.10701 -0.0499183 -0.00730769 0.00396939 -0.0580041 0.0871123 0.0414701 -0.0440173 0.0157866 0.048835 0.0279521 0.026275 0.0144532 0.0587873 0.0487081 -0.0269652
internal_weight=0 282516 200438 82078.3 66254.8 135054 127210 104605 65384.4 74035.1 63595.7 130958 43303.1 30570.2 48051.9 22951.7 22604.6 19235.4 41360.9 55889.5 38938.9 26213.3 10439.4 17332.6 23184.3 13082.3 7706.2 14984.9 33238.8 15777.9
internal_count=3309177 1683460 1153714 529746 379186 772120 685054 541143 381594 397059 349116 1625717 206655 144084 298404 172531 143911 117618 438957 310917 184338 271824 47943 83190 98846 75476 38199 71536 158026 153205
is_linear=0
shrinkage=0.1


Tree=15
num_leaves=31
num_cat=0
split_feature=14 1 0 0 7 15 5 5 14 15 0 20 5 0 14 0 18 7 2 19 5 5 5 15 5 0 10 0 14 5
split_gain=103717 21683.3 14134.2 14771.1 6500.31 5469.3 5090.79 3169.56 3103.58 2852.17 2725.59 2655.47 2501.95 2135.08 1828.6 1754.02 1653.34 1599.99 1355.34 1330.3 1322.43 1065.42 1038.43 957.806 937.525 934.68 921.948 855.051 837.298 784.542
threshold=-0.66028226650701705 0.29827552659257789 0.15894498265337945 -0.26625876724319558 -0.058850872028247896 -0.23364851328760686 -0.66348160997928785 1.3997318479017278 -0.9495687655950219 -0.61119699929058935 -1.035439991328946 0.80936910985260735 -0.49889826211308058 1.0194434432318833 0.93313205182704995 0.22234002588664117 0.13413765764245919 -0.52552846663323927 -0.17076523488383821 -0.42661437202947805 0.59398394528977405 0.78744708875621272 0.57935103877408467 -0.57898859485243859 -0.55540247573677537 0.15894498265337945 -0.94870233767105228 -0.85927682348023926 0.85458252426823844 0.62416937735253952
decision_type=2 2 2 2 2 2 2 2 2 2 2 2 2 2 2 2 2 2 2 2 2 2 2 2 2 2 2 2 2 2
left_child=8 2 3 10 6 11 25 12 -1 -8 -2 14 17 21 26 22 19 -7 23 -12 -14 24 -6 -10 -4 27 -5 -3 -29 -21
right_child=1 4 13 5 15 7 9 -9 18 -11 16 -13 20 -15 -16 -17 -18 -19 -20 29 -22 -23 -24 -25 -26 -27 -28 28 -30 -31
leaf_value=-0.088885082046609193 -0.061309275980440114 -0.068691403813606708 -0.058626037178185035 -0.055225376729916835 0.053780231831344887 -0.02062950992626798 0.043978261155639631 -0.04035593816406205 -0.042827635121988616 0.10718705674956347 -0.044708360210005842 -0.044336406923672814 0.085759932296819302 -0.087422365194793628 0.042856008762498274 -0.069697908333646183 -0.048759769392570769 0.057623905852618874 -0.07030519820581306 0.02678900135353441 0.03824280612629527 -0.081443555379963437 -0.0020668361384017135 0.025349618373401096 0.0064185163005343222 -0.045130205022207159 0.011630203408513546 0.0065875438238348254 0.063528420724121862 -0.029224865704489296
leaf_weight=82980.995445549488 14161.106322415173 678.71056563407183 3216.7026466429234 2351.8885649964213 7146.6715402305126 4446.1525198444724 8292.4800188615918 2789.952594101429 13815.070041447878 51308.825219966471 4249.9595409855247 5715.3896310776472 39926.857335284352 11815.168143898249 30477.841398432851 2142.2989170923829 7460.5474637895823 6336.6244989335537 23265.497283041477 15045.673471495509 6863.8192980587482 3007.2539056017995 6233.6117171272635 2421.8613445386291 7122.7525499463081 1409.5914999470115 16773.776850357652 3675.8351619765162 8681.8768107295036 2998.8847177624702
leaf_count=1186760 145636 3863 24371 14070 38977 19364 39872 13848 145989 337759 27392 31691 230202 148567 131139 18176 45892 30086 271595 75258 33827 26834 29892 21373 44961 9319 83395 17486 43550 18033
internal_value=0 0.0327712 0.0131962 0.0241783 0.0731496 0.0429227 0.0854839 0.063738 -0.0779022 0.0983927 -0.0251974 0.0202093 0.0687823 -0.0564623 0.0276464 0.0143115 -0.00801096 0.025357 -0.054831 0.00562505 0.0787895 -0.0290548 0.0277622 -0.0326585 -0.0138175 0.0322251 0.00340895 0.0405893 0.0465912 0.0174799
internal_weight=0 274330 184760 159598 89569.9 115682 74047.3 60363.4 122483 59601.3 43916.2 55318.9 57573.5 25161.9 49603.5 15522.6 29755.1 10782.8 39502.4 22294.5 46790.7 13346.7 13380.3 16236.9 10339.5 14446 19125.7 13036.4 12357.7 18044.6
internal_count=3309177 1683460 1144566 899833 538894 587622 451849 327327 1625717 377631 312211 260295 313479 244733 228604 87045 166575 49450 438957 120683 264029 96166 68869 167362 69332 74218 97465 64899 61036 93291
is_linear=0
shrinkage=0.1


Tree=16
num_leaves=31
num_cat=0
split_feature=14 19 1 0 5 5 0 0 15 15 14 0 20 0 18 0 7 20 5 7 10 0 10 0 0 10 14 2 18 5
split_gain=89511.5 19119.9 11533.8 6501.85 6015.72 6836.3 5701.46 6890.51 4665.3 3708 2779.37 2594.73 1789.5 1722.92 1467.96 1407.63 1368.56 1278.8 1264.49 1112.16 1103.65 1016.59 966.407 946.952 907.194 904.588 873.925 815.425 729.864 711.793
threshold=-0.68814611918835233 -0.1221185846883818 0.67042237826872453 0.71349459676760441 -0.78332333019794642 0.64007873186716024 0.14274266697404314 -0.23561027378265301 -0.62491725652158181 -0.51903791076393813 -0.95427908354829538 -0.26625876724319558 -0.085365052786086928 -0.64653730765213668 -0.051083096276793409 -0.80130093753412968 -0.32052277031030013 0.32941667919734774 -0.19632025001597272 0.10620407546360264 -0.39005457907155788 -1.662810054037948 -0.79130156133413621 -0.3294553979661165 0.0059137809984694473 -0.73562440889107428 0.84184476304248534 -1.0251676125530094 0.055497468218911321 0.67379560317007337
decision_type=2 2 2 2 2 2 2 2 2 2 2 2 2 2 2 2 2 2 2 2 2 2 2 2 2 2 2 2 2 2
left_child=10 6 3 4 23 8 7 15 22 25 -1 21 24 -7 -13 -2 -11 20 -16 -15 -12 -10 -6 -3 -9 -4 -25 29 -23 -27
right_child=1 2 9 -5 5 13 -8 12 11 16 17 14 -14 19 18 -17 -18 -19 -20 -21 -22 28 -24 26 -26 27 -28 -29 -30 -31
leaf_value=-0.08704595791950169 -0.076536034059193778 -0.055085658452999987 -0.038321459421581133 -0.059438566773799051 -0.049765609690889723 -0.075529670193497642 -0.073025166274421502 0.041442288021680748 -0.039488991899814398 0.10834057677611551 -0.060393216325226567 0.085584879572386752 -0.02884617380473636 0.068797143500042499 -0.0053049969389777907 -0.023951857649534322 0.046941005550655293 -0.080715635816913309 0.066503927996763218 -0.0037234800314160502 -0.018987289181029206 0.05192353644586082 0.019024774571246131 -0.031422776251008887 -0.0055011148467031161 0.078236969890607633 0.01490860713704689 0.010632719281604938 -0.0048120273526199324 0.0098154728040744533
leaf_weight=75180.3124865219 9000.0439957678318 4100.2426299229264 1242.0033580437303 7475.8148362413049 2389.2352202534676 3021.8484840393066 13416.490020625293 26794.696683853865 1738.416212439537 34818.173170030117 13984.658898934722 47086.75045466423 5242.6488319039345 2442.3011718764901 3378.5019146949053 11719.895125433803 4052.7638139128685 12093.267821572721 8943.9874338135123 15764.371064066887 11927.884215801954 12126.849368721247 14061.330123670399 6356.0881234183908 4864.019583016634 8196.5835605040193 11325.343675278127 3697.9642128124833 2788.865282908082 1866.7058479636908
leaf_count=1160071 98216 30015 6464 92835 13594 27675 141002 131538 16859 248729 175307 285572 27117 13006 17474 65652 24455 153380 49600 80738 123573 65938 66622 36544 22730 40960 50422 18410 15808 8871
internal_value=0 0.030159 0.0462061 0.0313497 0.0363578 0.0455775 -0.014314 -0.000643777 0.0573212 0.08564 -0.0759043 0.0677646 0.0252686 -0.00560162 0.0775435 -0.0467927 0.101939 -0.0538647 0.0468158 0.00600467 -0.0413335 0.0328808 0.00903385 -0.0117872 0.0342299 0.0434121 -0.00174651 0.0507888 0.0413154 0.065545
internal_weight=0 267912 196874 143000 135524 113742 71037.8 57621.3 92513.9 53874.2 113186 76063.4 36901.4 21228.5 59409.2 20719.9 38870.9 38005.8 12322.5 18206.7 25912.5 16654.1 16450.6 21781.7 31658.7 15003.3 17681.4 13761.3 14915.7 10063.3
internal_count=3309177 1696846 1210591 862702 769867 652886 486255 345253 531467 347889 1612331 451251 181385 121419 352646 163868 273184 452260 67074 93744 298880 98605 80216 116981 154268 74705 86966 68241 81746 49831
is_linear=0
shrinkage=0.1


Tree=17
num_leaves=31
num_cat=0
split_feature=14 19 0 0 14 1 5 5 0 15 20 15 18 15 18 20 0 0 10 0 5 8 5 5 0 0 2 5 20 0
split_gain=77211.4 16890.9 7729 7387.31 7362.5 7152.42 4016.66 5590.08 2878.11 2409.98 2339.87 2032.9 1793.71 1692.52 1667.51 1458.36 1373.02 1360.41 1307.04 1132.45 973.493 935.243 909.032 1113.82 877.095 838.139 831.458 820.978 812.385 786.552
threshold=-0.09146161676947491 0.21348744640323439 0.53724139456278996 -0.3294553979661165 -0.89228201133232454 0.67042237826872453 0.98175505581605582 -0.39748458717612084 0.030471883905744662 -0.61497912298476309 0.59842987336860798 -0.45550627977350716 0.040860900996439957 -0.59365438300697437 -0.21806249799429475 0.41600211470475529 -0.19695602271147086 -1.234437506605939 -0.67785321942905241 -1.3831451873515539 0.67379560317007337 -0.13406578980118464 -0.52131427244846495 0.67379560317007337 0.177276052429511 -0.57108589669146581 0.226576035050817 -1.0525560766193847 0.090931268269563451 2.1079413382875782
decision_type=2 2 2 2 2 2 2 2 2 2 2 2 2 2 2 2 2 2 2 2 2 2 2 2 2 2 2 2 2 2
left_child=4 2 3 17 28 6 7 14 15 -9 13 -7 19 18 27 16 -5 -2 -6 -11 -19 -13 -15 -24 25 -8 -18 -3 -1 -21
right_child=1 5 -4 8 10 11 24 9 -10 12 -12 21 -14 22 -16 -17 26 20 -20 29 -22 -23 23 -25 -26 -27 -28 -29 -30 -31
leaf_value=-0.069656359121401917 -0.076043275466953789 -0.012867514013648343 -0.080015211740723888 0.0058426711149248862 -0.066237635900783465 0.053458698616021177 -0.081649101985128383 0.018058066152941164 -0.017860706775851491 -0.016494082338638454 -0.079401635874210716 0.10711246443305544 0.022289017140789971 -0.020321975776656204 -0.01112749357532831 -0.01860701234523816 0.061717403309379984 -0.0083631884141050442 -0.016554463415418573 0.082119638916950233 -0.068061523218439959 0.042131878445108684 0.063371923443834258 -0.030746522510605414 -0.090625788354776526 0.0069291888932181828 0.033247194008830638 0.06120740563918288 -0.089268536440749238 -0.03555360328847635
leaf_weight=37402.246700342745 7056.6280649453402 1964.4299786686897 10581.853943623602 8926.1426971405745 8080.3450155928731 11870.942099034786 1318.7843307256699 10358.714634604752 11781.426527038217 1235.0539935752749 7731.7143752723932 28711.148516915739 6633.2430958375335 4535.5462601706386 17253.346139825881 4399.2148645594716 23092.438182100654 11327.577206209302 15361.243140801787 43673.820305399597 3599.5417796298862 2400.0673699527979 4696.2694591358304 1717.1076475530863 1669.7045943140984 5622.3576857373118 18456.473522096872 6277.1851407289505 48519.283987153322 575.51585999876261
leaf_count=601764 83147 10094 140608 43102 84933 61581 12291 48123 64350 11226 78614 224474 40648 35120 97603 21522 124662 72424 119396 277325 31293 14716 30993 12544 19426 25798 86977 36251 790218 7954
internal_value=0 0.0323058 0.000762534 0.0104059 -0.0639417 0.0547311 0.0396291 0.0460093 0.026985 0.0621123 -0.0296942 0.0886658 0.0708684 -0.0185189 0.00654821 0.0366133 0.0414261 -0.0398628 -0.0336803 0.077953 -0.0227589 0.1021 0.0139416 0.0381728 -0.0255535 -0.00990027 0.0490706 0.0435513 -0.0807312 0.0805892
internal_weight=0 238786 99221.3 88639.4 128044 139564 96582.2 87971.3 66655.7 62476.3 42122.2 42982.2 52117.6 34390.5 25495 54874.3 50475.1 21983.7 23441.6 45484.4 14927.1 31111.2 10948.9 6413.38 8610.85 6941.14 41548.9 8241.62 85921.5 44249.3
internal_count=3309177 1555595 668085 527477 1753582 887510 586739 529224 340613 385276 361600 300771 337153 282986 143948 276263 254741 186864 204329 296505 103717 239190 78657 43537 57515 38089 211639 46345 1391982 285279
is_linear=0
shrinkage=0.1


Tree=18
num_leaves=31
num_cat=0
split_feature=14 1 0 0 15 15 5 20 5 14 5 5 5 0 14 18 2 0 5 5 2 15 10 5 19 10 10 7 19 3
split_gain=66485.3 15220.2 10586.3 10313.9 5670.36 4270.28 2808.42 2567.39 2432.31 2374.22 2340.44 2387.25 2091.78 2080.89 1767.85 1587.7 1438 1303.19 1160.62 1128.64 1081.23 1073.64 996.527 917.63 845.788 777.818 749.244 732.281 681.812 680.542
threshold=-0.732462913452952 0.63023114827313742 0.14274266697404314 -0.26039049887131605 -0.16219051668279022 -0.37487462144239653 0.8748543145775588 1.0202036318735579 -0.40807397934333056 -0.97240717341775917 0.85175693604494584 -0.4885844272850714 0.9247921272440528 1.3959626281147062 0.93313205182704995 -0.17002414156702203 -0.20363325515743116 -1.662810054037948 0.65658608502984406 -0.35812038666370122 -0.98398144447819458 -0.19888516358796635 -0.79783359325519954 -0.55540247573677537 0.29491284838758353 -0.22218554800641757 -0.28598399906562283 -0.32052277031030013 0.39656682598113219 0.47700910033236127
decision_type=2 2 2 2 2 2 2 2 2 2 2 2 2 2 2 2 2 2 2 2 2 2 2 2 2 2 2 2 2 2
left_child=9 2 3 10 7 20 8 14 15 -1 11 -2 23 18 22 -6 26 -13 19 -4 25 -19 -5 -7 -10 -3 -11 -25 -23 -24
right_child=1 5 13 4 6 12 -8 -9 24 16 -12 17 -14 -15 -16 -17 -18 21 -20 -21 -22 28 29 27 -26 -27 -28 -29 -30 -31
leaf_value=-0.084702460131723889 -0.045669379596557619 0.0045654487187184985 -0.046307910422379271 -0.038431378216787195 0.061432461099227897 0.056666616157218942 -0.0077272010416782021 -0.05551349990579868 0.061096006475538506 -0.050417463055070944 -0.069072645577413092 -0.055676217130679134 -0.0086770817230803488 -0.08594567118139565 0.035489384005160489 -0.0066355539228280108 -0.068325016762120064 -0.013917345912595492 -0.071801885609564561 0.013507057477208224 -0.0030840033492440166 0.01410341341388819 0.024958971832787252 0.10926574271779771 0.089846337262921072 0.059842799592436782 -0.006512125724677323 0.060502547071055027 0.056738931057276447 -0.013726794293606459
leaf_weight=57675.397762320936 12142.671003855765 3214.9042398929596 5446.1857268214226 5155.7704895064235 7092.3244773969054 4853.3542856574059 5867.9884924888611 4707.6577418446541 18365.818935900927 8046.4419960044324 7733.2454520687461 2892.2700246274471 1980.5761330276728 8984.6419393569231 35475.92027284205 6630.2482780590653 23722.763383515179 8228.9620040208101 4266.8421111851931 7496.8642896488309 5563.0368378907442 9678.6833720654249 12561.458428777754 26305.536835089326 23105.268229745328 12226.488068893552 7518.5314567238092 3487.9275639802217 6124.0191048383713 7127.4426621347666
leaf_count=1030174 94474 17529 45030 34596 39523 30654 27340 29562 108125 114013 74192 32874 11331 132850 161113 31026 351904 47618 43119 51983 30339 62111 64682 223300 167597 66009 89721 23763 33743 38882
internal_value=0 0.0254061 0.0123053 0.0212812 0.0361614 0.0706615 0.0580456 0.015612 0.0650384 -0.0717876 -0.0188096 -0.00886003 0.0912749 -0.0469372 0.0211629 0.0285445 -0.0528282 0.00774095 -0.0265724 -0.0116619 0.0347159 0.0153734 0.000706018 0.0969886 0.077114 0.048334 -0.0292094 0.103557 0.0306259 0.0109546
internal_weight=0 256716 199084 172890 126090 57631.8 61061.6 65028.2 55193.7 96963.1 46799.9 39066.6 36627.4 26194.5 60320.6 13722.6 39287.7 26923.9 17209.9 12943.1 21004.4 24031.7 24844.7 34646.8 41471.1 15441.4 15565 29793.5 15802.7 19688.9
internal_count=3309177 1723365 1320440 1047458 702446 402925 373611 328835 346271 1585812 345012 270820 289048 272982 299273 70549 555638 176346 140132 97013 113877 143472 138160 277717 275722 83538 203734 247063 95854 103564
is_linear=0
shrinkage=0.1


Tree=19
num_leaves=31
num_cat=0
split_feature=14 1 0 0 7 5 14 0 15 14 0 20 15 5 2 5 5 0 5 19 15 18 5 14 0 5 15 19 1 19
split_gain=57218.4 13261.6 7470.53 6688.35 5585.74 5221.48 3214.44 3256.2 2961.33 2351.83 1881.2 1463.75 1457.45 1409.02 1341.32 1341.24 1208.96 1129.19 1038.3 947.518 915.228 842.684 840.722 839.984 787.851 725.517 704.366 668.953 636.341 632.655
threshold=-0.732462913452952 0.18624368459959725 0.62011418213666236 -0.39541021215825983 0.071160428079097005 -0.43726472329488081 0.82804552171458601 0.022894896977829159 -0.60918523136815639 -0.97240717341775917 -0.19695602271147086 1.0202036318735579 -0.16219051668279022 0.8748543145775588 -0.16011133599697316 1.528719134692692 -0.57973534720532682 0.09362833297562799 -1.018069359588947 -0.26200533046474911 -0.62250313501466226 -0.016992524598956497 0.90035955892950781 0.65714722526906355 -1.662810054037948 0.42710948545864197 -0.60918523136815639 -0.34798707275182983 0.97973295524995418 -0.61622800053105253
decision_type=2 2 2 2 2 2 2 2 2 2 2 2 2 2 2 2 2 2 2 2 2 2 2 2 2 2 2 2 2 2
left_child=9 2 3 13 5 19 11 10 -7 -1 29 20 -12 16 26 18 -2 25 -14 -3 -5 -9 -10 -21 -18 -6 -11 -20 -25 -8
right_child=1 4 -4 6 17 8 7 21 22 14 12 -13 15 -15 -16 -17 24 -19 27 23 -22 -23 -24 28 -26 -27 -28 -29 -30 -31
leaf_value=-0.08250366672949061 -0.056792605088132588 -0.029303564958504114 -0.070663384090437417 -0.020544888679995269 0.040649892380292214 0.02942428636461027 -0.028547686755880847 0.009318250383940253 0.098509000591942189 -0.038822835159323527 0.030635283390584356 -0.076939378103492662 -0.0060174161695816892 -0.078260103658026547 -0.065967405306813789 -0.032779472408416936 -0.056853336500542688 -0.057264659469947216 0.040117491991212256 -0.0014813102102690882 0.017583624344103491 -0.037156140207877004 0.023210580789054129 0.029328674973818553 0.0025602969313545071 -0.0070108101972710434 0.012340625023881592 0.077254682721601742 0.072897299306346405 0.020200764175270405
leaf_weight=53507.502313092351 6594.0855929553509 2702.3863430768251 11588.853311859071 11327.039934374392 5599.8550214767456 8047.9822853431106 3332.6972760111094 10061.517919294536 39911.433147806674 12372.543246950954 26352.059550866485 2687.960782520473 1895.0532082021236 5098.8821549415588 21761.216147717088 1437.4513482749462 2632.1668621152639 2729.840387839824 5988.6229861527681 4941.3679344989359 14172.411246418953 6372.6863913461566 1540.007936719805 8529.30372415483 14676.449073433876 7434.0103593468666 3438.6098871342838 25519.787167750299 5523.0240222811699 13233.138244666159
leaf_count=1030174 63333 16717 176304 69884 33760 41469 15284 55398 332889 173542 118287 21290 7872 59626 342504 6848 32625 24319 31164 26833 78357 38314 8868 49796 97068 39029 39592 172550 36453 69028
internal_value=0 0.0235446 0.00671819 0.012642 0.0550791 0.0670048 0.0228744 0.0317402 0.084934 -0.0690383 0.0402878 -0.00675197 0.0483806 -0.0305365 -0.049862 0.0618023 -0.0203561 0.00121746 0.0658725 0.0260995 0.000646664 -0.00870311 0.0957115 0.0339822 -0.00647489 0.0134661 -0.0276958 0.0701962 0.0464526 0.0103936
internal_weight=0 249930 162971 151382 86959.2 71195.5 122380 94193 49499.4 91079.9 77758.8 28187.4 61193 29001.6 37572.4 34840.9 23902.7 15763.7 33403.5 21696.1 25499.5 16434.2 41451.4 18993.7 17308.6 13033.9 15811.2 31508.4 14052.3 16565.8
internal_count=3309177 1723365 1113232 936928 610133 513025 684276 514745 383226 1585812 421033 169531 336721 252652 555638 218434 193026 97108 211586 129799 148241 93712 341757 113082 129693 72789 213134 203714 86249 84312
is_linear=0
shrinkage=0.1


Tree=20
num_leaves=31
num_cat=0
split_feature=14 1 0 0 15 15 19 10 0 0 5 14 7 5 20 19 5 5 5 2 5 18 2 18 3 5 5 5 5 15
split_gain=49240.5 11867.2 8031.14 7812.96 5413.69 3707.51 2623.04 2154.23 2055.26 1998.9 1757.25 1695.4 1553.56 1503.06 1472.46 1413.8 1240.64 1059.75 1118.9 1059.48 985.159 935.577 924.172 866.602 772.597 758.139 724.518 718.786 1060.04 692.954
threshold=-0.79794296725408975 0.77910907031836441 0.11497053097473095 -0.28606095971392348 -0.52837251392402684 -0.41945539860350961 0.038441373323248644 -0.79130156133413621 1.3959626281147062 -1.3831451873515539 -0.52131427244846495 -0.97380036605182596 -0.32052277031030013 0.67379560317007337 0.26062492555175581 -0.40568902478464758 0.67379560317007337 0.60899101142327228 -0.49889826211308058 -0.3007015562503238 -0.41811116226475414 -0.24226711552816879 -1.0389851290322578 0.23976394087011585 0.45303738747986483 -0.99548423859256363 0.70885496137081916 0.62416937735253952 -0.29977146214030759 -0.49654634539113834
decision_type=2 2 2 2 2 2 2 2 2 2 2 2 2 2 2 2 2 2 2 2 2 2 2 2 2 2 2 2 2 2
left_child=11 2 3 9 7 22 16 -5 17 -2 21 -1 25 -12 24 -11 20 18 -4 -13 -6 -8 26 27 -9 -7 -3 28 -17 -30
right_child=1 5 8 4 6 12 10 14 -10 15 13 19 -14 -15 -16 23 -18 -19 -20 -21 -22 -23 -24 -25 -26 -27 -28 -29 29 -31
leaf_value=-0.08045042374252101 -0.061275059945800792 0.054446241854973924 -0.04661482826742281 -0.041153670710869297 0.002228403731584437 0.028778134564601539 0.067938174546305713 0.036435103575399995 -0.081284394352991035 -0.041837626969852389 0.078018170565780351 -0.026958399602548394 0.028047598665980434 0.02498924258985219 -0.015074606827472173 -0.010465715632107473 -0.025117310794851262 -0.062727415529479261 0.011844484267507676 -0.06471361639722302 0.047619873482623636 0.0022515126265918398 -0.010087483785169908 -0.049464509436023679 0.0046178607756273407 0.101494542738959 -0.0067264521947035215 -0.028915323833855144 -0.0068543957916503643 0.050876121148213195
leaf_weight=49106.152002740651 8674.0036016330123 10560.880687750876 4997.7095586620271 8114.5010602623224 7309.3260148838162 1525.2771912813187 3179.449532225728 22157.490706436336 8302.8698584474623 8967.5554441809654 34835.911730878055 11735.183411248028 3732.9169393032789 6313.7883539050817 12182.095896996558 7681.9178346917033 4652.8421381264925 4754.1370382010937 9493.0365008898079 20271.936474714428 13825.334737285972 6818.2655491232872 4342.407169289887 2691.6654614582658 11641.580605477095 23902.580545864999 2370.7592694088817 3859.2591569498181 2711.8646884933114 8912.0587381199002
leaf_count=1017832 106659 61250 42701 58203 35577 8896 18432 107893 136996 74543 268977 169383 24628 33429 68565 47938 22129 48438 65077 346760 79156 33903 24718 19007 56928 227967 12424 28322 14030 48416
internal_value=0 0.0209545 0.0104793 0.0183995 0.0305901 0.0665411 0.0476344 0.00634964 -0.0396996 -0.0183223 0.0607454 -0.0687784 0.088289 0.0698817 0.0147328 -0.00762366 0.0216299 -0.0217586 -0.00831753 -0.0508709 0.0319214 0.023141 0.029828 0.00424231 0.0254761 0.0971327 0.0432314 0.0104828 0.0183585 0.0374076
internal_weight=0 248511 202077 174529 131031 46434.8 76934.9 54095.7 27547.8 43498.3 51147.4 81113.3 29160.8 41149.7 45981.2 34824.3 25787.5 19244.9 14490.7 32007.1 21134.7 9997.72 17274 25856.8 33799.1 25427.9 12931.6 23165.1 19305.8 11623.9
internal_count=3309177 1775202 1415319 1122107 783192 359883 491603 291589 293212 338915 354741 1533975 261491 302406 233386 232256 136862 156216 107778 516143 114733 52335 98392 157713 164821 236863 73674 138706 110384 62446
is_linear=0
shrinkage=0.1


Tree=21
num_leaves=31
num_cat=0
split_feature=14 19 1 14 0 0 15 0 0 20 15 0 5 5 0 10 20 20 5 5 3 18 18 5 5 2 15 7 18 0
split_gain=42356.2 10882.6 7158.28 5841.7 3968.99 4510.89 2539.93 2273.01 2450.31 2065.38 1668.23 1302.94 1263.24 1321.91 1257.62 1207.83 1134.19 970.397 934.212 984.551 861.272 801.554 777.419 758.509 818.012 740.356 709.121 697.572 684.089 680.528
threshold=1.0000000180025095e-35 -0.36654731751945374 0.89969571455111874 -0.89748989808347879 0.10389611799189544 -0.22700990257970274 -0.16219051668279022 0.53724139456278996 -0.69439240854247042 0.51773743265355587 -0.29384060952679925 1.3959626281147062 1.528719134692692 -1.018069359588947 -1.5597257701984306 -0.86637487284904158 0.29970546594265518 0.087843016272525623 1.1049119470023547 -0.33802914624033359 0.40386533200156599 -0.0070024529505836952 0.071778124941543855 0.57935103877408467 -0.27073477854821099 -0.28954005852589032 -0.12581775264520337 -0.40461256975886101 -0.26944103067196484 -0.60394038786131998
decision_type=2 2 2 2 2 2 2 2 2 2 2 2 2 2 2 2 2 2 2 2 2 2 2 2 2 2 2 2 2 2
left_child=3 7 4 17 5 14 16 8 -2 15 -4 21 13 -8 -3 -5 -7 25 19 -16 29 -6 -15 24 -10 -1 -26 -12 -21 -17
right_child=1 2 10 9 11 6 12 -9 23 -11 27 -13 -14 22 18 20 -18 -19 -20 28 -22 -23 -24 -25 26 -27 -28 -29 -30 -31
leaf_value=-0.034518780239369398 -0.069138289129494948 -0.050924955006476202 0.047360376876152993 -0.050541440124177044 0.012626896113516892 0.036848442793747327 -0.0027291234014735124 -0.082103991784579611 -0.010093924252136802 -0.068707162604021974 0.10134527187401475 -0.065523102372196995 -0.026408217089531984 0.074020292666750892 -0.012195600724487192 -0.056319144864890272 -0.0015995777003329126 -0.081936950101077849 -0.0480947761404069 -0.036402944448818766 -0.029697270227751524 -0.044040364972895485 0.028504937094867851 -0.027076382139592459 -0.0046843050120773484 -0.068772458496839092 0.045506421095936757 0.040476123866464209 0.033191769771401237 0.01441679419682497
leaf_weight=9493.6787699200213 6177.6180379353464 3919.9600246585906 11085.699002154171 6678.5931370556355 9368.8574050553143 29571.446275092661 2718.2795640975237 5180.5085116364062 11845.216058380902 8084.3359524719417 18945.99526129663 4408.7001117020845 1574.7494760602713 36270.175662897527 9281.6663231700659 1476.3272047750652 10360.69143165648 36630.101523097605 2604.9312141723931 1536.9603500887752 8391.7990253530443 3402.7195241823792 4185.7361389696598 7953.0935368984938 4473.3600674420595 18815.902518238872 7593.1100911647081 2090.5025625377893 17428.872032366693 17273.522437177598
leaf_count=191821 81588 47995 67396 76117 62563 142121 12049 86782 59343 92881 196945 75531 7492 286477 56503 13056 48456 788616 21602 8859 79101 29648 24441 44906 21618 398795 44149 14792 101341 126193
internal_value=0 0.0248095 0.0362764 -0.0524072 0.0262903 0.0327539 0.0452064 -0.0199611 -0.0114986 -0.0232988 0.0787532 -0.018651 0.0615666 0.0647754 0.00242843 -0.0124445 0.0268728 -0.0711904 0.00920725 0.0144915 -0.0030702 -0.00247091 0.0693111 -0.000324026 0.00857388 -0.0572854 0.0268994 0.0952964 0.0275519 0.00884718
internal_weight=0 211979 168756 106844 136634 119453 84681.1 43222.9 38042.4 41904.6 32122.2 17180.3 44748.9 43174.2 34772.4 33820.2 39932.1 64939.7 30852.4 28247.5 27141.6 12771.6 40455.9 31864.8 23911.7 28309.6 12066.5 21036.5 18965.8 18749.8
internal_count=3309177 1542597 1204211 1766580 925078 757336 521036 338386 251604 387348 279133 167742 330459 322967 236300 294467 190577 1379232 188305 166703 218350 92211 310918 170016 125110 590616 65767 211737 110200 139249
is_linear=0
shrinkage=0.1


Tree=22
num_leaves=31
num_cat=0
split_feature=14 1 7 5 0 15 0 5 5 15 15 7 18 19 5 0 0 18 8 20 5 15 20 20 5 5 0 0 0 0
split_gain=36498.7 9263.08 5273.79 6192.86 3935.26 3423.9 3268.39 2044.74 3278.13 1985.4 1741.91 1681.53 1416.56 1103.53 1027.18 936.556 954.457 917.652 849.735 785.347 729.434 709.645 707.18 645.463 621.211 598.571 586.722 573.063 629.172 539.018
threshold=-0.79794296725408975 -0.13878965392064371 0.36545087665995013 -0.49889826211308058 0.71349459676760441 -0.63472462514344208 -0.64653730765213668 -0.40807397934333056 0.55076075624721377 -0.61316853185457354 -0.63223003291962532 -0.56144248224580084 -0.066115167100028474 0.33971148746597207 0.47340549000699023 0.09362833297562799 -0.80130093753412968 -0.2647367666303459 -0.11123997644337073 0.39704118889405565 0.72692499190363946 -0.04212820707199471 0.59842987336860798 -0.10712819900582352 -0.28016776027305601 -0.66348160997928785 0.53724139456278996 0.11497053097473095 -0.23992019282803165 0.0059137809984694473
decision_type=2 2 2 2 2 2 2 2 2 2 2 2 2 2 2 2 2 2 2 2 2 2 2 2 2 2 2 2 2 2
left_child=10 4 3 15 6 -5 20 18 9 -9 17 24 -11 27 -4 16 -3 -1 -8 -18 25 -20 -12 -19 -7 -2 -16 28 -13 -10
right_child=1 2 14 5 -6 11 7 8 29 12 22 13 -14 -15 26 -17 19 23 21 -21 -22 -23 -24 -25 -26 -27 -28 -29 -30 -31
leaf_value=-0.027718801936642886 -0.065817352947822247 -0.054347906421444207 0.01905510366319969 0.010456951103623132 -0.071075417302623206 0.056922377304651377 -0.025369903857145493 -0.0031515307413277137 -0.0048120571258591042 0.062736458932422079 -0.016209339778030522 -0.0008160493116775463 0.02358598972038603 0.073457372997803513 -0.01842191474979717 -0.037584281382406187 0.029383318464712812 -0.055063503262456737 -0.0088364863852541057 -0.024747527402024006 -0.080469220574026099 0.04028196097814303 -0.075195389406075425 -0.080140412284074175 0.098957155181412917 -0.014069111461111559 -0.087691017215394435 -0.024828180747034537 0.05896673541564465 -0.043586001017866721
leaf_weight=4654.6004493385553 3064.2235022522509 1746.0531182922423 8489.8488677330315 9469.7137383930385 7527.7850198373199 4125.0134584195912 18113.551790293306 11141.573716614395 17051.653242863715 20351.793538447469 9533.5938528701663 2479.2625696398318 16929.978260025382 16681.493302226067 10496.48074330762 3592.1616038680077 20432.052248734981 13625.895777162164 8514.7071449682117 3084.8977516293526 3470.5313038229942 4493.7321851551533 2583.2311359681189 41603.044369257987 23804.77120995149 8262.2859724871814 1384.0265541486442 1529.4140135459602 6071.6571363992989 4539.8279217928648
leaf_count=98679 38310 16182 58581 51962 139448 37065 105374 59776 95245 138691 163112 16594 98035 132153 61219 30280 119689 292216 51019 18793 49779 25262 51857 928111 238943 80746 20959 14047 43862 33188
internal_value=0 0.0179403 0.0385763 0.0486689 -0.00101186 0.0659726 0.00353749 0.00995985 0.0194397 0.0338885 -0.0633632 0.075585 0.0449579 0.057672 -0.0075088 0.0101928 0.0169862 -0.0703598 -0.011367 0.0222826 -0.040359 0.00813136 -0.0287848 -0.0739535 0.0927489 -0.0280689 -0.0264915 0.0315496 0.0416333 -0.0129647
internal_weight=0 236848 113387 93016.5 123462 64161.3 115934 101137 70014.8 48423.3 72000.4 54691.6 37281.8 26761.8 20370.4 28855.2 25263 59883.5 31122 23517 14797 13008.4 12116.8 55228.9 27929.8 11326.5 11880.5 10080.3 8550.92 21591.5
internal_count=3309177 1775202 860329 719570 914873 534626 775425 606590 424935 296502 1533975 482664 236726 206656 140759 184944 154664 1319006 181655 138482 168835 76281 214969 1220327 276008 119056 82178 74503 60456 128433
is_linear=0
shrinkage=0.1


Tree=23
num_leaves=31
num_cat=0
split_feature=14 19 1 5 5 15 18 15 0 0 19 14 0 18 3 10 0 5 20 18 0 0 5 10 10 10 7 14 0 0
split_gain=31307.4 8136.36 6258.63 3779.14 5950.8 3546.68 2106.96 2104.72 1785.15 1789.87 1687.41 1620.92 1140.99 1112.07 1086.72 1039.84 916.763 897.783 886.701 752.553 742.315 1026.25 734.726 679.529 675.86 631.84 592.443 577.622 475.756 485.974
threshold=-0.81028267344153815 -0.45069132654135868 1.1056183406287776 0.76656310790418192 -0.36732962057224078 -0.62117536818585661 -0.22085094986676221 -0.4698300673812294 0.62011418213666236 -0.74477595866835522 0.36731905156148936 -0.98166195305834558 0.46466671542657645 -0.019984505418090551 -0.046892236561851347 -0.3295173796638875 -0.69439240854247042 -1.018069359588947 -0.30695874416106778 -0.27466635241405718 0.039667367851975104 -0.18200145966791953 0.41576392965622144 -0.21222485647286454 -0.54647193631693758 -0.60933719888721893 -0.62171354829631642 0.45971192626988855 1.3959626281147062 -0.23561027378265301
decision_type=2 2 2 2 2 2 2 2 2 2 2 2 2 2 2 2 2 2 2 2 2 2 2 2 2 2 2 2 2 2
left_child=11 8 3 4 6 25 17 23 9 -2 22 -1 16 19 24 -8 -5 -3 20 -12 21 -11 28 -4 -13 -6 -9 -18 29 -7
right_child=1 2 7 12 5 10 15 26 -10 18 13 14 -14 -15 -16 -17 27 -19 -20 -21 -22 -23 -24 -25 -26 -27 -28 -29 -30 -31
leaf_value=-0.075160689689129312 -0.068912464279988803 -0.0078391260488425672 -0.018038802701896266 -0.071262941785798659 -0.037915610272980224 0.020923911181650091 -0.033426949904806727 0.097518706809808134 -0.082260745104524691 -0.020812625088990622 0.018974086471611019 -0.048331763206504216 -0.084817738639891477 0.026068924034469448 -0.061081376030144574 0.00019305417044473004 -0.037801716334006197 0.043519227792789918 -0.047027178536807601 0.076671747100152843 -0.035582543441041399 0.022162691271161515 0.0022169404003820749 0.046276307236040343 -0.0031472154278346675 0.0095825082971640191 0.042038313430053154 0.0049935520022428249 -0.042321677053267712 0.052504476689168689
leaf_weight=37064.726968601346 5436.6634811721742 4883.6758330799639 2067.4981191381812 2322.6020970232785 3513.9161855131388 6893.0538117587566 17126.18027652055 15220.455117143691 4480.5861582644284 8675.5560058914125 2449.333596535027 5860.187198061496 2411.0772289261222 6245.6502610072494 16514.780561946332 19876.844975799322 4059.0095414891839 11231.484025985003 4780.1563969962299 29334.67214583233 5011.2272165194154 15456.543204586953 6166.9522469006479 7997.1386147588491 7608.1548688150942 13796.733959145844 2203.3445330150425 14144.426969543099 668.20150070264935 16625.17808669433
leaf_count=939523 78367 30160 12844 30509 24527 45728 127552 178970 83840 50838 18782 114650 42608 43507 343603 127729 28131 76734 30692 247550 33137 83926 46192 47089 123471 74311 17767 72775 12412 121253
internal_value=0 0.0163649 0.0253578 0.0178608 0.0240742 0.0403755 -0.00222404 0.0694724 -0.0224527 -0.0156444 0.0506112 -0.0611762 -0.019742 0.0646451 -0.0438888 -0.0153674 -0.0120979 0.0279552 -0.00710752 0.0722255 -0.000559809 0.00671295 0.0330282 0.0330646 -0.0228074 -5.92097e-05 0.0905029 -0.00454895 0.0408843 0.0432484
internal_weight=0 233078 189237 161749 138812 85693.7 53118.2 27488.4 43840.7 39360.1 68383 67047.8 22937.1 38029.7 29983.1 37003 20526 16115.2 33923.5 31784 29143.3 24132.1 30353.4 10064.6 13468.3 17310.7 17423.8 18203.4 24186.4 23518.2
internal_count=3309177 1787930 1427130 1170460 996437 634262 362175 256670 360800 276960 535424 1521247 174023 309839 581724 255281 131415 106894 198593 266332 167901 134764 225585 59933 238121 98838 196737 100906 179393 166981
is_linear=0
shrinkage=0.1


Tree=24
num_leaves=31
num_cat=0
split_feature=14 19 14 0 1 0 20 5 5 0 0 15 10 18 7 20 18 3 15 5 2 7 5 2 20 2 15 5 0 2
split_gain=26935.1 7531.32 4714.75 3782.75 3327.65 3217.03 2255.76 1946.94 2506.73 1642.44 1955.32 1539.74 1450.11 1360.36 982.694 979.788 741.536 738.171 732.588 695.844 675.788 624.874 620.609 569.838 547.327 546.858 523.37 519.409 510.199 591.174
threshold=0.077579089497291823 0.33488784918789211 -0.9495687655950219 0.80957279760046996 1.1056183406287776 -0.69439240854247042 0.59842987336860798 -0.66348160997928785 0.64007873186716024 0.0089602241525266833 -0.18200145966791953 -0.19888516358796635 -0.70642424655138991 -0.025762394248978145 -0.59706781774886653 0.12693040086532159 -0.26254770639662073 -0.023343658710058085 -0.60918523136815639 -0.15007961233452108 -1.0973436597843451 0.058946727165757239 0.82940167419943489 0.226576035050817 -0.14358072273417397 -0.97002226462782037 -0.57898859485243859 0.82940167419943489 -0.57108589669146581 -1.2038945104185206
decision_type=2 2 2 2 2 2 2 2 2 2 2 2 2 2 2 2 2 2 2 2 2 2 2 2 2 2 2 2 2 2
left_child=2 3 16 5 7 27 12 -3 11 10 20 -9 18 -13 26 23 -1 22 -4 -15 -7 -10 28 -12 -18 -11 -6 -2 -14 -30
right_child=1 4 6 -5 14 9 -8 8 21 25 15 13 17 19 -16 -17 24 -19 -20 -21 -22 -23 -24 -25 -26 -27 -28 -29 29 -31
leaf_value=-0.02554049294642189 -0.031485070963784396 -0.0025580207268789817 -0.058044754580055417 -0.070326883818173133 0.052742470894571174 0.058275695378526574 -0.070132510914376694 0.02667627685124048 0.050243982216080577 0.057867442725483588 0.049805283497234933 0.072214115442794449 -0.04300536372968139 -0.043743878986815046 0.019384394086672068 -0.0022232149075241919 -0.050639263899019953 -0.0199531239434525 -0.0051933394418696424 0.038474422528676638 -0.0081106125346085047 -0.011756034446373468 -0.027932458920579856 0.024891997776570109 -0.078320562973485636 -0.019443364657129272 0.097114748186021727 -0.083005488962001564 0.070840199722757194 0.016102524820633273
leaf_weight=3739.6036793515086 9264.4252502135932 13801.224796604365 8949.9805668704212 6846.0758492909372 3366.5472772940993 1653.106504611671 8681.4064941853285 19257.913624111563 1934.5704995803535 972.69156212359667 21308.565268456936 25561.17755369097 1138.3878305703402 1414.8801539614797 2418.3235808461905 6787.4480755627155 9228.4098890945315 13100.46553086862 3709.801353931427 3778.0468196384609 21174.533089287579 10177.687490783632 3192.9592332653701 16131.307821810246 31607.170493476093 15410.756597939879 12633.246955782175 2480.8157856650651 2460.1648601777852 9965.3985132724047
leaf_count=94267 108392 80236 137557 134534 20181 11750 129165 107415 14352 6976 140774 242280 10765 10268 17277 38090 237525 143861 39611 28365 114664 71028 28475 83943 854968 98880 161978 41198 17563 82839
internal_value=0 0.0203008 -0.044383 0.0014692 0.0406666 0.00663312 -0.0236805 0.0314166 0.0389642 0.0135307 0.0204657 0.0488497 -0.0141956 0.0627345 0.0787981 0.0327338 -0.0681618 -0.00217007 -0.0425573 0.016073 -0.00330312 -0.00185339 0.0117326 0.0390712 -0.0720649 -0.0148534 0.0877783 -0.0423672 0.0210698 0.0269402
internal_weight=0 196373 95773.7 102030 94343.6 95183.6 51198.6 75925.5 62124.3 83438.4 67055 50012 42517.2 30754.1 18418.1 44227.3 44575.2 29857.4 12659.8 5192.93 22827.6 12112.3 16756.9 37439.9 40835.6 16383.4 15999.8 11745.2 13564 12425.6
internal_count=3309177 1532581 1776596 779201 753380 644667 589836 553944 473708 495077 389221 388328 460671 280913 199436 262807 1186760 283503 177168 38633 126414 85380 139642 224717 1092493 105856 182159 149590 111167 100402
is_linear=0
shrinkage=0.1


Tree=25
num_leaves=31
num_cat=0
split_feature=14 1 0 0 15 15 19 14 0 0 20 17 20 19 5 5 5 2 5 5 18 5 2 5 5 5 15 6 10 15
split_gain=23109.6 6233.53 4579.74 4848.94 4127.94 2187.53 1747.51 1616.56 1548.78 1535.92 1313.06 1165.3 1158.07 1061.49 920.415 913.216 774.412 769.068 746.624 727.069 715.325 696.204 688.531 649.491 978.869 626.973 621.572 575.037 572.88 493.304
threshold=-0.84133096642931171 1.1358092336190078 0.09362833297562799 -0.22700990257970274 -0.48383197212136242 -0.29384060952679925 0.28418993040351687 0.93313205182704995 -1.5597257701984306 1.3959626281147062 0.19754779995741065 0.67129461868994567 0.16549921237749829 -0.727415957031608 -0.35812038666370122 0.74584987956422777 0.98175505581605582 -1.2204643801340251 0.56498520670036112 0.95151215896557217 -0.19326748683258571 -0.41811116226475414 -0.16011133599697316 0.62416937735253952 -0.29006830469923889 -0.66348160997928785 -0.49654634539113834 0.62376197069105987 -0.94870233767105228 -0.41945539860350961
decision_type=2 2 2 2 2 2 2 2 2 2 2 2 2 2 2 2 2 2 2 2 2 2 2 2 2 2 2 2 2 2
left_child=10 2 3 8 7 17 15 12 -2 19 11 22 28 -10 20 21 -7 -3 -16 25 -8 -6 -1 24 -15 -4 -26 -28 -5 -27
right_child=1 5 9 4 6 16 14 -9 13 -11 -12 -13 -14 23 18 -17 -18 -19 -20 -21 -22 -23 -24 -25 26 29 27 -29 -30 -31
leaf_value=0.001864701401710706 -0.060150334106907843 0.042624590200663462 -0.041668911537334395 -0.044926540260150055 0.0096143692893343631 0.090429441605037852 0.057258169780725079 0.02133213923573896 -0.037800916051295978 -0.071086123375483604 -0.075272000742994449 -0.060745848187576001 -0.039027303485649187 -0.012988202102630879 0.077887417965546268 -0.015342270804396761 -0.011014513335865237 -0.014562355084178857 0.035618482167845786 -0.061443824853121415 -0.00031177882608668243 0.044320127477182295 -0.042364623501837541 -0.027080838151624639 -0.0084204317845414291 -0.025074113485679946 0.027321129328179046 0.098210496930671409 0.010020046167616025 0.015559250224177016
leaf_weight=6249.368110768497 5933.6568588837981 8766.1006888449192 4395.9210373982787 2161.2634967826307 8802.7265924215317 13835.906260531396 4617.6385180428624 29945.659907877445 8479.3429217785597 6912.1140391491354 24053.177086018026 19202.698615621775 10168.483104847372 13277.66534537077 18565.486576989293 4747.9766453318298 795.80642975866795 3213.7904786244035 5392.7145689427853 3092.6356956921518 4052.4108808599412 16833.014289215207 8057.9705069847405 6599.4710709005594 4628.1597887687385 4506.7004466429353 11616.156817544252 1269.3227250985801 15548.175536271185 8864.8723124675453
leaf_count=131705 85872 58581 40189 21138 46919 183273 35108 139130 75443 142378 654936 498082 86064 91170 196557 22706 4789 20631 35641 38351 23462 122525 198311 53187 26471 32512 72048 10364 96213 65421
internal_value=0 0.0134955 0.00745734 0.0135204 0.0244937 0.058969 0.0421993 0.00519947 -0.0120755 -0.0302324 -0.0574453 -0.0446494 -0.0121298 -0.0058566 0.0582695 0.024942 0.084912 0.0272833 0.0683732 -0.0166954 0.0303498 0.032403 -0.0230455 0.00138762 0.00748923 -0.00890638 0.0230138 0.0343043 0.00331435 0.00186435
internal_weight=0 227023 200412 172639 120836 26611.6 63012 57823.6 51803.8 27772.2 57563.2 33510 27877.9 45870.1 32628.3 30383.7 14631.7 11979.9 23958.2 20860.1 8670.05 25635.7 14307.3 37390.8 30791.3 17767.5 17513.6 12885.5 17709.4 13371.6
internal_count=3309177 1826143 1558869 1240018 825463 267274 482918 342545 414555 318851 1483034 828098 203415 328683 290768 192150 188062 79212 232198 176473 58570 169444 330016 253240 200053 138122 108883 82412 117351 97933
is_linear=0
shrinkage=0.1


Tree=26
num_leaves=31
num_cat=0
split_feature=14 1 7 5 15 0 0 20 0 14 14 7 3 0 5 18 5 19 5 18 8 10 20 15 10 10 5 15 15 10
split_gain=19741.4 5615.22 3640.04 5050.94 2773.89 2443.3 1807.81 1713.73 1492.09 1305.54 1213.82 1185.55 880.998 854.087 830.911 695.758 810.634 687.335 662.607 602.851 579.849 567.989 500.586 500.551 495.178 477.158 457.298 443.885 418.191 397.452
threshold=-0.84133096642931171 -0.13878965392064371 0.22522094525723632 -0.40807397934333056 -0.59035508361418454 1.0194434432318833 -0.39541021215825983 1.3044446970888042 0.0059137809984694473 -0.98166195305834558 0.98514457683220902 -0.71077582809983086 -0.046892236561851347 -0.17322251720566251 0.41576392965622144 -0.18371568320500539 -0.97235128661993475 0.30521278675331837 0.98175505581605582 -0.057866063498904392 0.056804062493666894 0.61220858669581535 -0.14358072273417397 -0.64017651621323524 -0.48305105674572496 -0.4075100215165523 0.41576392965622144 -0.64623193765975828 -0.3497677577704339 -0.60933719888721893
decision_type=2 2 2 2 2 2 2 2 2 2 2 2 2 2 2 2 2 2 2 2 2 2 2 2 2 2 2 2 2 2
left_child=9 5 3 15 27 6 18 8 10 22 23 -6 24 -12 -4 16 -3 -13 20 -10 -2 -16 -1 29 -11 -17 28 -5 -22 -8
right_child=1 2 14 4 11 -7 7 -9 19 12 13 17 -14 -15 21 25 -18 -19 -20 -21 26 -23 -24 -25 -26 -27 -28 -29 -30 -31
leaf_value=-0.045290437340583141 -0.040015638505440383 -0.0034422650775446728 0.01671702257867692 -0.0017095594823184333 0.093125446759840025 -0.070437365579010938 -0.052111631806239872 -0.056662003106750361 0.0033379704247079277 -0.039751438216106889 0.0046678370233090858 0.031675004858455591 -0.054913616239385322 0.034081028570960036 -0.042903701267840121 -0.044620973654451938 0.037986742977459603 0.070000498292975846 -0.06975651486425323 -0.032663900525594168 -0.023195172217030324 -0.0020026313440888403 -0.075406900714376626 0.0077120185493353907 0.0028235030719889059 0.00094094549644010159 -0.036679015959267168 0.036897287419490464 0.026240850746912094 -0.0051515614248299636
