<MethodSetup Method="BDT::BDT"><Variables NVar="11"><Variable VarIndex="0" Type="F" Expression="VHH_H2H1_pt_ratio" Label="VHH_H2H1_pt_ratio" Title="VHH_H2H1_pt_ratio" Unit="" Internal="VHH_H2H1_pt_ratio" Min="0.0e+00" Max="0.0e+00" /><Variable VarIndex="1" Type="F" Expression="selLeptons_pt_1" Label="selLeptons_pt_1" Title="selLeptons_pt_1" Unit="" Internal="selLeptons_pt_1" Min="0.0e+00" Max="0.0e+00" /><Variable VarIndex="2" Type="F" Expression="VHH_Vreco4j_HT" Label="VHH_Vreco4j_HT" Title="VHH_Vreco4j_HT" Unit="" Internal="VHH_Vreco4j_HT" Min="0.0e+00" Max="0.0e+00" /><Variable VarIndex="3" Type="F" Expression="VHH_V_H2_dPhi" Label="VHH_V_H2_dPhi" Title="VHH_V_H2_dPhi" Unit="" Internal="VHH_V_H2_dPhi" Min="0.0e+00" Max="0.0e+00" /><Variable VarIndex="4" Type="F" Expression="VHH_V_HH_dPhi" Label="VHH_V_HH_dPhi" Title="VHH_V_HH_dPhi" Unit="" Internal="VHH_V_HH_dPhi" Min="0.0e+00" Max="0.0e+00" /><Variable VarIndex="5" Type="F" Expression="VHH_V_HH_pT_Ratio" Label="VHH_V_HH_pT_Ratio" Title="VHH_V_HH_pT_Ratio" Unit="" Internal="VHH_V_HH_pT_Ratio" Min="0.0e+00" Max="0.0e+00" /><Variable VarIndex="6" Type="F" Expression="VHH_H1_BJet_dR" Label="VHH_H1_BJet_dR" Title="VHH_H1_BJet_dR" Unit="" Internal="VHH_H1_BJet_dR" Min="0.0e+00" Max="0.0e+00" /><Variable VarIndex="7" Type="F" Expression="VHH_H2_BJet_dR" Label="VHH_H2_BJet_dR" Title="VHH_H2_BJet_dR" Unit="" Internal="VHH_H2_BJet_dR" Min="0.0e+00" Max="0.0e+00" /><Variable VarIndex="8" Type="F" Expression="VHH_H2_e" Label="VHH_H2_e" Title="VHH_H2_e" Unit="" Internal="VHH_H2_e" Min="0.0e+00" Max="0.0e+00" /><Variable VarIndex="9" Type="F" Expression="VHH_HH_m" Label="VHH_HH_m" Title="VHH_HH_m" Unit="" Internal="VHH_HH_m" Min="0.0e+00" Max="0.0e+00" /><Variable VarIndex="10" Type="F" Expression="VHH_HH_dR" Label="VHH_HH_dR" Title="VHH_HH_dR" Unit="" Internal="VHH_HH_dR" Min="0.0e+00" Max="0.0e+00" /></Variables><GeneralInfo><Info name="Creator" value="xgboost2TMVA" /><Info name="AnalysisType" value="Classification" /></GeneralInfo><Options><Option name="NodePurityLimit" modified="No">5.00e-01</Option><Option name="BoostType" modified="Yes">Grad</Option></Options><Weights NTrees="1000" AnalysisType="1"><BinaryTree type="DecisionTree" boostWeight="1.0e+00" itree="0"><Node pos="s" depth="0" NCoef="0" IVar="5" Cut="0.805106759" cType="1" res="0.0e+00" rms="0.0e+00" purity="0.0e+00" nType="0"><Node pos="l" depth="1" NCoef="0" IVar="5" Cut="0.424274325" cType="1" res="0.0e+00" rms="0.0e+00" purity="0.0e+00" nType="0"><Node pos="l" depth="2" NCoef="0" IVar="4" Cut="3.130373" cType="1" res="0.0e+00" rms="0.0e+00" purity="0.0e+00" nType="0"><Node pos="l" depth="3" NCoef="0" IVar="-1" Cut="0.0e+00" cType="1" res="0.00997763406" rms="0.0e+00" purity="0.0e+00" nType="-99" /><Node pos="r" depth="3" NCoef="0" IVar="-1" Cut="0.0e+00" cType="1" res="-0" rms="0.0e+00" purity="0.0e+00" nType="-99" /></Node><Node pos="r" depth="2" NCoef="0" IVar="0" Cut="0.46714741" cType="1" res="0.0e+00" rms="0.0e+00" purity="0.0e+00" nType="0"><Node pos="l" depth="3" NCoef="0" IVar="-1" Cut="0.0e+00" cType="1" res="0.000370275025" rms="0.0e+00" purity="0.0e+00" nType="-99" /><Node pos="r" depth="3" NCoef="0" IVar="-1" Cut="0.0e+00" cType="1" res="0.00589292357" rms="0.0e+00" purity="0.0e+00" nType="-99" /></Node></Node><Node pos="r" depth="1" NCoef="0" IVar="9" Cut="553.600586" cType="1" res="0.0e+00" rms="0.0e+00" purity="0.0e+00" nType="0"><Node pos="l" depth="2" NCoef="0" IVar="2" Cut="411.960571" cType="1" res="0.0e+00" rms="0.0e+00" purity="0.0e+00" nType="0"><Node pos="l" depth="3" NCoef="0" IVar="-1" Cut="0.0e+00" cType="1" res="0.00162204471" rms="0.0e+00" purity="0.0e+00" nType="-99" /><Node pos="r" depth="3" NCoef="0" IVar="-1" Cut="0.0e+00" cType="1" res="-0.00569818541" rms="0.0e+00" purity="0.0e+00" nType="-99" /></Node><Node pos="r" depth="2" NCoef="0" IVar="0" Cut="0.716805935" cType="1" res="0.0e+00" rms="0.0e+00" purity="0.0e+00" nType="0"><Node pos="l" depth="3" NCoef="0" IVar="-1" Cut="0.0e+00" cType="1" res="0.000139687399" rms="0.0e+00" purity="0.0e+00" nType="-99" /><Node pos="r" depth="3" NCoef="0" IVar="-1" Cut="0.0e+00" cType="1" res="0.0064314059" rms="0.0e+00" purity="0.0e+00" nType="-99" /></Node></Node></Node></BinaryTree><BinaryTree type="DecisionTree" boostWeight="1.0e+00" itree="1"><Node pos="s" depth="0" NCoef="0" IVar="10" Cut="2.58539629" cType="1" res="0.0e+00" rms="0.0e+00" purity="0.0e+00" nType="0"><Node pos="l" depth="1" NCoef="0" IVar="5" Cut="0.733080983" cType="1" res="0.0e+00" rms="0.0e+00" purity="0.0e+00" nType="0"><Node pos="l" depth="2" NCoef="0" IVar="5" Cut="0.426596791" cType="1" res="0.0e+00" rms="0.0e+00" purity="0.0e+00" nType="0"><Node pos="l" depth="3" NCoef="0" IVar="-1" Cut="0.0e+00" cType="1" res="0.00644587539" rms="0.0e+00" purity="0.0e+00" nType="-99" /><Node pos="r" depth="3" NCoef="0" IVar="-1" Cut="0.0e+00" cType="1" res="0.000317552389" rms="0.0e+00" purity="0.0e+00" nType="-99" /></Node><Node pos="r" depth="2" NCoef="0" IVar="9" Cut="557.300781" cType="1" res="0.0e+00" rms="0.0e+00" purity="0.0e+00" nType="0"><Node pos="l" depth="3" NCoef="0" IVar="-1" Cut="0.0e+00" cType="1" res="-0.00584003609" rms="0.0e+00" purity="0.0e+00" nType="-99" /><Node pos="r" depth="3" NCoef="0" IVar="-1" Cut="0.0e+00" cType="1" res="0.000365939428" rms="0.0e+00" purity="0.0e+00" nType="-99" /></Node></Node><Node pos="r" depth="1" NCoef="0" IVar="1" Cut="57.4275589" cType="1" res="0.0e+00" rms="0.0e+00" purity="0.0e+00" nType="0"><Node pos="l" depth="2" NCoef="0" IVar="7" Cut="1.35066497" cType="1" res="0.0e+00" rms="0.0e+00" purity="0.0e+00" nType="0"><Node pos="l" depth="3" NCoef="0" IVar="-1" Cut="0.0e+00" cType="1" res="0.0106021827" rms="0.0e+00" purity="0.0e+00" nType="-99" /><Node pos="r" depth="3" NCoef="0" IVar="-1" Cut="0.0e+00" cType="1" res="0.00439952686" rms="0.0e+00" purity="0.0e+00" nType="-99" /></Node><Node pos="r" depth="2" NCoef="0" IVar="9" Cut="658.880493" cType="1" res="0.0e+00" rms="0.0e+00" purity="0.0e+00" nType="0"><Node pos="l" depth="3" NCoef="0" IVar="-1" Cut="0.0e+00" cType="1" res="-0.00519723818" rms="0.0e+00" purity="0.0e+00" nType="-99" /><Node pos="r" depth="3" NCoef="0" IVar="-1" Cut="0.0e+00" cType="1" res="0.00308948383" rms="0.0e+00" purity="0.0e+00" nType="-99" /></Node></Node></Node></BinaryTree><BinaryTree type="DecisionTree" boostWeight="1.0e+00" itree="2"><Node pos="s" depth="0" NCoef="0" IVar="10" Cut="2.58726931" cType="1" res="0.0e+00" rms="0.0e+00" purity="0.0e+00" nType="0"><Node pos="l" depth="1" NCoef="0" IVar="5" Cut="0.733080983" cType="1" res="0.0e+00" rms="0.0e+00" purity="0.0e+00" nType="0"><Node pos="l" depth="2" NCoef="0" IVar="5" Cut="0.426596791" cType="1" res="0.0e+00" rms="0.0e+00" purity="0.0e+00" nType="0"><Node pos="l" depth="3" NCoef="0" IVar="-1" Cut="0.0e+00" cType="1" res="0.00631965045" rms="0.0e+00" purity="0.0e+00" nType="-99" /><Node pos="r" depth="3" NCoef="0" IVar="-1" Cut="0.0e+00" cType="1" res="0.000301759923" rms="0.0e+00" purity="0.0e+00" nType="-99" /></Node><Node pos="r" depth="2" NCoef="0" IVar="2" Cut="1011.47021" cType="1" res="0.0e+00" rms="0.0e+00" purity="0.0e+00" nType="0"><Node pos="l" depth="3" NCoef="0" IVar="-1" Cut="0.0e+00" cType="1" res="-0.00589503208" rms="0.0e+00" purity="0.0e+00" nType="-99" /><Node pos="r" depth="3" NCoef="0" IVar="-1" Cut="0.0e+00" cType="1" res="-0" rms="0.0e+00" purity="0.0e+00" nType="-99" /></Node></Node><Node pos="r" depth="1" NCoef="0" IVar="0" Cut="0.454660416" cType="1" res="0.0e+00" rms="0.0e+00" purity="0.0e+00" nType="0"><Node pos="l" depth="2" NCoef="0" IVar="5" Cut="0.749935508" cType="1" res="0.0e+00" rms="0.0e+00" purity="0.0e+00" nType="0"><Node pos="l" depth="3" NCoef="0" IVar="-1" Cut="0.0e+00" cType="1" res="0.0055300747" rms="0.0e+00" purity="0.0e+00" nType="-99" /><Node pos="r" depth="3" NCoef="0" IVar="-1" Cut="0.0e+00" cType="1" res="-0.00367640913" rms="0.0e+00" purity="0.0e+00" nType="-99" /></Node><Node pos="r" depth="2" NCoef="0" IVar="5" Cut="0.940197468" cType="1" res="0.0e+00" rms="0.0e+00" purity="0.0e+00" nType="0"><Node pos="l" depth="3" NCoef="0" IVar="-1" Cut="0.0e+00" cType="1" res="0.00976006687" rms="0.0e+00" purity="0.0e+00" nType="-99" /><Node pos="r" depth="3" NCoef="0" IVar="-1" Cut="0.0e+00" cType="1" res="0.00459137419" rms="0.0e+00" purity="0.0e+00" nType="-99" /></Node></Node></Node></BinaryTree><BinaryTree type="DecisionTree" boostWeight="1.0e+00" itree="3"><Node pos="s" depth="0" NCoef="0" IVar="10" Cut="2.58532071" cType="1" res="0.0e+00" rms="0.0e+00" purity="0.0e+00" nType="0"><Node pos="l" depth="1" NCoef="0" IVar="5" Cut="0.612573206" cType="1" res="0.0e+00" rms="0.0e+00" purity="0.0e+00" nType="0"><Node pos="l" depth="2" NCoef="0" IVar="1" Cut="50.476181" cType="1" res="0.0e+00" rms="0.0e+00" purity="0.0e+00" nType="0"><Node pos="l" depth="3" NCoef="0" IVar="-1" Cut="0.0e+00" cType="1" res="0.00518746534" rms="0.0e+00" purity="0.0e+00" nType="-99" /><Node pos="r" depth="3" NCoef="0" IVar="-1" Cut="0.0e+00" cType="1" res="-0" rms="0.0e+00" purity="0.0e+00" nType="-99" /></Node><Node pos="r" depth="2" NCoef="0" IVar="9" Cut="502.347565" cType="1" res="0.0e+00" rms="0.0e+00" purity="0.0e+00" nType="0"><Node pos="l" depth="3" NCoef="0" IVar="-1" Cut="0.0e+00" cType="1" res="-0.00568766473" rms="0.0e+00" purity="0.0e+00" nType="-99" /><Node pos="r" depth="3" NCoef="0" IVar="-1" Cut="0.0e+00" cType="1" res="-0" rms="0.0e+00" purity="0.0e+00" nType="-99" /></Node></Node><Node pos="r" depth="1" NCoef="0" IVar="0" Cut="0.469173014" cType="1" res="0.0e+00" rms="0.0e+00" purity="0.0e+00" nType="0"><Node pos="l" depth="2" NCoef="0" IVar="5" Cut="0.800217152" cType="1" res="0.0e+00" rms="0.0e+00" purity="0.0e+00" nType="0"><Node pos="l" depth="3" NCoef="0" IVar="-1" Cut="0.0e+00" cType="1" res="0.00533377565" rms="0.0e+00" purity="0.0e+00" nType="-99" /><Node pos="r" depth="3" NCoef="0" IVar="-1" Cut="0.0e+00" cType="1" res="-0.00358630135" rms="0.0e+00" purity="0.0e+00" nType="-99" /></Node><Node pos="r" depth="2" NCoef="0" IVar="1" Cut="57.6532898" cType="1" res="0.0e+00" rms="0.0e+00" purity="0.0e+00" nType="0"><Node pos="l" depth="3" NCoef="0" IVar="-1" Cut="0.0e+00" cType="1" res="0.00768319936" rms="0.0e+00" purity="0.0e+00" nType="-99" /><Node pos="r" depth="3" NCoef="0" IVar="-1" Cut="0.0e+00" cType="1" res="0.00159794569" rms="0.0e+00" purity="0.0e+00" nType="-99" /></Node></Node></Node></BinaryTree><BinaryTree type="DecisionTree" boostWeight="1.0e+00" itree="4"><Node pos="s" depth="0" NCoef="0" IVar="10" Cut="2.58532071" cType="1" res="0.0e+00" rms="0.0e+00" purity="0.0e+00" nType="0"><Node pos="l" depth="1" NCoef="0" IVar="5" Cut="0.733080983" cType="1" res="0.0e+00" rms="0.0e+00" purity="0.0e+00" nType="0"><Node pos="l" depth="2" NCoef="0" IVar="1" Cut="45.2854004" cType="1" res="0.0e+00" rms="0.0e+00" purity="0.0e+00" nType="0"><Node pos="l" depth="3" NCoef="0" IVar="-1" Cut="0.0e+00" cType="1" res="0.00445880089" rms="0.0e+00" purity="0.0e+00" nType="-99" /><Node pos="r" depth="3" NCoef="0" IVar="-1" Cut="0.0e+00" cType="1" res="-0.000902390457" rms="0.0e+00" purity="0.0e+00" nType="-99" /></Node><Node pos="r" depth="2" NCoef="0" IVar="10" Cut="2.08468676" cType="1" res="0.0e+00" rms="0.0e+00" purity="0.0e+00" nType="0"><Node pos="l" depth="3" NCoef="0" IVar="-1" Cut="0.0e+00" cType="1" res="-0.00573741598" rms="0.0e+00" purity="0.0e+00" nType="-99" /><Node pos="r" depth="3" NCoef="0" IVar="-1" Cut="0.0e+00" cType="1" res="-0.00181532733" rms="0.0e+00" purity="0.0e+00" nType="-99" /></Node></Node><Node pos="r" depth="1" NCoef="0" IVar="0" Cut="0.421210349" cType="1" res="0.0e+00" rms="0.0e+00" purity="0.0e+00" nType="0"><Node pos="l" depth="2" NCoef="0" IVar="5" Cut="0.749935508" cType="1" res="0.0e+00" rms="0.0e+00" purity="0.0e+00" nType="0"><Node pos="l" depth="3" NCoef="0" IVar="-1" Cut="0.0e+00" cType="1" res="0.00501028122" rms="0.0e+00" purity="0.0e+00" nType="-99" /><Node pos="r" depth="3" NCoef="0" IVar="-1" Cut="0.0e+00" cType="1" res="-0.00374543155" rms="0.0e+00" purity="0.0e+00" nType="-99" /></Node><Node pos="r" depth="2" NCoef="0" IVar="5" Cut="0.940207243" cType="1" res="0.0e+00" rms="0.0e+00" purity="0.0e+00" nType="0"><Node pos="l" depth="3" NCoef="0" IVar="-1" Cut="0.0e+00" cType="1" res="0.00937755872" rms="0.0e+00" purity="0.0e+00" nType="-99" /><Node pos="r" depth="3" NCoef="0" IVar="-1" Cut="0.0e+00" cType="1" res="0.00407308852" rms="0.0e+00" purity="0.0e+00" nType="-99" /></Node></Node></Node></BinaryTree><BinaryTree type="DecisionTree" boostWeight="1.0e+00" itree="5"><Node pos="s" depth="0" NCoef="0" IVar="1" Cut="47.9461441" cType="1" res="0.0e+00" rms="0.0e+00" purity="0.0e+00" nType="0"><Node pos="l" depth="1" NCoef="0" IVar="4" Cut="2.78424215" cType="1" res="0.0e+00" rms="0.0e+00" purity="0.0e+00" nType="0"><Node pos="l" depth="2" NCoef="0" IVar="8" Cut="263.104309" cType="1" res="0.0e+00" rms="0.0e+00" purity="0.0e+00" nType="0"><Node pos="l" depth="3" NCoef="0" IVar="-1" Cut="0.0e+00" cType="1" res="0.00465064123" rms="0.0e+00" purity="0.0e+00" nType="-99" /><Node pos="r" depth="3" NCoef="0" IVar="-1" Cut="0.0e+00" cType="1" res="0.00863472838" rms="0.0e+00" purity="0.0e+00" nType="-99" /></Node><Node pos="r" depth="2" NCoef="0" IVar="3" Cut="1.64093554" cType="1" res="0.0e+00" rms="0.0e+00" purity="0.0e+00" nType="0"><Node pos="l" depth="3" NCoef="0" IVar="-1" Cut="0.0e+00" cType="1" res="0.00398837123" rms="0.0e+00" purity="0.0e+00" nType="-99" /><Node pos="r" depth="3" NCoef="0" IVar="-1" Cut="0.0e+00" cType="1" res="-0.00270669698" rms="0.0e+00" purity="0.0e+00" nType="-99" /></Node></Node><Node pos="r" depth="1" NCoef="0" IVar="2" Cut="1000.94409" cType="1" res="0.0e+00" rms="0.0e+00" purity="0.0e+00" nType="0"><Node pos="l" depth="2" NCoef="0" IVar="1" Cut="58.8772583" cType="1" res="0.0e+00" rms="0.0e+00" purity="0.0e+00" nType="0"><Node pos="l" depth="3" NCoef="0" IVar="-1" Cut="0.0e+00" cType="1" res="-0.000978845288" rms="0.0e+00" purity="0.0e+00" nType="-99" /><Node pos="r" depth="3" NCoef="0" IVar="-1" Cut="0.0e+00" cType="1" res="-0.00611129869" rms="0.0e+00" purity="0.0e+00" nType="-99" /></Node><Node pos="r" depth="2" NCoef="0" IVar="8" Cut="374.198029" cType="1" res="0.0e+00" rms="0.0e+00" purity="0.0e+00" nType="0"><Node pos="l" depth="3" NCoef="0" IVar="-1" Cut="0.0e+00" cType="1" res="-0.00131573959" rms="0.0e+00" purity="0.0e+00" nType="-99" /><Node pos="r" depth="3" NCoef="0" IVar="-1" Cut="0.0e+00" cType="1" res="0.00348694553" rms="0.0e+00" purity="0.0e+00" nType="-99" /></Node></Node></Node></BinaryTree><BinaryTree type="DecisionTree" boostWeight="1.0e+00" itree="6"><Node pos="s" depth="0" NCoef="0" IVar="10" Cut="2.58726931" cType="1" res="0.0e+00" rms="0.0e+00" purity="0.0e+00" nType="0"><Node pos="l" depth="1" NCoef="0" IVar="2" Cut="423.555176" cType="1" res="0.0e+00" rms="0.0e+00" purity="0.0e+00" nType="0"><Node pos="l" depth="2" NCoef="0" IVar="5" Cut="0.848863065" cType="1" res="0.0e+00" rms="0.0e+00" purity="0.0e+00" nType="0"><Node pos="l" depth="3" NCoef="0" IVar="-1" Cut="0.0e+00" cType="1" res="0.00377372047" rms="0.0e+00" purity="0.0e+00" nType="-99" /><Node pos="r" depth="3" NCoef="0" IVar="-1" Cut="0.0e+00" cType="1" res="-0.000415920949" rms="0.0e+00" purity="0.0e+00" nType="-99" /></Node><Node pos="r" depth="2" NCoef="0" IVar="9" Cut="396.374298" cType="1" res="0.0e+00" rms="0.0e+00" purity="0.0e+00" nType="0"><Node pos="l" depth="3" NCoef="0" IVar="-1" Cut="0.0e+00" cType="1" res="-0.0081786681" rms="0.0e+00" purity="0.0e+00" nType="-99" /><Node pos="r" depth="3" NCoef="0" IVar="-1" Cut="0.0e+00" cType="1" res="-0.00108219625" rms="0.0e+00" purity="0.0e+00" nType="-99" /></Node></Node><Node pos="r" depth="1" NCoef="0" IVar="1" Cut="56.6129379" cType="1" res="0.0e+00" rms="0.0e+00" purity="0.0e+00" nType="0"><Node pos="l" depth="2" NCoef="0" IVar="5" Cut="0.757640898" cType="1" res="0.0e+00" rms="0.0e+00" purity="0.0e+00" nType="0"><Node pos="l" depth="3" NCoef="0" IVar="-1" Cut="0.0e+00" cType="1" res="0.00935971271" rms="0.0e+00" purity="0.0e+00" nType="-99" /><Node pos="r" depth="3" NCoef="0" IVar="-1" Cut="0.0e+00" cType="1" res="0.00403533829" rms="0.0e+00" purity="0.0e+00" nType="-99" /></Node><Node pos="r" depth="2" NCoef="0" IVar="9" Cut="658.732788" cType="1" res="0.0e+00" rms="0.0e+00" purity="0.0e+00" nType="0"><Node pos="l" depth="3" NCoef="0" IVar="-1" Cut="0.0e+00" cType="1" res="-0.00481459172" rms="0.0e+00" purity="0.0e+00" nType="-99" /><Node pos="r" depth="3" NCoef="0" IVar="-1" Cut="0.0e+00" cType="1" res="0.00319979968" rms="0.0e+00" purity="0.0e+00" nType="-99" /></Node></Node></Node></BinaryTree><BinaryTree type="DecisionTree" boostWeight="1.0e+00" itree="7"><Node pos="s" depth="0" NCoef="0" IVar="10" Cut="2.58983135" cType="1" res="0.0e+00" rms="0.0e+00" purity="0.0e+00" nType="0"><Node pos="l" depth="1" NCoef="0" IVar="5" Cut="0.733080983" cType="1" res="0.0e+00" rms="0.0e+00" purity="0.0e+00" nType="0"><Node pos="l" depth="2" NCoef="0" IVar="1" Cut="50.5016632" cType="1" res="0.0e+00" rms="0.0e+00" purity="0.0e+00" nType="0"><Node pos="l" depth="3" NCoef="0" IVar="-1" Cut="0.0e+00" cType="1" res="0.00408860249" rms="0.0e+00" purity="0.0e+00" nType="-99" /><Node pos="r" depth="3" NCoef="0" IVar="-1" Cut="0.0e+00" cType="1" res="-0.00148895127" rms="0.0e+00" purity="0.0e+00" nType="-99" /></Node><Node pos="r" depth="2" NCoef="0" IVar="2" Cut="1051.66479" cType="1" res="0.0e+00" rms="0.0e+00" purity="0.0e+00" nType="0"><Node pos="l" depth="3" NCoef="0" IVar="-1" Cut="0.0e+00" cType="1" res="-0.00555792265" rms="0.0e+00" purity="0.0e+00" nType="-99" /><Node pos="r" depth="3" NCoef="0" IVar="-1" Cut="0.0e+00" cType="1" res="0.000437104725" rms="0.0e+00" purity="0.0e+00" nType="-99" /></Node></Node><Node pos="r" depth="1" NCoef="0" IVar="0" Cut="0.458122611" cType="1" res="0.0e+00" rms="0.0e+00" purity="0.0e+00" nType="0"><Node pos="l" depth="2" NCoef="0" IVar="5" Cut="0.803287268" cType="1" res="0.0e+00" rms="0.0e+00" purity="0.0e+00" nType="0"><Node pos="l" depth="3" NCoef="0" IVar="-1" Cut="0.0e+00" cType="1" res="0.00464356691" rms="0.0e+00" purity="0.0e+00" nType="-99" /><Node pos="r" depth="3" NCoef="0" IVar="-1" Cut="0.0e+00" cType="1" res="-0.00361634162" rms="0.0e+00" purity="0.0e+00" nType="-99" /></Node><Node pos="r" depth="2" NCoef="0" IVar="5" Cut="0.97101891" cType="1" res="0.0e+00" rms="0.0e+00" purity="0.0e+00" nType="0"><Node pos="l" depth="3" NCoef="0" IVar="-1" Cut="0.0e+00" cType="1" res="0.00942041911" rms="0.0e+00" purity="0.0e+00" nType="-99" /><Node pos="r" depth="3" NCoef="0" IVar="-1" Cut="0.0e+00" cType="1" res="0.00414990215" rms="0.0e+00" purity="0.0e+00" nType="-99" /></Node></Node></Node></BinaryTree><BinaryTree type="DecisionTree" boostWeight="1.0e+00" itree="8"><Node pos="s" depth="0" NCoef="0" IVar="10" Cut="2.58539629" cType="1" res="0.0e+00" rms="0.0e+00" purity="0.0e+00" nType="0"><Node pos="l" depth="1" NCoef="0" IVar="5" Cut="0.733080983" cType="1" res="0.0e+00" rms="0.0e+00" purity="0.0e+00" nType="0"><Node pos="l" depth="2" NCoef="0" IVar="1" Cut="45.2854004" cType="1" res="0.0e+00" rms="0.0e+00" purity="0.0e+00" nType="0"><Node pos="l" depth="3" NCoef="0" IVar="-1" Cut="0.0e+00" cType="1" res="0.00431263587" rms="0.0e+00" purity="0.0e+00" nType="-99" /><Node pos="r" depth="3" NCoef="0" IVar="-1" Cut="0.0e+00" cType="1" res="-0.00102932646" rms="0.0e+00" purity="0.0e+00" nType="-99" /></Node><Node pos="r" depth="2" NCoef="0" IVar="2" Cut="1011.47021" cType="1" res="0.0e+00" rms="0.0e+00" purity="0.0e+00" nType="0"><Node pos="l" depth="3" NCoef="0" IVar="-1" Cut="0.0e+00" cType="1" res="-0.00562580675" rms="0.0e+00" purity="0.0e+00" nType="-99" /><Node pos="r" depth="3" NCoef="0" IVar="-1" Cut="0.0e+00" cType="1" res="-0" rms="0.0e+00" purity="0.0e+00" nType="-99" /></Node></Node><Node pos="r" depth="1" NCoef="0" IVar="0" Cut="0.421232998" cType="1" res="0.0e+00" rms="0.0e+00" purity="0.0e+00" nType="0"><Node pos="l" depth="2" NCoef="0" IVar="5" Cut="0.749935508" cType="1" res="0.0e+00" rms="0.0e+00" purity="0.0e+00" nType="0"><Node pos="l" depth="3" NCoef="0" IVar="-1" Cut="0.0e+00" cType="1" res="0.0049758954" rms="0.0e+00" purity="0.0e+00" nType="-99" /><Node pos="r" depth="3" NCoef="0" IVar="-1" Cut="0.0e+00" cType="1" res="-0.00374015374" rms="0.0e+00" purity="0.0e+00" nType="-99" /></Node><Node pos="r" depth="2" NCoef="0" IVar="5" Cut="0.961913466" cType="1" res="0.0e+00" rms="0.0e+00" purity="0.0e+00" nType="0"><Node pos="l" depth="3" NCoef="0" IVar="-1" Cut="0.0e+00" cType="1" res="0.0090511879" rms="0.0e+00" purity="0.0e+00" nType="-99" /><Node pos="r" depth="3" NCoef="0" IVar="-1" Cut="0.0e+00" cType="1" res="0.00379099301" rms="0.0e+00" purity="0.0e+00" nType="-99" /></Node></Node></Node></BinaryTree><BinaryTree type="DecisionTree" boostWeight="1.0e+00" itree="9"><Node pos="s" depth="0" NCoef="0" IVar="10" Cut="2.59001446" cType="1" res="0.0e+00" rms="0.0e+00" purity="0.0e+00" nType="0"><Node pos="l" depth="1" NCoef="0" IVar="2" Cut="423.67572" cType="1" res="0.0e+00" rms="0.0e+00" purity="0.0e+00" nType="0"><Node pos="l" depth="2" NCoef="0" IVar="1" Cut="53.2875061" cType="1" res="0.0e+00" rms="0.0e+00" purity="0.0e+00" nType="0"><Node pos="l" depth="3" NCoef="0" IVar="-1" Cut="0.0e+00" cType="1" res="0.00235013454" rms="0.0e+00" purity="0.0e+00" nType="-99" /><Node pos="r" depth="3" NCoef="0" IVar="-1" Cut="0.0e+00" cType="1" res="-0.00212848629" rms="0.0e+00" purity="0.0e+00" nType="-99" /></Node><Node pos="r" depth="2" NCoef="0" IVar="2" Cut="1004.36523" cType="1" res="0.0e+00" rms="0.0e+00" purity="0.0e+00" nType="0"><Node pos="l" depth="3" NCoef="0" IVar="-1" Cut="0.0e+00" cType="1" res="-0.00620041601" rms="0.0e+00" purity="0.0e+00" nType="-99" /><Node pos="r" depth="3" NCoef="0" IVar="-1" Cut="0.0e+00" cType="1" res="0.000113026246" rms="0.0e+00" purity="0.0e+00" nType="-99" /></Node></Node><Node pos="r" depth="1" NCoef="0" IVar="0" Cut="0.451831281" cType="1" res="0.0e+00" rms="0.0e+00" purity="0.0e+00" nType="0"><Node pos="l" depth="2" NCoef="0" IVar="1" Cut="50.7693329" cType="1" res="0.0e+00" rms="0.0e+00" purity="0.0e+00" nType="0"><Node pos="l" depth="3" NCoef="0" IVar="-1" Cut="0.0e+00" cType="1" res="0.00170076103" rms="0.0e+00" purity="0.0e+00" nType="-99" /><Node pos="r" depth="3" NCoef="0" IVar="-1" Cut="0.0e+00" cType="1" res="-0.00413396861" rms="0.0e+00" purity="0.0e+00" nType="-99" /></Node><Node pos="r" depth="2" NCoef="0" IVar="1" Cut="57.6407318" cType="1" res="0.0e+00" rms="0.0e+00" purity="0.0e+00" nType="0"><Node pos="l" depth="3" NCoef="0" IVar="-1" Cut="0.0e+00" cType="1" res="0.0074878498" rms="0.0e+00" purity="0.0e+00" nType="-99" /><Node pos="r" depth="3" NCoef="0" IVar="-1" Cut="0.0e+00" cType="1" res="0.00142757234" rms="0.0e+00" purity="0.0e+00" nType="-99" /></Node></Node></Node></BinaryTree><BinaryTree type="DecisionTree" boostWeight="1.0e+00" itree="10"><Node pos="s" depth="0" NCoef="0" IVar="1" Cut="47.9439201" cType="1" res="0.0e+00" rms="0.0e+00" purity="0.0e+00" nType="0"><Node pos="l" depth="1" NCoef="0" IVar="5" Cut="0.804256201" cType="1" res="0.0e+00" rms="0.0e+00" purity="0.0e+00" nType="0"><Node pos="l" depth="2" NCoef="0" IVar="9" Cut="572.629272" cType="1" res="0.0e+00" rms="0.0e+00" purity="0.0e+00" nType="0"><Node pos="l" depth="3" NCoef="0" IVar="-1" Cut="0.0e+00" cType="1" res="0.00552942837" rms="0.0e+00" purity="0.0e+00" nType="-99" /><Node pos="r" depth="3" NCoef="0" IVar="-1" Cut="0.0e+00" cType="1" res="0.0110450555" rms="0.0e+00" purity="0.0e+00" nType="-99" /></Node><Node pos="r" depth="2" NCoef="0" IVar="4" Cut="2.91505003" cType="1" res="0.0e+00" rms="0.0e+00" purity="0.0e+00" nType="0"><Node pos="l" depth="3" NCoef="0" IVar="-1" Cut="0.0e+00" cType="1" res="0.00345028425" rms="0.0e+00" purity="0.0e+00" nType="-99" /><Node pos="r" depth="3" NCoef="0" IVar="-1" Cut="0.0e+00" cType="1" res="-0.00168450456" rms="0.0e+00" purity="0.0e+00" nType="-99" /></Node></Node><Node pos="r" depth="1" NCoef="0" IVar="9" Cut="492.084534" cType="1" res="0.0e+00" rms="0.0e+00" purity="0.0e+00" nType="0"><Node pos="l" depth="2" NCoef="0" IVar="2" Cut="387.11203" cType="1" res="0.0e+00" rms="0.0e+00" purity="0.0e+00" nType="0"><Node pos="l" depth="3" NCoef="0" IVar="-1" Cut="0.0e+00" cType="1" res="-9.03117325e-05" rms="0.0e+00" purity="0.0e+00" nType="-99" /><Node pos="r" depth="3" NCoef="0" IVar="-1" Cut="0.0e+00" cType="1" res="-0.00670655491" rms="0.0e+00" purity="0.0e+00" nType="-99" /></Node><Node pos="r" depth="2" NCoef="0" IVar="9" Cut="705.844727" cType="1" res="0.0e+00" rms="0.0e+00" purity="0.0e+00" nType="0"><Node pos="l" depth="3" NCoef="0" IVar="-1" Cut="0.0e+00" cType="1" res="-0.000746462378" rms="0.0e+00" purity="0.0e+00" nType="-99" /><Node pos="r" depth="3" NCoef="0" IVar="-1" Cut="0.0e+00" cType="1" res="0.00349237141" rms="0.0e+00" purity="0.0e+00" nType="-99" /></Node></Node></Node></BinaryTree><BinaryTree type="DecisionTree" boostWeight="1.0e+00" itree="11"><Node pos="s" depth="0" NCoef="0" IVar="1" Cut="47.942955" cType="1" res="0.0e+00" rms="0.0e+00" purity="0.0e+00" nType="0"><Node pos="l" depth="1" NCoef="0" IVar="5" Cut="0.805613875" cType="1" res="0.0e+00" rms="0.0e+00" purity="0.0e+00" nType="0"><Node pos="l" depth="2" NCoef="0" IVar="9" Cut="389.593811" cType="1" res="0.0e+00" rms="0.0e+00" purity="0.0e+00" nType="0"><Node pos="l" depth="3" NCoef="0" IVar="-1" Cut="0.0e+00" cType="1" res="0.00451531541" rms="0.0e+00" purity="0.0e+00" nType="-99" /><Node pos="r" depth="3" NCoef="0" IVar="-1" Cut="0.0e+00" cType="1" res="0.00920955651" rms="0.0e+00" purity="0.0e+00" nType="-99" /></Node><Node pos="r" depth="2" NCoef="0" IVar="9" Cut="666.035767" cType="1" res="0.0e+00" rms="0.0e+00" purity="0.0e+00" nType="0"><Node pos="l" depth="3" NCoef="0" IVar="-1" Cut="0.0e+00" cType="1" res="4.17550691e-05" rms="0.0e+00" purity="0.0e+00" nType="-99" /><Node pos="r" depth="3" NCoef="0" IVar="-1" Cut="0.0e+00" cType="1" res="0.00780142425" rms="0.0e+00" purity="0.0e+00" nType="-99" /></Node></Node><Node pos="r" depth="1" NCoef="0" IVar="9" Cut="494.563202" cType="1" res="0.0e+00" rms="0.0e+00" purity="0.0e+00" nType="0"><Node pos="l" depth="2" NCoef="0" IVar="2" Cut="451.980957" cType="1" res="0.0e+00" rms="0.0e+00" purity="0.0e+00" nType="0"><Node pos="l" depth="3" NCoef="0" IVar="-1" Cut="0.0e+00" cType="1" res="-0.00225195056" rms="0.0e+00" purity="0.0e+00" nType="-99" /><Node pos="r" depth="3" NCoef="0" IVar="-1" Cut="0.0e+00" cType="1" res="-0.00701469602" rms="0.0e+00" purity="0.0e+00" nType="-99" /></Node><Node pos="r" depth="2" NCoef="0" IVar="7" Cut="1.48688853" cType="1" res="0.0e+00" rms="0.0e+00" purity="0.0e+00" nType="0"><Node pos="l" depth="3" NCoef="0" IVar="-1" Cut="0.0e+00" cType="1" res="0.00345632108" rms="0.0e+00" purity="0.0e+00" nType="-99" /><Node pos="r" depth="3" NCoef="0" IVar="-1" Cut="0.0e+00" cType="1" res="-0.000512835046" rms="0.0e+00" purity="0.0e+00" nType="-99" /></Node></Node></Node></BinaryTree><BinaryTree type="DecisionTree" boostWeight="1.0e+00" itree="12"><Node pos="s" depth="0" NCoef="0" IVar="10" Cut="2.25350332" cType="1" res="0.0e+00" rms="0.0e+00" purity="0.0e+00" nType="0"><Node pos="l" depth="1" NCoef="0" IVar="5" Cut="0.535727262" cType="1" res="0.0e+00" rms="0.0e+00" purity="0.0e+00" nType="0"><Node pos="l" depth="2" NCoef="0" IVar="5" Cut="0.43111366" cType="1" res="0.0e+00" rms="0.0e+00" purity="0.0e+00" nType="0"><Node pos="l" depth="3" NCoef="0" IVar="-1" Cut="0.0e+00" cType="1" res="0.00541493157" rms="0.0e+00" purity="0.0e+00" nType="-99" /><Node pos="r" depth="3" NCoef="0" IVar="-1" Cut="0.0e+00" cType="1" res="-0" rms="0.0e+00" purity="0.0e+00" nType="-99" /></Node><Node pos="r" depth="2" NCoef="0" IVar="9" Cut="447.061829" cType="1" res="0.0e+00" rms="0.0e+00" purity="0.0e+00" nType="0"><Node pos="l" depth="3" NCoef="0" IVar="-1" Cut="0.0e+00" cType="1" res="-0.00621486455" rms="0.0e+00" purity="0.0e+00" nType="-99" /><Node pos="r" depth="3" NCoef="0" IVar="-1" Cut="0.0e+00" cType="1" res="-0.00087310985" rms="0.0e+00" purity="0.0e+00" nType="-99" /></Node></Node><Node pos="r" depth="1" NCoef="0" IVar="0" Cut="0.57274121" cType="1" res="0.0e+00" rms="0.0e+00" purity="0.0e+00" nType="0"><Node pos="l" depth="2" NCoef="0" IVar="5" Cut="0.748179555" cType="1" res="0.0e+00" rms="0.0e+00" purity="0.0e+00" nType="0"><Node pos="l" depth="3" NCoef="0" IVar="-1" Cut="0.0e+00" cType="1" res="0.00565814832" rms="0.0e+00" purity="0.0e+00" nType="-99" /><Node pos="r" depth="3" NCoef="0" IVar="-1" Cut="0.0e+00" cType="1" res="-0.00258690002" rms="0.0e+00" purity="0.0e+00" nType="-99" /></Node><Node pos="r" depth="2" NCoef="0" IVar="5" Cut="0.968113124" cType="1" res="0.0e+00" rms="0.0e+00" purity="0.0e+00" nType="0"><Node pos="l" depth="3" NCoef="0" IVar="-1" Cut="0.0e+00" cType="1" res="0.00880982634" rms="0.0e+00" purity="0.0e+00" nType="-99" /><Node pos="r" depth="3" NCoef="0" IVar="-1" Cut="0.0e+00" cType="1" res="0.00371719268" rms="0.0e+00" purity="0.0e+00" nType="-99" /></Node></Node></Node></BinaryTree><BinaryTree type="DecisionTree" boostWeight="1.0e+00" itree="13"><Node pos="s" depth="0" NCoef="0" IVar="1" Cut="47.9439201" cType="1" res="0.0e+00" rms="0.0e+00" purity="0.0e+00" nType="0"><Node pos="l" depth="1" NCoef="0" IVar="5" Cut="0.804256201" cType="1" res="0.0e+00" rms="0.0e+00" purity="0.0e+00" nType="0"><Node pos="l" depth="2" NCoef="0" IVar="5" Cut="0.434168994" cType="1" res="0.0e+00" rms="0.0e+00" purity="0.0e+00" nType="0"><Node pos="l" depth="3" NCoef="0" IVar="-1" Cut="0.0e+00" cType="1" res="0.00918463524" rms="0.0e+00" purity="0.0e+00" nType="-99" /><Node pos="r" depth="3" NCoef="0" IVar="-1" Cut="0.0e+00" cType="1" res="0.00514418539" rms="0.0e+00" purity="0.0e+00" nType="-99" /></Node><Node pos="r" depth="2" NCoef="0" IVar="0" Cut="0.648114562" cType="1" res="0.0e+00" rms="0.0e+00" purity="0.0e+00" nType="0"><Node pos="l" depth="3" NCoef="0" IVar="-1" Cut="0.0e+00" cType="1" res="-0.00219594687" rms="0.0e+00" purity="0.0e+00" nType="-99" /><Node pos="r" depth="3" NCoef="0" IVar="-1" Cut="0.0e+00" cType="1" res="0.00434548734" rms="0.0e+00" purity="0.0e+00" nType="-99" /></Node></Node><Node pos="r" depth="1" NCoef="0" IVar="2" Cut="967.56073" cType="1" res="0.0e+00" rms="0.0e+00" purity="0.0e+00" nType="0"><Node pos="l" depth="2" NCoef="0" IVar="1" Cut="58.8772583" cType="1" res="0.0e+00" rms="0.0e+00" purity="0.0e+00" nType="0"><Node pos="l" depth="3" NCoef="0" IVar="-1" Cut="0.0e+00" cType="1" res="-0.000987011124" rms="0.0e+00" purity="0.0e+00" nType="-99" /><Node pos="r" depth="3" NCoef="0" IVar="-1" Cut="0.0e+00" cType="1" res="-0.00600977056" rms="0.0e+00" purity="0.0e+00" nType="-99" /></Node><Node pos="r" depth="2" NCoef="0" IVar="8" Cut="397.594421" cType="1" res="0.0e+00" rms="0.0e+00" purity="0.0e+00" nType="0"><Node pos="l" depth="3" NCoef="0" IVar="-1" Cut="0.0e+00" cType="1" res="-0.000961122394" rms="0.0e+00" purity="0.0e+00" nType="-99" /><Node pos="r" depth="3" NCoef="0" IVar="-1" Cut="0.0e+00" cType="1" res="0.00352106197" rms="0.0e+00" purity="0.0e+00" nType="-99" /></Node></Node></Node></BinaryTree><BinaryTree type="DecisionTree" boostWeight="1.0e+00" itree="14"><Node pos="s" depth="0" NCoef="0" IVar="10" Cut="2.1758697" cType="1" res="0.0e+00" rms="0.0e+00" purity="0.0e+00" nType="0"><Node pos="l" depth="1" NCoef="0" IVar="2" Cut="411.821899" cType="1" res="0.0e+00" rms="0.0e+00" purity="0.0e+00" nType="0"><Node pos="l" depth="2" NCoef="0" IVar="2" Cut="299.776123" cType="1" res="0.0e+00" rms="0.0e+00" purity="0.0e+00" nType="0"><Node pos="l" depth="3" NCoef="0" IVar="-1" Cut="0.0e+00" cType="1" res="0.00393664185" rms="0.0e+00" purity="0.0e+00" nType="-99" /><Node pos="r" depth="3" NCoef="0" IVar="-1" Cut="0.0e+00" cType="1" res="-6.19194034e-05" rms="0.0e+00" purity="0.0e+00" nType="-99" /></Node><Node pos="r" depth="2" NCoef="0" IVar="9" Cut="444.338989" cType="1" res="0.0e+00" rms="0.0e+00" purity="0.0e+00" nType="0"><Node pos="l" depth="3" NCoef="0" IVar="-1" Cut="0.0e+00" cType="1" res="-0.00773897162" rms="0.0e+00" purity="0.0e+00" nType="-99" /><Node pos="r" depth="3" NCoef="0" IVar="-1" Cut="0.0e+00" cType="1" res="-0.000402445148" rms="0.0e+00" purity="0.0e+00" nType="-99" /></Node></Node><Node pos="r" depth="1" NCoef="0" IVar="1" Cut="50.9056511" cType="1" res="0.0e+00" rms="0.0e+00" purity="0.0e+00" nType="0"><Node pos="l" depth="2" NCoef="0" IVar="0" Cut="0.435067952" cType="1" res="0.0e+00" rms="0.0e+00" purity="0.0e+00" nType="0"><Node pos="l" depth="3" NCoef="0" IVar="-1" Cut="0.0e+00" cType="1" res="0.000519869209" rms="0.0e+00" purity="0.0e+00" nType="-99" /><Node pos="r" depth="3" NCoef="0" IVar="-1" Cut="0.0e+00" cType="1" res="0.00648984872" rms="0.0e+00" purity="0.0e+00" nType="-99" /></Node><Node pos="r" depth="2" NCoef="0" IVar="9" Cut="580.902832" cType="1" res="0.0e+00" rms="0.0e+00" purity="0.0e+00" nType="0"><Node pos="l" depth="3" NCoef="0" IVar="-1" Cut="0.0e+00" cType="1" res="-0.00422374671" rms="0.0e+00" purity="0.0e+00" nType="-99" /><Node pos="r" depth="3" NCoef="0" IVar="-1" Cut="0.0e+00" cType="1" res="0.00233284337" rms="0.0e+00" purity="0.0e+00" nType="-99" /></Node></Node></Node></BinaryTree><BinaryTree type="DecisionTree" boostWeight="1.0e+00" itree="15"><Node pos="s" depth="0" NCoef="0" IVar="10" Cut="2.58539629" cType="1" res="0.0e+00" rms="0.0e+00" purity="0.0e+00" nType="0"><Node pos="l" depth="1" NCoef="0" IVar="5" Cut="0.612603784" cType="1" res="0.0e+00" rms="0.0e+00" purity="0.0e+00" nType="0"><Node pos="l" depth="2" NCoef="0" IVar="5" Cut="0.426596791" cType="1" res="0.0e+00" rms="0.0e+00" purity="0.0e+00" nType="0"><Node pos="l" depth="3" NCoef="0" IVar="-1" Cut="0.0e+00" cType="1" res="0.00605266215" rms="0.0e+00" purity="0.0e+00" nType="-99" /><Node pos="r" depth="3" NCoef="0" IVar="-1" Cut="0.0e+00" cType="1" res="0.000945846434" rms="0.0e+00" purity="0.0e+00" nType="-99" /></Node><Node pos="r" depth="2" NCoef="0" IVar="2" Cut="1051.64307" cType="1" res="0.0e+00" rms="0.0e+00" purity="0.0e+00" nType="0"><Node pos="l" depth="3" NCoef="0" IVar="-1" Cut="0.0e+00" cType="1" res="-0.00492570596" rms="0.0e+00" purity="0.0e+00" nType="-99" /><Node pos="r" depth="3" NCoef="0" IVar="-1" Cut="0.0e+00" cType="1" res="0.000326566776" rms="0.0e+00" purity="0.0e+00" nType="-99" /></Node></Node><Node pos="r" depth="1" NCoef="0" IVar="1" Cut="50.866951" cType="1" res="0.0e+00" rms="0.0e+00" purity="0.0e+00" nType="0"><Node pos="l" depth="2" NCoef="0" IVar="7" Cut="1.65052223" cType="1" res="0.0e+00" rms="0.0e+00" purity="0.0e+00" nType="0"><Node pos="l" depth="3" NCoef="0" IVar="-1" Cut="0.0e+00" cType="1" res="0.00906853564" rms="0.0e+00" purity="0.0e+00" nType="-99" /><Node pos="r" depth="3" NCoef="0" IVar="-1" Cut="0.0e+00" cType="1" res="0.00384382834" rms="0.0e+00" purity="0.0e+00" nType="-99" /></Node><Node pos="r" depth="2" NCoef="0" IVar="7" Cut="1.67490911" cType="1" res="0.0e+00" rms="0.0e+00" purity="0.0e+00" nType="0"><Node pos="l" depth="3" NCoef="0" IVar="-1" Cut="0.0e+00" cType="1" res="0.00330067263" rms="0.0e+00" purity="0.0e+00" nType="-99" /><Node pos="r" depth="3" NCoef="0" IVar="-1" Cut="0.0e+00" cType="1" res="-0.00318491086" rms="0.0e+00" purity="0.0e+00" nType="-99" /></Node></Node></Node></BinaryTree><BinaryTree type="DecisionTree" boostWeight="1.0e+00" itree="16"><Node pos="s" depth="0" NCoef="0" IVar="1" Cut="53.0314178" cType="1" res="0.0e+00" rms="0.0e+00" purity="0.0e+00" nType="0"><Node pos="l" depth="1" NCoef="0" IVar="5" Cut="0.813049078" cType="1" res="0.0e+00" rms="0.0e+00" purity="0.0e+00" nType="0"><Node pos="l" depth="2" NCoef="0" IVar="9" Cut="573.316162" cType="1" res="0.0e+00" rms="0.0e+00" purity="0.0e+00" nType="0"><Node pos="l" depth="3" NCoef="0" IVar="-1" Cut="0.0e+00" cType="1" res="0.0050486885" rms="0.0e+00" purity="0.0e+00" nType="-99" /><Node pos="r" depth="3" NCoef="0" IVar="-1" Cut="0.0e+00" cType="1" res="0.0109509071" rms="0.0e+00" purity="0.0e+00" nType="-99" /></Node><Node pos="r" depth="2" NCoef="0" IVar="0" Cut="0.648062944" cType="1" res="0.0e+00" rms="0.0e+00" purity="0.0e+00" nType="0"><Node pos="l" depth="3" NCoef="0" IVar="-1" Cut="0.0e+00" cType="1" res="-0.00221364852" rms="0.0e+00" purity="0.0e+00" nType="-99" /><Node pos="r" depth="3" NCoef="0" IVar="-1" Cut="0.0e+00" cType="1" res="0.00380220404" rms="0.0e+00" purity="0.0e+00" nType="-99" /></Node></Node><Node pos="r" depth="1" NCoef="0" IVar="9" Cut="489.829926" cType="1" res="0.0e+00" rms="0.0e+00" purity="0.0e+00" nType="0"><Node pos="l" depth="2" NCoef="0" IVar="9" Cut="396.374298" cType="1" res="0.0e+00" rms="0.0e+00" purity="0.0e+00" nType="0"><Node pos="l" depth="3" NCoef="0" IVar="-1" Cut="0.0e+00" cType="1" res="-0.00747294212" rms="0.0e+00" purity="0.0e+00" nType="-99" /><Node pos="r" depth="3" NCoef="0" IVar="-1" Cut="0.0e+00" cType="1" res="-0.00371872378" rms="0.0e+00" purity="0.0e+00" nType="-99" /></Node><Node pos="r" depth="2" NCoef="0" IVar="7" Cut="1.48688853" cType="1" res="0.0e+00" rms="0.0e+00" purity="0.0e+00" nType="0"><Node pos="l" depth="3" NCoef="0" IVar="-1" Cut="0.0e+00" cType="1" res="0.00299963821" rms="0.0e+00" purity="0.0e+00" nType="-99" /><Node pos="r" depth="3" NCoef="0" IVar="-1" Cut="0.0e+00" cType="1" res="-0.0010400099" rms="0.0e+00" purity="0.0e+00" nType="-99" /></Node></Node></Node></BinaryTree><BinaryTree type="DecisionTree" boostWeight="1.0e+00" itree="17"><Node pos="s" depth="0" NCoef="0" IVar="1" Cut="48.3381042" cType="1" res="0.0e+00" rms="0.0e+00" purity="0.0e+00" nType="0"><Node pos="l" depth="1" NCoef="0" IVar="5" Cut="0.807002306" cType="1" res="0.0e+00" rms="0.0e+00" purity="0.0e+00" nType="0"><Node pos="l" depth="2" NCoef="0" IVar="9" Cut="401.758179" cType="1" res="0.0e+00" rms="0.0e+00" purity="0.0e+00" nType="0"><Node pos="l" depth="3" NCoef="0" IVar="-1" Cut="0.0e+00" cType="1" res="0.00437849108" rms="0.0e+00" purity="0.0e+00" nType="-99" /><Node pos="r" depth="3" NCoef="0" IVar="-1" Cut="0.0e+00" cType="1" res="0.00890788436" rms="0.0e+00" purity="0.0e+00" nType="-99" /></Node><Node pos="r" depth="2" NCoef="0" IVar="0" Cut="0.648114562" cType="1" res="0.0e+00" rms="0.0e+00" purity="0.0e+00" nType="0"><Node pos="l" depth="3" NCoef="0" IVar="-1" Cut="0.0e+00" cType="1" res="-0.00208850508" rms="0.0e+00" purity="0.0e+00" nType="-99" /><Node pos="r" depth="3" NCoef="0" IVar="-1" Cut="0.0e+00" cType="1" res="0.00432502478" rms="0.0e+00" purity="0.0e+00" nType="-99" /></Node></Node><Node pos="r" depth="1" NCoef="0" IVar="9" Cut="494.563202" cType="1" res="0.0e+00" rms="0.0e+00" purity="0.0e+00" nType="0"><Node pos="l" depth="2" NCoef="0" IVar="2" Cut="442.533752" cType="1" res="0.0e+00" rms="0.0e+00" purity="0.0e+00" nType="0"><Node pos="l" depth="3" NCoef="0" IVar="-1" Cut="0.0e+00" cType="1" res="-0.00200163526" rms="0.0e+00" purity="0.0e+00" nType="-99" /><Node pos="r" depth="3" NCoef="0" IVar="-1" Cut="0.0e+00" cType="1" res="-0.00687137665" rms="0.0e+00" purity="0.0e+00" nType="-99" /></Node><Node pos="r" depth="2" NCoef="0" IVar="7" Cut="1.48688853" cType="1" res="0.0e+00" rms="0.0e+00" purity="0.0e+00" nType="0"><Node pos="l" depth="3" NCoef="0" IVar="-1" Cut="0.0e+00" cType="1" res="0.00337668112" rms="0.0e+00" purity="0.0e+00" nType="-99" /><Node pos="r" depth="3" NCoef="0" IVar="-1" Cut="0.0e+00" cType="1" res="-0.000580746913" rms="0.0e+00" purity="0.0e+00" nType="-99" /></Node></Node></Node></BinaryTree><BinaryTree type="DecisionTree" boostWeight="1.0e+00" itree="18"><Node pos="s" depth="0" NCoef="0" IVar="10" Cut="2.1758697" cType="1" res="0.0e+00" rms="0.0e+00" purity="0.0e+00" nType="0"><Node pos="l" depth="1" NCoef="0" IVar="9" Cut="446.55603" cType="1" res="0.0e+00" rms="0.0e+00" purity="0.0e+00" nType="0"><Node pos="l" depth="2" NCoef="0" IVar="1" Cut="48.3381042" cType="1" res="0.0e+00" rms="0.0e+00" purity="0.0e+00" nType="0"><Node pos="l" depth="3" NCoef="0" IVar="-1" Cut="0.0e+00" cType="1" res="-0.00226696371" rms="0.0e+00" purity="0.0e+00" nType="-99" /><Node pos="r" depth="3" NCoef="0" IVar="-1" Cut="0.0e+00" cType="1" res="-0.00722553302" rms="0.0e+00" purity="0.0e+00" nType="-99" /></Node><Node pos="r" depth="2" NCoef="0" IVar="9" Cut="557.453796" cType="1" res="0.0e+00" rms="0.0e+00" purity="0.0e+00" nType="0"><Node pos="l" depth="3" NCoef="0" IVar="-1" Cut="0.0e+00" cType="1" res="-0.00197308487" rms="0.0e+00" purity="0.0e+00" nType="-99" /><Node pos="r" depth="3" NCoef="0" IVar="-1" Cut="0.0e+00" cType="1" res="0.00111591991" rms="0.0e+00" purity="0.0e+00" nType="-99" /></Node></Node><Node pos="r" depth="1" NCoef="0" IVar="1" Cut="51.7409172" cType="1" res="0.0e+00" rms="0.0e+00" purity="0.0e+00" nType="0"><Node pos="l" depth="2" NCoef="0" IVar="0" Cut="0.43566376" cType="1" res="0.0e+00" rms="0.0e+00" purity="0.0e+00" nType="0"><Node pos="l" depth="3" NCoef="0" IVar="-1" Cut="0.0e+00" cType="1" res="0.000475706416" rms="0.0e+00" purity="0.0e+00" nType="-99" /><Node pos="r" depth="3" NCoef="0" IVar="-1" Cut="0.0e+00" cType="1" res="0.00618513115" rms="0.0e+00" purity="0.0e+00" nType="-99" /></Node><Node pos="r" depth="2" NCoef="0" IVar="9" Cut="662.020569" cType="1" res="0.0e+00" rms="0.0e+00" purity="0.0e+00" nType="0"><Node pos="l" depth="3" NCoef="0" IVar="-1" Cut="0.0e+00" cType="1" res="-0.00362095446" rms="0.0e+00" purity="0.0e+00" nType="-99" /><Node pos="r" depth="3" NCoef="0" IVar="-1" Cut="0.0e+00" cType="1" res="0.00277878297" rms="0.0e+00" purity="0.0e+00" nType="-99" /></Node></Node></Node></BinaryTree><BinaryTree type="DecisionTree" boostWeight="1.0e+00" itree="19"><Node pos="s" depth="0" NCoef="0" IVar="10" Cut="2.47209883" cType="1" res="0.0e+00" rms="0.0e+00" purity="0.0e+00" nType="0"><Node pos="l" depth="1" NCoef="0" IVar="2" Cut="423.555176" cType="1" res="0.0e+00" rms="0.0e+00" purity="0.0e+00" nType="0"><Node pos="l" depth="2" NCoef="0" IVar="2" Cut="359.968475" cType="1" res="0.0e+00" rms="0.0e+00" purity="0.0e+00" nType="0"><Node pos="l" depth="3" NCoef="0" IVar="-1" Cut="0.0e+00" cType="1" res="0.00293525937" rms="0.0e+00" purity="0.0e+00" nType="-99" /><Node pos="r" depth="3" NCoef="0" IVar="-1" Cut="0.0e+00" cType="1" res="-0.000434405287" rms="0.0e+00" purity="0.0e+00" nType="-99" /></Node><Node pos="r" depth="2" NCoef="0" IVar="2" Cut="1011.47021" cType="1" res="0.0e+00" rms="0.0e+00" purity="0.0e+00" nType="0"><Node pos="l" depth="3" NCoef="0" IVar="-1" Cut="0.0e+00" cType="1" res="-0.00615319656" rms="0.0e+00" purity="0.0e+00" nType="-99" /><Node pos="r" depth="3" NCoef="0" IVar="-1" Cut="0.0e+00" cType="1" res="7.9490077e-05" rms="0.0e+00" purity="0.0e+00" nType="-99" /></Node></Node><Node pos="r" depth="1" NCoef="0" IVar="1" Cut="50.866951" cType="1" res="0.0e+00" rms="0.0e+00" purity="0.0e+00" nType="0"><Node pos="l" depth="2" NCoef="0" IVar="7" Cut="1.40290236" cType="1" res="0.0e+00" rms="0.0e+00" purity="0.0e+00" nType="0"><Node pos="l" depth="3" NCoef="0" IVar="-1" Cut="0.0e+00" cType="1" res="0.00953304861" rms="0.0e+00" purity="0.0e+00" nType="-99" /><Node pos="r" depth="3" NCoef="0" IVar="-1" Cut="0.0e+00" cType="1" res="0.00396109372" rms="0.0e+00" purity="0.0e+00" nType="-99" /></Node><Node pos="r" depth="2" NCoef="0" IVar="7" Cut="1.67490911" cType="1" res="0.0e+00" rms="0.0e+00" purity="0.0e+00" nType="0"><Node pos="l" depth="3" NCoef="0" IVar="-1" Cut="0.0e+00" cType="1" res="0.00305788685" rms="0.0e+00" purity="0.0e+00" nType="-99" /><Node pos="r" depth="3" NCoef="0" IVar="-1" Cut="0.0e+00" cType="1" res="-0.00329275127" rms="0.0e+00" purity="0.0e+00" nType="-99" /></Node></Node></Node></BinaryTree><BinaryTree type="DecisionTree" boostWeight="1.0e+00" itree="20"><Node pos="s" depth="0" NCoef="0" IVar="10" Cut="2.58726931" cType="1" res="0.0e+00" rms="0.0e+00" purity="0.0e+00" nType="0"><Node pos="l" depth="1" NCoef="0" IVar="2" Cut="411.930115" cType="1" res="0.0e+00" rms="0.0e+00" purity="0.0e+00" nType="0"><Node pos="l" depth="2" NCoef="0" IVar="5" Cut="0.860571504" cType="1" res="0.0e+00" rms="0.0e+00" purity="0.0e+00" nType="0"><Node pos="l" depth="3" NCoef="0" IVar="-1" Cut="0.0e+00" cType="1" res="0.00373835908" rms="0.0e+00" purity="0.0e+00" nType="-99" /><Node pos="r" depth="3" NCoef="0" IVar="-1" Cut="0.0e+00" cType="1" res="-0.000174687215" rms="0.0e+00" purity="0.0e+00" nType="-99" /></Node><Node pos="r" depth="2" NCoef="0" IVar="2" Cut="1004.36523" cType="1" res="0.0e+00" rms="0.0e+00" purity="0.0e+00" nType="0"><Node pos="l" depth="3" NCoef="0" IVar="-1" Cut="0.0e+00" cType="1" res="-0.00573118543" rms="0.0e+00" purity="0.0e+00" nType="-99" /><Node pos="r" depth="3" NCoef="0" IVar="-1" Cut="0.0e+00" cType="1" res="0.00014552135" rms="0.0e+00" purity="0.0e+00" nType="-99" /></Node></Node><Node pos="r" depth="1" NCoef="0" IVar="0" Cut="0.540454149" cType="1" res="0.0e+00" rms="0.0e+00" purity="0.0e+00" nType="0"><Node pos="l" depth="2" NCoef="0" IVar="5" Cut="0.7772367" cType="1" res="0.0e+00" rms="0.0e+00" purity="0.0e+00" nType="0"><Node pos="l" depth="3" NCoef="0" IVar="-1" Cut="0.0e+00" cType="1" res="0.00559293013" rms="0.0e+00" purity="0.0e+00" nType="-99" /><Node pos="r" depth="3" NCoef="0" IVar="-1" Cut="0.0e+00" cType="1" res="-0.00281205447" rms="0.0e+00" purity="0.0e+00" nType="-99" /></Node><Node pos="r" depth="2" NCoef="0" IVar="5" Cut="0.970967412" cType="1" res="0.0e+00" rms="0.0e+00" purity="0.0e+00" nType="0"><Node pos="l" depth="3" NCoef="0" IVar="-1" Cut="0.0e+00" cType="1" res="0.00903630815" rms="0.0e+00" purity="0.0e+00" nType="-99" /><Node pos="r" depth="3" NCoef="0" IVar="-1" Cut="0.0e+00" cType="1" res="0.00487411767" rms="0.0e+00" purity="0.0e+00" nType="-99" /></Node></Node></Node></BinaryTree><BinaryTree type="DecisionTree" boostWeight="1.0e+00" itree="21"><Node pos="s" depth="0" NCoef="0" IVar="10" Cut="2.1758697" cType="1" res="0.0e+00" rms="0.0e+00" purity="0.0e+00" nType="0"><Node pos="l" depth="1" NCoef="0" IVar="5" Cut="0.525185764" cType="1" res="0.0e+00" rms="0.0e+00" purity="0.0e+00" nType="0"><Node pos="l" depth="2" NCoef="0" IVar="6" Cut="1.52658355" cType="1" res="0.0e+00" rms="0.0e+00" purity="0.0e+00" nType="0"><Node pos="l" depth="3" NCoef="0" IVar="-1" Cut="0.0e+00" cType="1" res="-0" rms="0.0e+00" purity="0.0e+00" nType="-99" /><Node pos="r" depth="3" NCoef="0" IVar="-1" Cut="0.0e+00" cType="1" res="0.0056398008" rms="0.0e+00" purity="0.0e+00" nType="-99" /></Node><Node pos="r" depth="2" NCoef="0" IVar="9" Cut="444.338989" cType="1" res="0.0e+00" rms="0.0e+00" purity="0.0e+00" nType="0"><Node pos="l" depth="3" NCoef="0" IVar="-1" Cut="0.0e+00" cType="1" res="-0.00629707519" rms="0.0e+00" purity="0.0e+00" nType="-99" /><Node pos="r" depth="3" NCoef="0" IVar="-1" Cut="0.0e+00" cType="1" res="-0.000532260281" rms="0.0e+00" purity="0.0e+00" nType="-99" /></Node></Node><Node pos="r" depth="1" NCoef="0" IVar="5" Cut="0.751433671" cType="1" res="0.0e+00" rms="0.0e+00" purity="0.0e+00" nType="0"><Node pos="l" depth="2" NCoef="0" IVar="4" Cut="2.76852155" cType="1" res="0.0e+00" rms="0.0e+00" purity="0.0e+00" nType="0"><Node pos="l" depth="3" NCoef="0" IVar="-1" Cut="0.0e+00" cType="1" res="0.00871174037" rms="0.0e+00" purity="0.0e+00" nType="-99" /><Node pos="r" depth="3" NCoef="0" IVar="-1" Cut="0.0e+00" cType="1" res="0.00487643806" rms="0.0e+00" purity="0.0e+00" nType="-99" /></Node><Node pos="r" depth="2" NCoef="0" IVar="7" Cut="1.49663997" cType="1" res="0.0e+00" rms="0.0e+00" purity="0.0e+00" nType="0"><Node pos="l" depth="3" NCoef="0" IVar="-1" Cut="0.0e+00" cType="1" res="0.00424685748" rms="0.0e+00" purity="0.0e+00" nType="-99" /><Node pos="r" depth="3" NCoef="0" IVar="-1" Cut="0.0e+00" cType="1" res="-0.000655981537" rms="0.0e+00" purity="0.0e+00" nType="-99" /></Node></Node></Node></BinaryTree><BinaryTree type="DecisionTree" boostWeight="1.0e+00" itree="22"><Node pos="s" depth="0" NCoef="0" IVar="10" Cut="2.47209883" cType="1" res="0.0e+00" rms="0.0e+00" purity="0.0e+00" nType="0"><Node pos="l" depth="1" NCoef="0" IVar="2" Cut="386.278748" cType="1" res="0.0e+00" rms="0.0e+00" purity="0.0e+00" nType="0"><Node pos="l" depth="2" NCoef="0" IVar="1" Cut="55.71875" cType="1" res="0.0e+00" rms="0.0e+00" purity="0.0e+00" nType="0"><Node pos="l" depth="3" NCoef="0" IVar="-1" Cut="0.0e+00" cType="1" res="0.00269868434" rms="0.0e+00" purity="0.0e+00" nType="-99" /><Node pos="r" depth="3" NCoef="0" IVar="-1" Cut="0.0e+00" cType="1" res="-0.000346177723" rms="0.0e+00" purity="0.0e+00" nType="-99" /></Node><Node pos="r" depth="2" NCoef="0" IVar="2" Cut="1011.02917" cType="1" res="0.0e+00" rms="0.0e+00" purity="0.0e+00" nType="0"><Node pos="l" depth="3" NCoef="0" IVar="-1" Cut="0.0e+00" cType="1" res="-0.00561823277" rms="0.0e+00" purity="0.0e+00" nType="-99" /><Node pos="r" depth="3" NCoef="0" IVar="-1" Cut="0.0e+00" cType="1" res="0.000271021127" rms="0.0e+00" purity="0.0e+00" nType="-99" /></Node></Node><Node pos="r" depth="1" NCoef="0" IVar="1" Cut="51.7816582" cType="1" res="0.0e+00" rms="0.0e+00" purity="0.0e+00" nType="0"><Node pos="l" depth="2" NCoef="0" IVar="5" Cut="0.939675093" cType="1" res="0.0e+00" rms="0.0e+00" purity="0.0e+00" nType="0"><Node pos="l" depth="3" NCoef="0" IVar="-1" Cut="0.0e+00" cType="1" res="0.00765354512" rms="0.0e+00" purity="0.0e+00" nType="-99" /><Node pos="r" depth="3" NCoef="0" IVar="-1" Cut="0.0e+00" cType="1" res="0.00297151227" rms="0.0e+00" purity="0.0e+00" nType="-99" /></Node><Node pos="r" depth="2" NCoef="0" IVar="7" Cut="1.67490911" cType="1" res="0.0e+00" rms="0.0e+00" purity="0.0e+00" nType="0"><Node pos="l" depth="3" NCoef="0" IVar="-1" Cut="0.0e+00" cType="1" res="0.00294814003" rms="0.0e+00" purity="0.0e+00" nType="-99" /><Node pos="r" depth="3" NCoef="0" IVar="-1" Cut="0.0e+00" cType="1" res="-0.00347081362" rms="0.0e+00" purity="0.0e+00" nType="-99" /></Node></Node></Node></BinaryTree><BinaryTree type="DecisionTree" boostWeight="1.0e+00" itree="23"><Node pos="s" depth="0" NCoef="0" IVar="10" Cut="2.1758697" cType="1" res="0.0e+00" rms="0.0e+00" purity="0.0e+00" nType="0"><Node pos="l" depth="1" NCoef="0" IVar="5" Cut="0.606658101" cType="1" res="0.0e+00" rms="0.0e+00" purity="0.0e+00" nType="0"><Node pos="l" depth="2" NCoef="0" IVar="6" Cut="1.90786958" cType="1" res="0.0e+00" rms="0.0e+00" purity="0.0e+00" nType="0"><Node pos="l" depth="3" NCoef="0" IVar="-1" Cut="0.0e+00" cType="1" res="-0" rms="0.0e+00" purity="0.0e+00" nType="-99" /><Node pos="r" depth="3" NCoef="0" IVar="-1" Cut="0.0e+00" cType="1" res="0.00601317221" rms="0.0e+00" purity="0.0e+00" nType="-99" /></Node><Node pos="r" depth="2" NCoef="0" IVar="2" Cut="1006.25964" cType="1" res="0.0e+00" rms="0.0e+00" purity="0.0e+00" nType="0"><Node pos="l" depth="3" NCoef="0" IVar="-1" Cut="0.0e+00" cType="1" res="-0.00599666918" rms="0.0e+00" purity="0.0e+00" nType="-99" /><Node pos="r" depth="3" NCoef="0" IVar="-1" Cut="0.0e+00" cType="1" res="-9.67578599e-05" rms="0.0e+00" purity="0.0e+00" nType="-99" /></Node></Node><Node pos="r" depth="1" NCoef="0" IVar="1" Cut="51.7409172" cType="1" res="0.0e+00" rms="0.0e+00" purity="0.0e+00" nType="0"><Node pos="l" depth="2" NCoef="0" IVar="5" Cut="0.805613875" cType="1" res="0.0e+00" rms="0.0e+00" purity="0.0e+00" nType="0"><Node pos="l" depth="3" NCoef="0" IVar="-1" Cut="0.0e+00" cType="1" res="0.00762545131" rms="0.0e+00" purity="0.0e+00" nType="-99" /><Node pos="r" depth="3" NCoef="0" IVar="-1" Cut="0.0e+00" cType="1" res="0.00281670829" rms="0.0e+00" purity="0.0e+00" nType="-99" /></Node><Node pos="r" depth="2" NCoef="0" IVar="7" Cut="1.33364403" cType="1" res="0.0e+00" rms="0.0e+00" purity="0.0e+00" nType="0"><Node pos="l" depth="3" NCoef="0" IVar="-1" Cut="0.0e+00" cType="1" res="0.0030775317" rms="0.0e+00" purity="0.0e+00" nType="-99" /><Node pos="r" depth="3" NCoef="0" IVar="-1" Cut="0.0e+00" cType="1" res="-0.00282486225" rms="0.0e+00" purity="0.0e+00" nType="-99" /></Node></Node></Node></BinaryTree><BinaryTree type="DecisionTree" boostWeight="1.0e+00" itree="24"><Node pos="s" depth="0" NCoef="0" IVar="1" Cut="47.9439201" cType="1" res="0.0e+00" rms="0.0e+00" purity="0.0e+00" nType="0"><Node pos="l" depth="1" NCoef="0" IVar="5" Cut="0.807001591" cType="1" res="0.0e+00" rms="0.0e+00" purity="0.0e+00" nType="0"><Node pos="l" depth="2" NCoef="0" IVar="9" Cut="375.136963" cType="1" res="0.0e+00" rms="0.0e+00" purity="0.0e+00" nType="0"><Node pos="l" depth="3" NCoef="0" IVar="-1" Cut="0.0e+00" cType="1" res="0.00401454093" rms="0.0e+00" purity="0.0e+00" nType="-99" /><Node pos="r" depth="3" NCoef="0" IVar="-1" Cut="0.0e+00" cType="1" res="0.00840086862" rms="0.0e+00" purity="0.0e+00" nType="-99" /></Node><Node pos="r" depth="2" NCoef="0" IVar="0" Cut="0.648114562" cType="1" res="0.0e+00" rms="0.0e+00" purity="0.0e+00" nType="0"><Node pos="l" depth="3" NCoef="0" IVar="-1" Cut="0.0e+00" cType="1" res="-0.00223395065" rms="0.0e+00" purity="0.0e+00" nType="-99" /><Node pos="r" depth="3" NCoef="0" IVar="-1" Cut="0.0e+00" cType="1" res="0.00422827248" rms="0.0e+00" purity="0.0e+00" nType="-99" /></Node></Node><Node pos="r" depth="1" NCoef="0" IVar="9" Cut="489.829926" cType="1" res="0.0e+00" rms="0.0e+00" purity="0.0e+00" nType="0"><Node pos="l" depth="2" NCoef="0" IVar="1" Cut="58.8766174" cType="1" res="0.0e+00" rms="0.0e+00" purity="0.0e+00" nType="0"><Node pos="l" depth="3" NCoef="0" IVar="-1" Cut="0.0e+00" cType="1" res="-0.00239264732" rms="0.0e+00" purity="0.0e+00" nType="-99" /><Node pos="r" depth="3" NCoef="0" IVar="-1" Cut="0.0e+00" cType="1" res="-0.00645616464" rms="0.0e+00" purity="0.0e+00" nType="-99" /></Node><Node pos="r" depth="2" NCoef="0" IVar="9" Cut="705.844727" cType="1" res="0.0e+00" rms="0.0e+00" purity="0.0e+00" nType="0"><Node pos="l" depth="3" NCoef="0" IVar="-1" Cut="0.0e+00" cType="1" res="-0.00055828545" rms="0.0e+00" purity="0.0e+00" nType="-99" /><Node pos="r" depth="3" NCoef="0" IVar="-1" Cut="0.0e+00" cType="1" res="0.00316665671" rms="0.0e+00" purity="0.0e+00" nType="-99" /></Node></Node></Node></BinaryTree><BinaryTree type="DecisionTree" boostWeight="1.0e+00" itree="25"><Node pos="s" depth="0" NCoef="0" IVar="10" Cut="2.6291585" cType="1" res="0.0e+00" rms="0.0e+00" purity="0.0e+00" nType="0"><Node pos="l" depth="1" NCoef="0" IVar="5" Cut="0.733080983" cType="1" res="0.0e+00" rms="0.0e+00" purity="0.0e+00" nType="0"><Node pos="l" depth="2" NCoef="0" IVar="1" Cut="43.1145248" cType="1" res="0.0e+00" rms="0.0e+00" purity="0.0e+00" nType="0"><Node pos="l" depth="3" NCoef="0" IVar="-1" Cut="0.0e+00" cType="1" res="0.00439981185" rms="0.0e+00" purity="0.0e+00" nType="-99" /><Node pos="r" depth="3" NCoef="0" IVar="-1" Cut="0.0e+00" cType="1" res="-9.08085203e-05" rms="0.0e+00" purity="0.0e+00" nType="-99" /></Node><Node pos="r" depth="2" NCoef="0" IVar="2" Cut="1011.4856" cType="1" res="0.0e+00" rms="0.0e+00" purity="0.0e+00" nType="0"><Node pos="l" depth="3" NCoef="0" IVar="-1" Cut="0.0e+00" cType="1" res="-0.00480467966" rms="0.0e+00" purity="0.0e+00" nType="-99" /><Node pos="r" depth="3" NCoef="0" IVar="-1" Cut="0.0e+00" cType="1" res="0.000185418539" rms="0.0e+00" purity="0.0e+00" nType="-99" /></Node></Node><Node pos="r" depth="1" NCoef="0" IVar="1" Cut="58.9911575" cType="1" res="0.0e+00" rms="0.0e+00" purity="0.0e+00" nType="0"><Node pos="l" depth="2" NCoef="0" IVar="8" Cut="251.224365" cType="1" res="0.0e+00" rms="0.0e+00" purity="0.0e+00" nType="0"><Node pos="l" depth="3" NCoef="0" IVar="-1" Cut="0.0e+00" cType="1" res="0.00306744501" rms="0.0e+00" purity="0.0e+00" nType="-99" /><Node pos="r" depth="3" NCoef="0" IVar="-1" Cut="0.0e+00" cType="1" res="0.00759850675" rms="0.0e+00" purity="0.0e+00" nType="-99" /></Node><Node pos="r" depth="2" NCoef="0" IVar="2" Cut="870.241455" cType="1" res="0.0e+00" rms="0.0e+00" purity="0.0e+00" nType="0"><Node pos="l" depth="3" NCoef="0" IVar="-1" Cut="0.0e+00" cType="1" res="-0.00398113672" rms="0.0e+00" purity="0.0e+00" nType="-99" /><Node pos="r" depth="3" NCoef="0" IVar="-1" Cut="0.0e+00" cType="1" res="0.00183166936" rms="0.0e+00" purity="0.0e+00" nType="-99" /></Node></Node></Node></BinaryTree><BinaryTree type="DecisionTree" boostWeight="1.0e+00" itree="26"><Node pos="s" depth="0" NCoef="0" IVar="10" Cut="2.58726931" cType="1" res="0.0e+00" rms="0.0e+00" purity="0.0e+00" nType="0"><Node pos="l" depth="1" NCoef="0" IVar="2" Cut="423.67572" cType="1" res="0.0e+00" rms="0.0e+00" purity="0.0e+00" nType="0"><Node pos="l" depth="2" NCoef="0" IVar="5" Cut="0.8580814" cType="1" res="0.0e+00" rms="0.0e+00" purity="0.0e+00" nType="0"><Node pos="l" depth="3" NCoef="0" IVar="-1" Cut="0.0e+00" cType="1" res="0.00356033701" rms="0.0e+00" purity="0.0e+00" nType="-99" /><Node pos="r" depth="3" NCoef="0" IVar="-1" Cut="0.0e+00" cType="1" res="-0.000331821211" rms="0.0e+00" purity="0.0e+00" nType="-99" /></Node><Node pos="r" depth="2" NCoef="0" IVar="9" Cut="396.374298" cType="1" res="0.0e+00" rms="0.0e+00" purity="0.0e+00" nType="0"><Node pos="l" depth="3" NCoef="0" IVar="-1" Cut="0.0e+00" cType="1" res="-0.00732679665" rms="0.0e+00" purity="0.0e+00" nType="-99" /><Node pos="r" depth="3" NCoef="0" IVar="-1" Cut="0.0e+00" cType="1" res="-0.000847098127" rms="0.0e+00" purity="0.0e+00" nType="-99" /></Node></Node><Node pos="r" depth="1" NCoef="0" IVar="0" Cut="0.421210349" cType="1" res="0.0e+00" rms="0.0e+00" purity="0.0e+00" nType="0"><Node pos="l" depth="2" NCoef="0" IVar="5" Cut="0.749935508" cType="1" res="0.0e+00" rms="0.0e+00" purity="0.0e+00" nType="0"><Node pos="l" depth="3" NCoef="0" IVar="-1" Cut="0.0e+00" cType="1" res="0.00405678153" rms="0.0e+00" purity="0.0e+00" nType="-99" /><Node pos="r" depth="3" NCoef="0" IVar="-1" Cut="0.0e+00" cType="1" res="-0.00352191017" rms="0.0e+00" purity="0.0e+00" nType="-99" /></Node><Node pos="r" depth="2" NCoef="0" IVar="1" Cut="57.6407318" cType="1" res="0.0e+00" rms="0.0e+00" purity="0.0e+00" nType="0"><Node pos="l" depth="3" NCoef="0" IVar="-1" Cut="0.0e+00" cType="1" res="0.00667209132" rms="0.0e+00" purity="0.0e+00" nType="-99" /><Node pos="r" depth="3" NCoef="0" IVar="-1" Cut="0.0e+00" cType="1" res="0.00106821023" rms="0.0e+00" purity="0.0e+00" nType="-99" /></Node></Node></Node></BinaryTree><BinaryTree type="DecisionTree" boostWeight="1.0e+00" itree="27"><Node pos="s" depth="0" NCoef="0" IVar="10" Cut="2.41447616" cType="1" res="0.0e+00" rms="0.0e+00" purity="0.0e+00" nType="0"><Node pos="l" depth="1" NCoef="0" IVar="2" Cut="360.034698" cType="1" res="0.0e+00" rms="0.0e+00" purity="0.0e+00" nType="0"><Node pos="l" depth="2" NCoef="0" IVar="0" Cut="0.259916067" cType="1" res="0.0e+00" rms="0.0e+00" purity="0.0e+00" nType="0"><Node pos="l" depth="3" NCoef="0" IVar="-1" Cut="0.0e+00" cType="1" res="-0" rms="0.0e+00" purity="0.0e+00" nType="-99" /><Node pos="r" depth="3" NCoef="0" IVar="-1" Cut="0.0e+00" cType="1" res="0.00291036163" rms="0.0e+00" purity="0.0e+00" nType="-99" /></Node><Node pos="r" depth="2" NCoef="0" IVar="9" Cut="396.374298" cType="1" res="0.0e+00" rms="0.0e+00" purity="0.0e+00" nType="0"><Node pos="l" depth="3" NCoef="0" IVar="-1" Cut="0.0e+00" cType="1" res="-0.00637796847" rms="0.0e+00" purity="0.0e+00" nType="-99" /><Node pos="r" depth="3" NCoef="0" IVar="-1" Cut="0.0e+00" cType="1" res="-0.00083442725" rms="0.0e+00" purity="0.0e+00" nType="-99" /></Node></Node><Node pos="r" depth="1" NCoef="0" IVar="0" Cut="0.562775135" cType="1" res="0.0e+00" rms="0.0e+00" purity="0.0e+00" nType="0"><Node pos="l" depth="2" NCoef="0" IVar="0" Cut="0.271022975" cType="1" res="0.0e+00" rms="0.0e+00" purity="0.0e+00" nType="0"><Node pos="l" depth="3" NCoef="0" IVar="-1" Cut="0.0e+00" cType="1" res="-0.00310980366" rms="0.0e+00" purity="0.0e+00" nType="-99" /><Node pos="r" depth="3" NCoef="0" IVar="-1" Cut="0.0e+00" cType="1" res="0.000811398262" rms="0.0e+00" purity="0.0e+00" nType="-99" /></Node><Node pos="r" depth="2" NCoef="0" IVar="10" Cut="2.78625059" cType="1" res="0.0e+00" rms="0.0e+00" purity="0.0e+00" nType="0"><Node pos="l" depth="3" NCoef="0" IVar="-1" Cut="0.0e+00" cType="1" res="0.00261171209" rms="0.0e+00" purity="0.0e+00" nType="-99" /><Node pos="r" depth="3" NCoef="0" IVar="-1" Cut="0.0e+00" cType="1" res="0.00681380834" rms="0.0e+00" purity="0.0e+00" nType="-99" /></Node></Node></Node></BinaryTree><BinaryTree type="DecisionTree" boostWeight="1.0e+00" itree="28"><Node pos="s" depth="0" NCoef="0" IVar="1" Cut="57.3455582" cType="1" res="0.0e+00" rms="0.0e+00" purity="0.0e+00" nType="0"><Node pos="l" depth="1" NCoef="0" IVar="4" Cut="2.79048443" cType="1" res="0.0e+00" rms="0.0e+00" purity="0.0e+00" nType="0"><Node pos="l" depth="2" NCoef="0" IVar="9" Cut="616.828491" cType="1" res="0.0e+00" rms="0.0e+00" purity="0.0e+00" nType="0"><Node pos="l" depth="3" NCoef="0" IVar="-1" Cut="0.0e+00" cType="1" res="0.00380536402" rms="0.0e+00" purity="0.0e+00" nType="-99" /><Node pos="r" depth="3" NCoef="0" IVar="-1" Cut="0.0e+00" cType="1" res="0.0112275956" rms="0.0e+00" purity="0.0e+00" nType="-99" /></Node><Node pos="r" depth="2" NCoef="0" IVar="3" Cut="1.59099281" cType="1" res="0.0e+00" rms="0.0e+00" purity="0.0e+00" nType="0"><Node pos="l" depth="3" NCoef="0" IVar="-1" Cut="0.0e+00" cType="1" res="0.00288888393" rms="0.0e+00" purity="0.0e+00" nType="-99" /><Node pos="r" depth="3" NCoef="0" IVar="-1" Cut="0.0e+00" cType="1" res="-0.00272871973" rms="0.0e+00" purity="0.0e+00" nType="-99" /></Node></Node><Node pos="r" depth="1" NCoef="0" IVar="9" Cut="502.347565" cType="1" res="0.0e+00" rms="0.0e+00" purity="0.0e+00" nType="0"><Node pos="l" depth="2" NCoef="0" IVar="9" Cut="396.374298" cType="1" res="0.0e+00" rms="0.0e+00" purity="0.0e+00" nType="0"><Node pos="l" depth="3" NCoef="0" IVar="-1" Cut="0.0e+00" cType="1" res="-0.00714634266" rms="0.0e+00" purity="0.0e+00" nType="-99" /><Node pos="r" depth="3" NCoef="0" IVar="-1" Cut="0.0e+00" cType="1" res="-0.0034720758" rms="0.0e+00" purity="0.0e+00" nType="-99" /></Node><Node pos="r" depth="2" NCoef="0" IVar="9" Cut="704.2229" cType="1" res="0.0e+00" rms="0.0e+00" purity="0.0e+00" nType="0"><Node pos="l" depth="3" NCoef="0" IVar="-1" Cut="0.0e+00" cType="1" res="-0.000889602408" rms="0.0e+00" purity="0.0e+00" nType="-99" /><Node pos="r" depth="3" NCoef="0" IVar="-1" Cut="0.0e+00" cType="1" res="0.00270577404" rms="0.0e+00" purity="0.0e+00" nType="-99" /></Node></Node></Node></BinaryTree><BinaryTree type="DecisionTree" boostWeight="1.0e+00" itree="29"><Node pos="s" depth="0" NCoef="0" IVar="1" Cut="47.942955" cType="1" res="0.0e+00" rms="0.0e+00" purity="0.0e+00" nType="0"><Node pos="l" depth="1" NCoef="0" IVar="9" Cut="617.00293" cType="1" res="0.0e+00" rms="0.0e+00" purity="0.0e+00" nType="0"><Node pos="l" depth="2" NCoef="0" IVar="5" Cut="0.804256201" cType="1" res="0.0e+00" rms="0.0e+00" purity="0.0e+00" nType="0"><Node pos="l" depth="3" NCoef="0" IVar="-1" Cut="0.0e+00" cType="1" res="0.0048877243" rms="0.0e+00" purity="0.0e+00" nType="-99" /><Node pos="r" depth="3" NCoef="0" IVar="-1" Cut="0.0e+00" cType="1" res="-1.97570898e-05" rms="0.0e+00" purity="0.0e+00" nType="-99" /></Node><Node pos="r" depth="2" NCoef="0" IVar="0" Cut="0.443983495" cType="1" res="0.0e+00" rms="0.0e+00" purity="0.0e+00" nType="0"><Node pos="l" depth="3" NCoef="0" IVar="-1" Cut="0.0e+00" cType="1" res="0.00151876407" rms="0.0e+00" purity="0.0e+00" nType="-99" /><Node pos="r" depth="3" NCoef="0" IVar="-1" Cut="0.0e+00" cType="1" res="0.0096116811" rms="0.0e+00" purity="0.0e+00" nType="-99" /></Node></Node><Node pos="r" depth="1" NCoef="0" IVar="9" Cut="494.563202" cType="1" res="0.0e+00" rms="0.0e+00" purity="0.0e+00" nType="0"><Node pos="l" depth="2" NCoef="0" IVar="2" Cut="477.695923" cType="1" res="0.0e+00" rms="0.0e+00" purity="0.0e+00" nType="0"><Node pos="l" depth="3" NCoef="0" IVar="-1" Cut="0.0e+00" cType="1" res="-0.00226603937" rms="0.0e+00" purity="0.0e+00" nType="-99" /><Node pos="r" depth="3" NCoef="0" IVar="-1" Cut="0.0e+00" cType="1" res="-0.00632636156" rms="0.0e+00" purity="0.0e+00" nType="-99" /></Node><Node pos="r" depth="2" NCoef="0" IVar="7" Cut="1.27567124" cType="1" res="0.0e+00" rms="0.0e+00" purity="0.0e+00" nType="0"><Node pos="l" depth="3" NCoef="0" IVar="-1" Cut="0.0e+00" cType="1" res="0.00352612464" rms="0.0e+00" purity="0.0e+00" nType="-99" /><Node pos="r" depth="3" NCoef="0" IVar="-1" Cut="0.0e+00" cType="1" res="-0.000161393938" rms="0.0e+00" purity="0.0e+00" nType="-99" /></Node></Node></Node></BinaryTree><BinaryTree type="DecisionTree" boostWeight="1.0e+00" itree="30"><Node pos="s" depth="0" NCoef="0" IVar="1" Cut="52.7256622" cType="1" res="0.0e+00" rms="0.0e+00" purity="0.0e+00" nType="0"><Node pos="l" depth="1" NCoef="0" IVar="4" Cut="2.78424215" cType="1" res="0.0e+00" rms="0.0e+00" purity="0.0e+00" nType="0"><Node pos="l" depth="2" NCoef="0" IVar="9" Cut="615.323364" cType="1" res="0.0e+00" rms="0.0e+00" purity="0.0e+00" nType="0"><Node pos="l" depth="3" NCoef="0" IVar="-1" Cut="0.0e+00" cType="1" res="0.0039435667" rms="0.0e+00" purity="0.0e+00" nType="-99" /><Node pos="r" depth="3" NCoef="0" IVar="-1" Cut="0.0e+00" cType="1" res="0.0110813733" rms="0.0e+00" purity="0.0e+00" nType="-99" /></Node><Node pos="r" depth="2" NCoef="0" IVar="3" Cut="1.63686085" cType="1" res="0.0e+00" rms="0.0e+00" purity="0.0e+00" nType="0"><Node pos="l" depth="3" NCoef="0" IVar="-1" Cut="0.0e+00" cType="1" res="0.00288021285" rms="0.0e+00" purity="0.0e+00" nType="-99" /><Node pos="r" depth="3" NCoef="0" IVar="-1" Cut="0.0e+00" cType="1" res="-0.00263455207" rms="0.0e+00" purity="0.0e+00" nType="-99" /></Node></Node><Node pos="r" depth="1" NCoef="0" IVar="9" Cut="494.705261" cType="1" res="0.0e+00" rms="0.0e+00" purity="0.0e+00" nType="0"><Node pos="l" depth="2" NCoef="0" IVar="9" Cut="396.600067" cType="1" res="0.0e+00" rms="0.0e+00" purity="0.0e+00" nType="0"><Node pos="l" depth="3" NCoef="0" IVar="-1" Cut="0.0e+00" cType="1" res="-0.00679712696" rms="0.0e+00" purity="0.0e+00" nType="-99" /><Node pos="r" depth="3" NCoef="0" IVar="-1" Cut="0.0e+00" cType="1" res="-0.00323296268" rms="0.0e+00" purity="0.0e+00" nType="-99" /></Node><Node pos="r" depth="2" NCoef="0" IVar="9" Cut="706.082153" cType="1" res="0.0e+00" rms="0.0e+00" purity="0.0e+00" nType="0"><Node pos="l" depth="3" NCoef="0" IVar="-1" Cut="0.0e+00" cType="1" res="-0.000656155928" rms="0.0e+00" purity="0.0e+00" nType="-99" /><Node pos="r" depth="3" NCoef="0" IVar="-1" Cut="0.0e+00" cType="1" res="0.00301253726" rms="0.0e+00" purity="0.0e+00" nType="-99" /></Node></Node></Node></BinaryTree><BinaryTree type="DecisionTree" boostWeight="1.0e+00" itree="31"><Node pos="s" depth="0" NCoef="0" IVar="10" Cut="2.58532071" cType="1" res="0.0e+00" rms="0.0e+00" purity="0.0e+00" nType="0"><Node pos="l" depth="1" NCoef="0" IVar="2" Cut="386.895782" cType="1" res="0.0e+00" rms="0.0e+00" purity="0.0e+00" nType="0"><Node pos="l" depth="2" NCoef="0" IVar="1" Cut="55.7098007" cType="1" res="0.0e+00" rms="0.0e+00" purity="0.0e+00" nType="0"><Node pos="l" depth="3" NCoef="0" IVar="-1" Cut="0.0e+00" cType="1" res="0.00268973736" rms="0.0e+00" purity="0.0e+00" nType="-99" /><Node pos="r" depth="3" NCoef="0" IVar="-1" Cut="0.0e+00" cType="1" res="-0.000217456574" rms="0.0e+00" purity="0.0e+00" nType="-99" /></Node><Node pos="r" depth="2" NCoef="0" IVar="2" Cut="1020.6842" cType="1" res="0.0e+00" rms="0.0e+00" purity="0.0e+00" nType="0"><Node pos="l" depth="3" NCoef="0" IVar="-1" Cut="0.0e+00" cType="1" res="-0.00488684885" rms="0.0e+00" purity="0.0e+00" nType="-99" /><Node pos="r" depth="3" NCoef="0" IVar="-1" Cut="0.0e+00" cType="1" res="0.000399322249" rms="0.0e+00" purity="0.0e+00" nType="-99" /></Node></Node><Node pos="r" depth="1" NCoef="0" IVar="0" Cut="0.458122611" cType="1" res="0.0e+00" rms="0.0e+00" purity="0.0e+00" nType="0"><Node pos="l" depth="2" NCoef="0" IVar="5" Cut="0.749935508" cType="1" res="0.0e+00" rms="0.0e+00" purity="0.0e+00" nType="0"><Node pos="l" depth="3" NCoef="0" IVar="-1" Cut="0.0e+00" cType="1" res="0.00420323992" rms="0.0e+00" purity="0.0e+00" nType="-99" /><Node pos="r" depth="3" NCoef="0" IVar="-1" Cut="0.0e+00" cType="1" res="-0.00313623506" rms="0.0e+00" purity="0.0e+00" nType="-99" /></Node><Node pos="r" depth="2" NCoef="0" IVar="5" Cut="0.940207243" cType="1" res="0.0e+00" rms="0.0e+00" purity="0.0e+00" nType="0"><Node pos="l" depth="3" NCoef="0" IVar="-1" Cut="0.0e+00" cType="1" res="0.00813705102" rms="0.0e+00" purity="0.0e+00" nType="-99" /><Node pos="r" depth="3" NCoef="0" IVar="-1" Cut="0.0e+00" cType="1" res="0.00360875577" rms="0.0e+00" purity="0.0e+00" nType="-99" /></Node></Node></Node></BinaryTree><BinaryTree type="DecisionTree" boostWeight="1.0e+00" itree="32"><Node pos="s" depth="0" NCoef="0" IVar="10" Cut="2.58983135" cType="1" res="0.0e+00" rms="0.0e+00" purity="0.0e+00" nType="0"><Node pos="l" depth="1" NCoef="0" IVar="5" Cut="0.65433079" cType="1" res="0.0e+00" rms="0.0e+00" purity="0.0e+00" nType="0"><Node pos="l" depth="2" NCoef="0" IVar="5" Cut="0.426596791" cType="1" res="0.0e+00" rms="0.0e+00" purity="0.0e+00" nType="0"><Node pos="l" depth="3" NCoef="0" IVar="-1" Cut="0.0e+00" cType="1" res="0.00586489588" rms="0.0e+00" purity="0.0e+00" nType="-99" /><Node pos="r" depth="3" NCoef="0" IVar="-1" Cut="0.0e+00" cType="1" res="0.00074056437" rms="0.0e+00" purity="0.0e+00" nType="-99" /></Node><Node pos="r" depth="2" NCoef="0" IVar="9" Cut="537.19458" cType="1" res="0.0e+00" rms="0.0e+00" purity="0.0e+00" nType="0"><Node pos="l" depth="3" NCoef="0" IVar="-1" Cut="0.0e+00" cType="1" res="-0.0044897208" rms="0.0e+00" purity="0.0e+00" nType="-99" /><Node pos="r" depth="3" NCoef="0" IVar="-1" Cut="0.0e+00" cType="1" res="0.000364429929" rms="0.0e+00" purity="0.0e+00" nType="-99" /></Node></Node><Node pos="r" depth="1" NCoef="0" IVar="0" Cut="0.469173014" cType="1" res="0.0e+00" rms="0.0e+00" purity="0.0e+00" nType="0"><Node pos="l" depth="2" NCoef="0" IVar="5" Cut="0.749935508" cType="1" res="0.0e+00" rms="0.0e+00" purity="0.0e+00" nType="0"><Node pos="l" depth="3" NCoef="0" IVar="-1" Cut="0.0e+00" cType="1" res="0.00461379951" rms="0.0e+00" purity="0.0e+00" nType="-99" /><Node pos="r" depth="3" NCoef="0" IVar="-1" Cut="0.0e+00" cType="1" res="-0.00304022362" rms="0.0e+00" purity="0.0e+00" nType="-99" /></Node><Node pos="r" depth="2" NCoef="0" IVar="1" Cut="57.6550217" cType="1" res="0.0e+00" rms="0.0e+00" purity="0.0e+00" nType="0"><Node pos="l" depth="3" NCoef="0" IVar="-1" Cut="0.0e+00" cType="1" res="0.00654010801" rms="0.0e+00" purity="0.0e+00" nType="-99" /><Node pos="r" depth="3" NCoef="0" IVar="-1" Cut="0.0e+00" cType="1" res="0.00123956345" rms="0.0e+00" purity="0.0e+00" nType="-99" /></Node></Node></Node></BinaryTree><BinaryTree type="DecisionTree" boostWeight="1.0e+00" itree="33"><Node pos="s" depth="0" NCoef="0" IVar="1" Cut="55.0623474" cType="1" res="0.0e+00" rms="0.0e+00" purity="0.0e+00" nType="0"><Node pos="l" depth="1" NCoef="0" IVar="4" Cut="2.79048443" cType="1" res="0.0e+00" rms="0.0e+00" purity="0.0e+00" nType="0"><Node pos="l" depth="2" NCoef="0" IVar="9" Cut="605.548828" cType="1" res="0.0e+00" rms="0.0e+00" purity="0.0e+00" nType="0"><Node pos="l" depth="3" NCoef="0" IVar="-1" Cut="0.0e+00" cType="1" res="0.0038771464" rms="0.0e+00" purity="0.0e+00" nType="-99" /><Node pos="r" depth="3" NCoef="0" IVar="-1" Cut="0.0e+00" cType="1" res="0.0102345832" rms="0.0e+00" purity="0.0e+00" nType="-99" /></Node><Node pos="r" depth="2" NCoef="0" IVar="3" Cut="1.64141965" cType="1" res="0.0e+00" rms="0.0e+00" purity="0.0e+00" nType="0"><Node pos="l" depth="3" NCoef="0" IVar="-1" Cut="0.0e+00" cType="1" res="0.00263243681" rms="0.0e+00" purity="0.0e+00" nType="-99" /><Node pos="r" depth="3" NCoef="0" IVar="-1" Cut="0.0e+00" cType="1" res="-0.0028697392" rms="0.0e+00" purity="0.0e+00" nType="-99" /></Node></Node><Node pos="r" depth="1" NCoef="0" IVar="9" Cut="502.347656" cType="1" res="0.0e+00" rms="0.0e+00" purity="0.0e+00" nType="0"><Node pos="l" depth="2" NCoef="0" IVar="9" Cut="396.600067" cType="1" res="0.0e+00" rms="0.0e+00" purity="0.0e+00" nType="0"><Node pos="l" depth="3" NCoef="0" IVar="-1" Cut="0.0e+00" cType="1" res="-0.00684161484" rms="0.0e+00" purity="0.0e+00" nType="-99" /><Node pos="r" depth="3" NCoef="0" IVar="-1" Cut="0.0e+00" cType="1" res="-0.00297774584" rms="0.0e+00" purity="0.0e+00" nType="-99" /></Node><Node pos="r" depth="2" NCoef="0" IVar="9" Cut="705.844727" cType="1" res="0.0e+00" rms="0.0e+00" purity="0.0e+00" nType="0"><Node pos="l" depth="3" NCoef="0" IVar="-1" Cut="0.0e+00" cType="1" res="-0.0010175932" rms="0.0e+00" purity="0.0e+00" nType="-99" /><Node pos="r" depth="3" NCoef="0" IVar="-1" Cut="0.0e+00" cType="1" res="0.00274506584" rms="0.0e+00" purity="0.0e+00" nType="-99" /></Node></Node></Node></BinaryTree><BinaryTree type="DecisionTree" boostWeight="1.0e+00" itree="34"><Node pos="s" depth="0" NCoef="0" IVar="10" Cut="2.59342861" cType="1" res="0.0e+00" rms="0.0e+00" purity="0.0e+00" nType="0"><Node pos="l" depth="1" NCoef="0" IVar="5" Cut="0.733080983" cType="1" res="0.0e+00" rms="0.0e+00" purity="0.0e+00" nType="0"><Node pos="l" depth="2" NCoef="0" IVar="5" Cut="0.441859961" cType="1" res="0.0e+00" rms="0.0e+00" purity="0.0e+00" nType="0"><Node pos="l" depth="3" NCoef="0" IVar="-1" Cut="0.0e+00" cType="1" res="0.00554830441" rms="0.0e+00" purity="0.0e+00" nType="-99" /><Node pos="r" depth="3" NCoef="0" IVar="-1" Cut="0.0e+00" cType="1" res="0.000265054579" rms="0.0e+00" purity="0.0e+00" nType="-99" /></Node><Node pos="r" depth="2" NCoef="0" IVar="9" Cut="557.300781" cType="1" res="0.0e+00" rms="0.0e+00" purity="0.0e+00" nType="0"><Node pos="l" depth="3" NCoef="0" IVar="-1" Cut="0.0e+00" cType="1" res="-0.00458974717" rms="0.0e+00" purity="0.0e+00" nType="-99" /><Node pos="r" depth="3" NCoef="0" IVar="-1" Cut="0.0e+00" cType="1" res="0.000313865225" rms="0.0e+00" purity="0.0e+00" nType="-99" /></Node></Node><Node pos="r" depth="1" NCoef="0" IVar="0" Cut="0.420993686" cType="1" res="0.0e+00" rms="0.0e+00" purity="0.0e+00" nType="0"><Node pos="l" depth="2" NCoef="0" IVar="5" Cut="0.800217152" cType="1" res="0.0e+00" rms="0.0e+00" purity="0.0e+00" nType="0"><Node pos="l" depth="3" NCoef="0" IVar="-1" Cut="0.0e+00" cType="1" res="0.00358935329" rms="0.0e+00" purity="0.0e+00" nType="-99" /><Node pos="r" depth="3" NCoef="0" IVar="-1" Cut="0.0e+00" cType="1" res="-0.00374992192" rms="0.0e+00" purity="0.0e+00" nType="-99" /></Node><Node pos="r" depth="2" NCoef="0" IVar="5" Cut="0.940207243" cType="1" res="0.0e+00" rms="0.0e+00" purity="0.0e+00" nType="0"><Node pos="l" depth="3" NCoef="0" IVar="-1" Cut="0.0e+00" cType="1" res="0.00798362959" rms="0.0e+00" purity="0.0e+00" nType="-99" /><Node pos="r" depth="3" NCoef="0" IVar="-1" Cut="0.0e+00" cType="1" res="0.00331726926" rms="0.0e+00" purity="0.0e+00" nType="-99" /></Node></Node></Node></BinaryTree><BinaryTree type="DecisionTree" boostWeight="1.0e+00" itree="35"><Node pos="s" depth="0" NCoef="0" IVar="10" Cut="2.1758697" cType="1" res="0.0e+00" rms="0.0e+00" purity="0.0e+00" nType="0"><Node pos="l" depth="1" NCoef="0" IVar="5" Cut="0.450145155" cType="1" res="0.0e+00" rms="0.0e+00" purity="0.0e+00" nType="0"><Node pos="l" depth="2" NCoef="0" IVar="1" Cut="59.2626495" cType="1" res="0.0e+00" rms="0.0e+00" purity="0.0e+00" nType="0"><Node pos="l" depth="3" NCoef="0" IVar="-1" Cut="0.0e+00" cType="1" res="0.00501931133" rms="0.0e+00" purity="0.0e+00" nType="-99" /><Node pos="r" depth="3" NCoef="0" IVar="-1" Cut="0.0e+00" cType="1" res="-0" rms="0.0e+00" purity="0.0e+00" nType="-99" /></Node><Node pos="r" depth="2" NCoef="0" IVar="9" Cut="446.550964" cType="1" res="0.0e+00" rms="0.0e+00" purity="0.0e+00" nType="0"><Node pos="l" depth="3" NCoef="0" IVar="-1" Cut="0.0e+00" cType="1" res="-0.00551614258" rms="0.0e+00" purity="0.0e+00" nType="-99" /><Node pos="r" depth="3" NCoef="0" IVar="-1" Cut="0.0e+00" cType="1" res="-0.00042168831" rms="0.0e+00" purity="0.0e+00" nType="-99" /></Node></Node><Node pos="r" depth="1" NCoef="0" IVar="0" Cut="0.460692465" cType="1" res="0.0e+00" rms="0.0e+00" purity="0.0e+00" nType="0"><Node pos="l" depth="2" NCoef="0" IVar="5" Cut="0.791546345" cType="1" res="0.0e+00" rms="0.0e+00" purity="0.0e+00" nType="0"><Node pos="l" depth="3" NCoef="0" IVar="-1" Cut="0.0e+00" cType="1" res="0.00334610092" rms="0.0e+00" purity="0.0e+00" nType="-99" /><Node pos="r" depth="3" NCoef="0" IVar="-1" Cut="0.0e+00" cType="1" res="-0.00316728279" rms="0.0e+00" purity="0.0e+00" nType="-99" /></Node><Node pos="r" depth="2" NCoef="0" IVar="1" Cut="53.904068" cType="1" res="0.0e+00" rms="0.0e+00" purity="0.0e+00" nType="0"><Node pos="l" depth="3" NCoef="0" IVar="-1" Cut="0.0e+00" cType="1" res="0.00567480735" rms="0.0e+00" purity="0.0e+00" nType="-99" /><Node pos="r" depth="3" NCoef="0" IVar="-1" Cut="0.0e+00" cType="1" res="0.00027534843" rms="0.0e+00" purity="0.0e+00" nType="-99" /></Node></Node></Node></BinaryTree><BinaryTree type="DecisionTree" boostWeight="1.0e+00" itree="36"><Node pos="s" depth="0" NCoef="0" IVar="10" Cut="2.1758697" cType="1" res="0.0e+00" rms="0.0e+00" purity="0.0e+00" nType="0"><Node pos="l" depth="1" NCoef="0" IVar="2" Cut="425.229858" cType="1" res="0.0e+00" rms="0.0e+00" purity="0.0e+00" nType="0"><Node pos="l" depth="2" NCoef="0" IVar="2" Cut="299.776123" cType="1" res="0.0e+00" rms="0.0e+00" purity="0.0e+00" nType="0"><Node pos="l" depth="3" NCoef="0" IVar="-1" Cut="0.0e+00" cType="1" res="0.00358166709" rms="0.0e+00" purity="0.0e+00" nType="-99" /><Node pos="r" depth="3" NCoef="0" IVar="-1" Cut="0.0e+00" cType="1" res="-0.000198860216" rms="0.0e+00" purity="0.0e+00" nType="-99" /></Node><Node pos="r" depth="2" NCoef="0" IVar="2" Cut="1004.55664" cType="1" res="0.0e+00" rms="0.0e+00" purity="0.0e+00" nType="0"><Node pos="l" depth="3" NCoef="0" IVar="-1" Cut="0.0e+00" cType="1" res="-0.00620259019" rms="0.0e+00" purity="0.0e+00" nType="-99" /><Node pos="r" depth="3" NCoef="0" IVar="-1" Cut="0.0e+00" cType="1" res="-0.000137045368" rms="0.0e+00" purity="0.0e+00" nType="-99" /></Node></Node><Node pos="r" depth="1" NCoef="0" IVar="0" Cut="0.46086961" cType="1" res="0.0e+00" rms="0.0e+00" purity="0.0e+00" nType="0"><Node pos="l" depth="2" NCoef="0" IVar="2" Cut="385.084229" cType="1" res="0.0e+00" rms="0.0e+00" purity="0.0e+00" nType="0"><Node pos="l" depth="3" NCoef="0" IVar="-1" Cut="0.0e+00" cType="1" res="0.0022308419" rms="0.0e+00" purity="0.0e+00" nType="-99" /><Node pos="r" depth="3" NCoef="0" IVar="-1" Cut="0.0e+00" cType="1" res="-0.0023351924" rms="0.0e+00" purity="0.0e+00" nType="-99" /></Node><Node pos="r" depth="2" NCoef="0" IVar="1" Cut="53.904068" cType="1" res="0.0e+00" rms="0.0e+00" purity="0.0e+00" nType="0"><Node pos="l" depth="3" NCoef="0" IVar="-1" Cut="0.0e+00" cType="1" res="0.00556103932" rms="0.0e+00" purity="0.0e+00" nType="-99" /><Node pos="r" depth="3" NCoef="0" IVar="-1" Cut="0.0e+00" cType="1" res="0.000428717583" rms="0.0e+00" purity="0.0e+00" nType="-99" /></Node></Node></Node></BinaryTree><BinaryTree type="DecisionTree" boostWeight="1.0e+00" itree="37"><Node pos="s" depth="0" NCoef="0" IVar="10" Cut="2.1758697" cType="1" res="0.0e+00" rms="0.0e+00" purity="0.0e+00" nType="0"><Node pos="l" depth="1" NCoef="0" IVar="5" Cut="0.525043726" cType="1" res="0.0e+00" rms="0.0e+00" purity="0.0e+00" nType="0"><Node pos="l" depth="2" NCoef="0" IVar="5" Cut="0.426596791" cType="1" res="0.0e+00" rms="0.0e+00" purity="0.0e+00" nType="0"><Node pos="l" depth="3" NCoef="0" IVar="-1" Cut="0.0e+00" cType="1" res="0.00474956678" rms="0.0e+00" purity="0.0e+00" nType="-99" /><Node pos="r" depth="3" NCoef="0" IVar="-1" Cut="0.0e+00" cType="1" res="-0" rms="0.0e+00" purity="0.0e+00" nType="-99" /></Node><Node pos="r" depth="2" NCoef="0" IVar="2" Cut="1006.25964" cType="1" res="0.0e+00" rms="0.0e+00" purity="0.0e+00" nType="0"><Node pos="l" depth="3" NCoef="0" IVar="-1" Cut="0.0e+00" cType="1" res="-0.00535526266" rms="0.0e+00" purity="0.0e+00" nType="-99" /><Node pos="r" depth="3" NCoef="0" IVar="-1" Cut="0.0e+00" cType="1" res="-0" rms="0.0e+00" purity="0.0e+00" nType="-99" /></Node></Node><Node pos="r" depth="1" NCoef="0" IVar="0" Cut="0.45363152" cType="1" res="0.0e+00" rms="0.0e+00" purity="0.0e+00" nType="0"><Node pos="l" depth="2" NCoef="0" IVar="5" Cut="0.803309798" cType="1" res="0.0e+00" rms="0.0e+00" purity="0.0e+00" nType="0"><Node pos="l" depth="3" NCoef="0" IVar="-1" Cut="0.0e+00" cType="1" res="0.00327590806" rms="0.0e+00" purity="0.0e+00" nType="-99" /><Node pos="r" depth="3" NCoef="0" IVar="-1" Cut="0.0e+00" cType="1" res="-0.00325823994" rms="0.0e+00" purity="0.0e+00" nType="-99" /></Node><Node pos="r" depth="2" NCoef="0" IVar="5" Cut="0.923604608" cType="1" res="0.0e+00" rms="0.0e+00" purity="0.0e+00" nType="0"><Node pos="l" depth="3" NCoef="0" IVar="-1" Cut="0.0e+00" cType="1" res="0.00719153741" rms="0.0e+00" purity="0.0e+00" nType="-99" /><Node pos="r" depth="3" NCoef="0" IVar="-1" Cut="0.0e+00" cType="1" res="0.00222119177" rms="0.0e+00" purity="0.0e+00" nType="-99" /></Node></Node></Node></BinaryTree><BinaryTree type="DecisionTree" boostWeight="1.0e+00" itree="38"><Node pos="s" depth="0" NCoef="0" IVar="10" Cut="2.1758697" cType="1" res="0.0e+00" rms="0.0e+00" purity="0.0e+00" nType="0"><Node pos="l" depth="1" NCoef="0" IVar="9" Cut="444.433014" cType="1" res="0.0e+00" rms="0.0e+00" purity="0.0e+00" nType="0"><Node pos="l" depth="2" NCoef="0" IVar="2" Cut="425.238708" cType="1" res="0.0e+00" rms="0.0e+00" purity="0.0e+00" nType="0"><Node pos="l" depth="3" NCoef="0" IVar="-1" Cut="0.0e+00" cType="1" res="0.000411166402" rms="0.0e+00" purity="0.0e+00" nType="-99" /><Node pos="r" depth="3" NCoef="0" IVar="-1" Cut="0.0e+00" cType="1" res="-0.00679703243" rms="0.0e+00" purity="0.0e+00" nType="-99" /></Node><Node pos="r" depth="2" NCoef="0" IVar="2" Cut="1013.79199" cType="1" res="0.0e+00" rms="0.0e+00" purity="0.0e+00" nType="0"><Node pos="l" depth="3" NCoef="0" IVar="-1" Cut="0.0e+00" cType="1" res="-0.00172033871" rms="0.0e+00" purity="0.0e+00" nType="-99" /><Node pos="r" depth="3" NCoef="0" IVar="-1" Cut="0.0e+00" cType="1" res="0.00132941839" rms="0.0e+00" purity="0.0e+00" nType="-99" /></Node></Node><Node pos="r" depth="1" NCoef="0" IVar="1" Cut="45.0517273" cType="1" res="0.0e+00" rms="0.0e+00" purity="0.0e+00" nType="0"><Node pos="l" depth="2" NCoef="0" IVar="9" Cut="617.00293" cType="1" res="0.0e+00" rms="0.0e+00" purity="0.0e+00" nType="0"><Node pos="l" depth="3" NCoef="0" IVar="-1" Cut="0.0e+00" cType="1" res="0.00353197381" rms="0.0e+00" purity="0.0e+00" nType="-99" /><Node pos="r" depth="3" NCoef="0" IVar="-1" Cut="0.0e+00" cType="1" res="0.00827834103" rms="0.0e+00" purity="0.0e+00" nType="-99" /></Node><Node pos="r" depth="2" NCoef="0" IVar="9" Cut="716.09375" cType="1" res="0.0e+00" rms="0.0e+00" purity="0.0e+00" nType="0"><Node pos="l" depth="3" NCoef="0" IVar="-1" Cut="0.0e+00" cType="1" res="-0.00204793317" rms="0.0e+00" purity="0.0e+00" nType="-99" /><Node pos="r" depth="3" NCoef="0" IVar="-1" Cut="0.0e+00" cType="1" res="0.0039247591" rms="0.0e+00" purity="0.0e+00" nType="-99" /></Node></Node></Node></BinaryTree><BinaryTree type="DecisionTree" boostWeight="1.0e+00" itree="39"><Node pos="s" depth="0" NCoef="0" IVar="1" Cut="57.5998039" cType="1" res="0.0e+00" rms="0.0e+00" purity="0.0e+00" nType="0"><Node pos="l" depth="1" NCoef="0" IVar="5" Cut="0.80696547" cType="1" res="0.0e+00" rms="0.0e+00" purity="0.0e+00" nType="0"><Node pos="l" depth="2" NCoef="0" IVar="9" Cut="442.292969" cType="1" res="0.0e+00" rms="0.0e+00" purity="0.0e+00" nType="0"><Node pos="l" depth="3" NCoef="0" IVar="-1" Cut="0.0e+00" cType="1" res="0.00375497411" rms="0.0e+00" purity="0.0e+00" nType="-99" /><Node pos="r" depth="3" NCoef="0" IVar="-1" Cut="0.0e+00" cType="1" res="0.00821469538" rms="0.0e+00" purity="0.0e+00" nType="-99" /></Node><Node pos="r" depth="2" NCoef="0" IVar="0" Cut="0.647770941" cType="1" res="0.0e+00" rms="0.0e+00" purity="0.0e+00" nType="0"><Node pos="l" depth="3" NCoef="0" IVar="-1" Cut="0.0e+00" cType="1" res="-0.00198241044" rms="0.0e+00" purity="0.0e+00" nType="-99" /><Node pos="r" depth="3" NCoef="0" IVar="-1" Cut="0.0e+00" cType="1" res="0.00321379118" rms="0.0e+00" purity="0.0e+00" nType="-99" /></Node></Node><Node pos="r" depth="1" NCoef="0" IVar="9" Cut="502.347656" cType="1" res="0.0e+00" rms="0.0e+00" purity="0.0e+00" nType="0"><Node pos="l" depth="2" NCoef="0" IVar="9" Cut="396.374298" cType="1" res="0.0e+00" rms="0.0e+00" purity="0.0e+00" nType="0"><Node pos="l" depth="3" NCoef="0" IVar="-1" Cut="0.0e+00" cType="1" res="-0.00677917525" rms="0.0e+00" purity="0.0e+00" nType="-99" /><Node pos="r" depth="3" NCoef="0" IVar="-1" Cut="0.0e+00" cType="1" res="-0.0033816644" rms="0.0e+00" purity="0.0e+00" nType="-99" /></Node><Node pos="r" depth="2" NCoef="0" IVar="9" Cut="705.844727" cType="1" res="0.0e+00" rms="0.0e+00" purity="0.0e+00" nType="0"><Node pos="l" depth="3" NCoef="0" IVar="-1" Cut="0.0e+00" cType="1" res="-0.000873651705" rms="0.0e+00" purity="0.0e+00" nType="-99" /><Node pos="r" depth="3" NCoef="0" IVar="-1" Cut="0.0e+00" cType="1" res="0.00257115625" rms="0.0e+00" purity="0.0e+00" nType="-99" /></Node></Node></Node></BinaryTree><BinaryTree type="DecisionTree" boostWeight="1.0e+00" itree="40"><Node pos="s" depth="0" NCoef="0" IVar="10" Cut="2.7448678" cType="1" res="0.0e+00" rms="0.0e+00" purity="0.0e+00" nType="0"><Node pos="l" depth="1" NCoef="0" IVar="5" Cut="0.733080983" cType="1" res="0.0e+00" rms="0.0e+00" purity="0.0e+00" nType="0"><Node pos="l" depth="2" NCoef="0" IVar="5" Cut="0.420667827" cType="1" res="0.0e+00" rms="0.0e+00" purity="0.0e+00" nType="0"><Node pos="l" depth="3" NCoef="0" IVar="-1" Cut="0.0e+00" cType="1" res="0.00598613173" rms="0.0e+00" purity="0.0e+00" nType="-99" /><Node pos="r" depth="3" NCoef="0" IVar="-1" Cut="0.0e+00" cType="1" res="0.000853082747" rms="0.0e+00" purity="0.0e+00" nType="-99" /></Node><Node pos="r" depth="2" NCoef="0" IVar="9" Cut="553.859802" cType="1" res="0.0e+00" rms="0.0e+00" purity="0.0e+00" nType="0"><Node pos="l" depth="3" NCoef="0" IVar="-1" Cut="0.0e+00" cType="1" res="-0.0042108465" rms="0.0e+00" purity="0.0e+00" nType="-99" /><Node pos="r" depth="3" NCoef="0" IVar="-1" Cut="0.0e+00" cType="1" res="0.000751650252" rms="0.0e+00" purity="0.0e+00" nType="-99" /></Node></Node><Node pos="r" depth="1" NCoef="0" IVar="7" Cut="1.33368826" cType="1" res="0.0e+00" rms="0.0e+00" purity="0.0e+00" nType="0"><Node pos="l" depth="2" NCoef="0" IVar="4" Cut="3.06977558" cType="1" res="0.0e+00" rms="0.0e+00" purity="0.0e+00" nType="0"><Node pos="l" depth="3" NCoef="0" IVar="-1" Cut="0.0e+00" cType="1" res="0.00856929738" rms="0.0e+00" purity="0.0e+00" nType="-99" /><Node pos="r" depth="3" NCoef="0" IVar="-1" Cut="0.0e+00" cType="1" res="0.00221076002" rms="0.0e+00" purity="0.0e+00" nType="-99" /></Node><Node pos="r" depth="2" NCoef="0" IVar="5" Cut="0.80271107" cType="1" res="0.0e+00" rms="0.0e+00" purity="0.0e+00" nType="0"><Node pos="l" depth="3" NCoef="0" IVar="-1" Cut="0.0e+00" cType="1" res="0.00557050854" rms="0.0e+00" purity="0.0e+00" nType="-99" /><Node pos="r" depth="3" NCoef="0" IVar="-1" Cut="0.0e+00" cType="1" res="0.000260685571" rms="0.0e+00" purity="0.0e+00" nType="-99" /></Node></Node></Node></BinaryTree><BinaryTree type="DecisionTree" boostWeight="1.0e+00" itree="41"><Node pos="s" depth="0" NCoef="0" IVar="10" Cut="2.62912846" cType="1" res="0.0e+00" rms="0.0e+00" purity="0.0e+00" nType="0"><Node pos="l" depth="1" NCoef="0" IVar="2" Cut="423.67572" cType="1" res="0.0e+00" rms="0.0e+00" purity="0.0e+00" nType="0"><Node pos="l" depth="2" NCoef="0" IVar="5" Cut="0.848863065" cType="1" res="0.0e+00" rms="0.0e+00" purity="0.0e+00" nType="0"><Node pos="l" depth="3" NCoef="0" IVar="-1" Cut="0.0e+00" cType="1" res="0.00308471336" rms="0.0e+00" purity="0.0e+00" nType="-99" /><Node pos="r" depth="3" NCoef="0" IVar="-1" Cut="0.0e+00" cType="1" res="-3.1759424e-05" rms="0.0e+00" purity="0.0e+00" nType="-99" /></Node><Node pos="r" depth="2" NCoef="0" IVar="9" Cut="399.701172" cType="1" res="0.0e+00" rms="0.0e+00" purity="0.0e+00" nType="0"><Node pos="l" depth="3" NCoef="0" IVar="-1" Cut="0.0e+00" cType="1" res="-0.00653576246" rms="0.0e+00" purity="0.0e+00" nType="-99" /><Node pos="r" depth="3" NCoef="0" IVar="-1" Cut="0.0e+00" cType="1" res="-0.000626736961" rms="0.0e+00" purity="0.0e+00" nType="-99" /></Node></Node><Node pos="r" depth="1" NCoef="0" IVar="1" Cut="58.9911575" cType="1" res="0.0e+00" rms="0.0e+00" purity="0.0e+00" nType="0"><Node pos="l" depth="2" NCoef="0" IVar="8" Cut="251.224365" cType="1" res="0.0e+00" rms="0.0e+00" purity="0.0e+00" nType="0"><Node pos="l" depth="3" NCoef="0" IVar="-1" Cut="0.0e+00" cType="1" res="0.00246067229" rms="0.0e+00" purity="0.0e+00" nType="-99" /><Node pos="r" depth="3" NCoef="0" IVar="-1" Cut="0.0e+00" cType="1" res="0.00705812359" rms="0.0e+00" purity="0.0e+00" nType="-99" /></Node><Node pos="r" depth="2" NCoef="0" IVar="9" Cut="584.420898" cType="1" res="0.0e+00" rms="0.0e+00" purity="0.0e+00" nType="0"><Node pos="l" depth="3" NCoef="0" IVar="-1" Cut="0.0e+00" cType="1" res="-0.00518618943" rms="0.0e+00" purity="0.0e+00" nType="-99" /><Node pos="r" depth="3" NCoef="0" IVar="-1" Cut="0.0e+00" cType="1" res="0.00186585588" rms="0.0e+00" purity="0.0e+00" nType="-99" /></Node></Node></Node></BinaryTree><BinaryTree type="DecisionTree" boostWeight="1.0e+00" itree="42"><Node pos="s" depth="0" NCoef="0" IVar="10" Cut="2.73829746" cType="1" res="0.0e+00" rms="0.0e+00" purity="0.0e+00" nType="0"><Node pos="l" depth="1" NCoef="0" IVar="2" Cut="423.746368" cType="1" res="0.0e+00" rms="0.0e+00" purity="0.0e+00" nType="0"><Node pos="l" depth="2" NCoef="0" IVar="1" Cut="52.7302094" cType="1" res="0.0e+00" rms="0.0e+00" purity="0.0e+00" nType="0"><Node pos="l" depth="3" NCoef="0" IVar="-1" Cut="0.0e+00" cType="1" res="0.00224327948" rms="0.0e+00" purity="0.0e+00" nType="-99" /><Node pos="r" depth="3" NCoef="0" IVar="-1" Cut="0.0e+00" cType="1" res="-0.00125958526" rms="0.0e+00" purity="0.0e+00" nType="-99" /></Node><Node pos="r" depth="2" NCoef="0" IVar="2" Cut="1051.66479" cType="1" res="0.0e+00" rms="0.0e+00" purity="0.0e+00" nType="0"><Node pos="l" depth="3" NCoef="0" IVar="-1" Cut="0.0e+00" cType="1" res="-0.00447496772" rms="0.0e+00" purity="0.0e+00" nType="-99" /><Node pos="r" depth="3" NCoef="0" IVar="-1" Cut="0.0e+00" cType="1" res="0.000861522858" rms="0.0e+00" purity="0.0e+00" nType="-99" /></Node></Node><Node pos="r" depth="1" NCoef="0" IVar="0" Cut="0.450998455" cType="1" res="0.0e+00" rms="0.0e+00" purity="0.0e+00" nType="0"><Node pos="l" depth="2" NCoef="0" IVar="1" Cut="45.3116302" cType="1" res="0.0e+00" rms="0.0e+00" purity="0.0e+00" nType="0"><Node pos="l" depth="3" NCoef="0" IVar="-1" Cut="0.0e+00" cType="1" res="0.00127674069" rms="0.0e+00" purity="0.0e+00" nType="-99" /><Node pos="r" depth="3" NCoef="0" IVar="-1" Cut="0.0e+00" cType="1" res="-0.00286114588" rms="0.0e+00" purity="0.0e+00" nType="-99" /></Node><Node pos="r" depth="2" NCoef="0" IVar="1" Cut="62.6924629" cType="1" res="0.0e+00" rms="0.0e+00" purity="0.0e+00" nType="0"><Node pos="l" depth="3" NCoef="0" IVar="-1" Cut="0.0e+00" cType="1" res="0.00634704437" rms="0.0e+00" purity="0.0e+00" nType="-99" /><Node pos="r" depth="3" NCoef="0" IVar="-1" Cut="0.0e+00" cType="1" res="0.00103057513" rms="0.0e+00" purity="0.0e+00" nType="-99" /></Node></Node></Node></BinaryTree><BinaryTree type="DecisionTree" boostWeight="1.0e+00" itree="43"><Node pos="s" depth="0" NCoef="0" IVar="10" Cut="2.1758697" cType="1" res="0.0e+00" rms="0.0e+00" purity="0.0e+00" nType="0"><Node pos="l" depth="1" NCoef="0" IVar="9" Cut="444.338989" cType="1" res="0.0e+00" rms="0.0e+00" purity="0.0e+00" nType="0"><Node pos="l" depth="2" NCoef="0" IVar="2" Cut="425.229858" cType="1" res="0.0e+00" rms="0.0e+00" purity="0.0e+00" nType="0"><Node pos="l" depth="3" NCoef="0" IVar="-1" Cut="0.0e+00" cType="1" res="9.7929842e-05" rms="0.0e+00" purity="0.0e+00" nType="-99" /><Node pos="r" depth="3" NCoef="0" IVar="-1" Cut="0.0e+00" cType="1" res="-0.00646696892" rms="0.0e+00" purity="0.0e+00" nType="-99" /></Node><Node pos="r" depth="2" NCoef="0" IVar="2" Cut="1018.78815" cType="1" res="0.0e+00" rms="0.0e+00" purity="0.0e+00" nType="0"><Node pos="l" depth="3" NCoef="0" IVar="-1" Cut="0.0e+00" cType="1" res="-0.00181463466" rms="0.0e+00" purity="0.0e+00" nType="-99" /><Node pos="r" depth="3" NCoef="0" IVar="-1" Cut="0.0e+00" cType="1" res="0.000974641298" rms="0.0e+00" purity="0.0e+00" nType="-99" /></Node></Node><Node pos="r" depth="1" NCoef="0" IVar="1" Cut="51.7409172" cType="1" res="0.0e+00" rms="0.0e+00" purity="0.0e+00" nType="0"><Node pos="l" depth="2" NCoef="0" IVar="9" Cut="617.00293" cType="1" res="0.0e+00" rms="0.0e+00" purity="0.0e+00" nType="0"><Node pos="l" depth="3" NCoef="0" IVar="-1" Cut="0.0e+00" cType="1" res="0.00298432796" rms="0.0e+00" purity="0.0e+00" nType="-99" /><Node pos="r" depth="3" NCoef="0" IVar="-1" Cut="0.0e+00" cType="1" res="0.00815770309" rms="0.0e+00" purity="0.0e+00" nType="-99" /></Node><Node pos="r" depth="2" NCoef="0" IVar="9" Cut="716.125732" cType="1" res="0.0e+00" rms="0.0e+00" purity="0.0e+00" nType="0"><Node pos="l" depth="3" NCoef="0" IVar="-1" Cut="0.0e+00" cType="1" res="-0.00299835508" rms="0.0e+00" purity="0.0e+00" nType="-99" /><Node pos="r" depth="3" NCoef="0" IVar="-1" Cut="0.0e+00" cType="1" res="0.00311573385" rms="0.0e+00" purity="0.0e+00" nType="-99" /></Node></Node></Node></BinaryTree><BinaryTree type="DecisionTree" boostWeight="1.0e+00" itree="44"><Node pos="s" depth="0" NCoef="0" IVar="10" Cut="2.7448678" cType="1" res="0.0e+00" rms="0.0e+00" purity="0.0e+00" nType="0"><Node pos="l" depth="1" NCoef="0" IVar="5" Cut="0.733080983" cType="1" res="0.0e+00" rms="0.0e+00" purity="0.0e+00" nType="0"><Node pos="l" depth="2" NCoef="0" IVar="6" Cut="2.28469419" cType="1" res="0.0e+00" rms="0.0e+00" purity="0.0e+00" nType="0"><Node pos="l" depth="3" NCoef="0" IVar="-1" Cut="0.0e+00" cType="1" res="0.0012907309" rms="0.0e+00" purity="0.0e+00" nType="-99" /><Node pos="r" depth="3" NCoef="0" IVar="-1" Cut="0.0e+00" cType="1" res="0.00681741163" rms="0.0e+00" purity="0.0e+00" nType="-99" /></Node><Node pos="r" depth="2" NCoef="0" IVar="10" Cut="1.80569959" cType="1" res="0.0e+00" rms="0.0e+00" purity="0.0e+00" nType="0"><Node pos="l" depth="3" NCoef="0" IVar="-1" Cut="0.0e+00" cType="1" res="-0.00480134692" rms="0.0e+00" purity="0.0e+00" nType="-99" /><Node pos="r" depth="3" NCoef="0" IVar="-1" Cut="0.0e+00" cType="1" res="-0.00162821973" rms="0.0e+00" purity="0.0e+00" nType="-99" /></Node></Node><Node pos="r" depth="1" NCoef="0" IVar="1" Cut="59.0867691" cType="1" res="0.0e+00" rms="0.0e+00" purity="0.0e+00" nType="0"><Node pos="l" depth="2" NCoef="0" IVar="7" Cut="1.40290236" cType="1" res="0.0e+00" rms="0.0e+00" purity="0.0e+00" nType="0"><Node pos="l" depth="3" NCoef="0" IVar="-1" Cut="0.0e+00" cType="1" res="0.00863705575" rms="0.0e+00" purity="0.0e+00" nType="-99" /><Node pos="r" depth="3" NCoef="0" IVar="-1" Cut="0.0e+00" cType="1" res="0.00329689262" rms="0.0e+00" purity="0.0e+00" nType="-99" /></Node><Node pos="r" depth="2" NCoef="0" IVar="7" Cut="1.67272663" cType="1" res="0.0e+00" rms="0.0e+00" purity="0.0e+00" nType="0"><Node pos="l" depth="3" NCoef="0" IVar="-1" Cut="0.0e+00" cType="1" res="0.00199822173" rms="0.0e+00" purity="0.0e+00" nType="-99" /><Node pos="r" depth="3" NCoef="0" IVar="-1" Cut="0.0e+00" cType="1" res="-0.00328882295" rms="0.0e+00" purity="0.0e+00" nType="-99" /></Node></Node></Node></BinaryTree><BinaryTree type="DecisionTree" boostWeight="1.0e+00" itree="45"><Node pos="s" depth="0" NCoef="0" IVar="10" Cut="2.1758697" cType="1" res="0.0e+00" rms="0.0e+00" purity="0.0e+00" nType="0"><Node pos="l" depth="1" NCoef="0" IVar="9" Cut="444.338989" cType="1" res="0.0e+00" rms="0.0e+00" purity="0.0e+00" nType="0"><Node pos="l" depth="2" NCoef="0" IVar="4" Cut="2.78963375" cType="1" res="0.0e+00" rms="0.0e+00" purity="0.0e+00" nType="0"><Node pos="l" depth="3" NCoef="0" IVar="-1" Cut="0.0e+00" cType="1" res="-0.000728543731" rms="0.0e+00" purity="0.0e+00" nType="-99" /><Node pos="r" depth="3" NCoef="0" IVar="-1" Cut="0.0e+00" cType="1" res="-0.00574130146" rms="0.0e+00" purity="0.0e+00" nType="-99" /></Node><Node pos="r" depth="2" NCoef="0" IVar="9" Cut="557.320068" cType="1" res="0.0e+00" rms="0.0e+00" purity="0.0e+00" nType="0"><Node pos="l" depth="3" NCoef="0" IVar="-1" Cut="0.0e+00" cType="1" res="-0.00118272239" rms="0.0e+00" purity="0.0e+00" nType="-99" /><Node pos="r" depth="3" NCoef="0" IVar="-1" Cut="0.0e+00" cType="1" res="0.000954171817" rms="0.0e+00" purity="0.0e+00" nType="-99" /></Node></Node><Node pos="r" depth="1" NCoef="0" IVar="1" Cut="50.9056511" cType="1" res="0.0e+00" rms="0.0e+00" purity="0.0e+00" nType="0"><Node pos="l" depth="2" NCoef="0" IVar="9" Cut="617.852417" cType="1" res="0.0e+00" rms="0.0e+00" purity="0.0e+00" nType="0"><Node pos="l" depth="3" NCoef="0" IVar="-1" Cut="0.0e+00" cType="1" res="0.00295395101" rms="0.0e+00" purity="0.0e+00" nType="-99" /><Node pos="r" depth="3" NCoef="0" IVar="-1" Cut="0.0e+00" cType="1" res="0.00780698657" rms="0.0e+00" purity="0.0e+00" nType="-99" /></Node><Node pos="r" depth="2" NCoef="0" IVar="9" Cut="658.880493" cType="1" res="0.0e+00" rms="0.0e+00" purity="0.0e+00" nType="0"><Node pos="l" depth="3" NCoef="0" IVar="-1" Cut="0.0e+00" cType="1" res="-0.00299022975" rms="0.0e+00" purity="0.0e+00" nType="-99" /><Node pos="r" depth="3" NCoef="0" IVar="-1" Cut="0.0e+00" cType="1" res="0.00251310784" rms="0.0e+00" purity="0.0e+00" nType="-99" /></Node></Node></Node></BinaryTree><BinaryTree type="DecisionTree" boostWeight="1.0e+00" itree="46"><Node pos="s" depth="0" NCoef="0" IVar="10" Cut="2.7448678" cType="1" res="0.0e+00" rms="0.0e+00" purity="0.0e+00" nType="0"><Node pos="l" depth="1" NCoef="0" IVar="2" Cut="423.746368" cType="1" res="0.0e+00" rms="0.0e+00" purity="0.0e+00" nType="0"><Node pos="l" depth="2" NCoef="0" IVar="1" Cut="44.8710098" cType="1" res="0.0e+00" rms="0.0e+00" purity="0.0e+00" nType="0"><Node pos="l" depth="3" NCoef="0" IVar="-1" Cut="0.0e+00" cType="1" res="0.00255039893" rms="0.0e+00" purity="0.0e+00" nType="-99" /><Node pos="r" depth="3" NCoef="0" IVar="-1" Cut="0.0e+00" cType="1" res="-0.000434141955" rms="0.0e+00" purity="0.0e+00" nType="-99" /></Node><Node pos="r" depth="2" NCoef="0" IVar="9" Cut="396.374298" cType="1" res="0.0e+00" rms="0.0e+00" purity="0.0e+00" nType="0"><Node pos="l" depth="3" NCoef="0" IVar="-1" Cut="0.0e+00" cType="1" res="-0.00632847007" rms="0.0e+00" purity="0.0e+00" nType="-99" /><Node pos="r" depth="3" NCoef="0" IVar="-1" Cut="0.0e+00" cType="1" res="-0.000435263122" rms="0.0e+00" purity="0.0e+00" nType="-99" /></Node></Node><Node pos="r" depth="1" NCoef="0" IVar="1" Cut="57.5459366" cType="1" res="0.0e+00" rms="0.0e+00" purity="0.0e+00" nType="0"><Node pos="l" depth="2" NCoef="0" IVar="7" Cut="1.40290236" cType="1" res="0.0e+00" rms="0.0e+00" purity="0.0e+00" nType="0"><Node pos="l" depth="3" NCoef="0" IVar="-1" Cut="0.0e+00" cType="1" res="0.00891060382" rms="0.0e+00" purity="0.0e+00" nType="-99" /><Node pos="r" depth="3" NCoef="0" IVar="-1" Cut="0.0e+00" cType="1" res="0.00336796953" rms="0.0e+00" purity="0.0e+00" nType="-99" /></Node><Node pos="r" depth="2" NCoef="0" IVar="9" Cut="580.902832" cType="1" res="0.0e+00" rms="0.0e+00" purity="0.0e+00" nType="0"><Node pos="l" depth="3" NCoef="0" IVar="-1" Cut="0.0e+00" cType="1" res="-0.00454824697" rms="0.0e+00" purity="0.0e+00" nType="-99" /><Node pos="r" depth="3" NCoef="0" IVar="-1" Cut="0.0e+00" cType="1" res="0.00219884119" rms="0.0e+00" purity="0.0e+00" nType="-99" /></Node></Node></Node></BinaryTree><BinaryTree type="DecisionTree" boostWeight="1.0e+00" itree="47"><Node pos="s" depth="0" NCoef="0" IVar="10" Cut="2.7448678" cType="1" res="0.0e+00" rms="0.0e+00" purity="0.0e+00" nType="0"><Node pos="l" depth="1" NCoef="0" IVar="5" Cut="0.733080983" cType="1" res="0.0e+00" rms="0.0e+00" purity="0.0e+00" nType="0"><Node pos="l" depth="2" NCoef="0" IVar="1" Cut="50.476181" cType="1" res="0.0e+00" rms="0.0e+00" purity="0.0e+00" nType="0"><Node pos="l" depth="3" NCoef="0" IVar="-1" Cut="0.0e+00" cType="1" res="0.0038805902" rms="0.0e+00" purity="0.0e+00" nType="-99" /><Node pos="r" depth="3" 