{"learner":{"attributes":{"best_iteration":"199","best_ntree_limit":"200","scikit_learn":"{\"use_label_encoder\": true, \"n_estimators\": 200, \"objective\": \"binary:logistic\", \"max_depth\": 4, \"learning_rate\": 0.1, \"verbosity\": null, \"booster\": null, \"tree_method\": null, \"gamma\": null, \"min_child_weight\": null, \"max_delta_step\": null, \"subsample\": null, \"colsample_bytree\": null, \"colsample_bylevel\": null, \"colsample_bynode\": null, \"reg_alpha\": null, \"reg_lambda\": null, \"scale_pos_weight\": null, \"base_score\": null, \"missing\": NaN, \"num_parallel_tree\": null, \"random_state\": null, \"n_jobs\": null, \"monotone_constraints\": null, \"interaction_constraints\": null, \"importance_type\": null, \"gpu_id\": null, \"validate_parameters\": null, \"predictor\": null, \"enable_categorical\": false, \"kwargs\": {\"nthread\": 16}, \"classes_\": [false, true], \"n_classes_\": 2, \"_le\": {\"classes_\": [false, true]}, \"_estimator_type\": \"classifier\"}"},"feature_names":["VHH_H2_e","VHH_V_H2_dPhi","VHH_HH_m","V_pt"],"feature_types":["float","float","float","float"],"gradient_booster":{"model":{"gbtree_model_param":{"num_trees":"200","size_leaf_vector":"0"},"tree_info":[0,0,0,0,0,0,0,0,0,0,0,0,0,0,0,0,0,0,0,0,0,0,0,0,0,0,0,0,0,0,0,0,0,0,0,0,0,0,0,0,0,0,0,0,0,0,0,0,0,0,0,0,0,0,0,0,0,0,0,0,0,0,0,0,0,0,0,0,0,0,0,0,0,0,0,0,0,0,0,0,0,0,0,0,0,0,0,0,0,0,0,0,0,0,0,0,0,0,0,0,0,0,0,0,0,0,0,0,0,0,0,0,0,0,0,0,0,0,0,0,0,0,0,0,0,0,0,0,0,0,0,0,0,0,0,0,0,0,0,0,0,0,0,0,0,0,0,0,0,0,0,0,0,0,0,0,0,0,0,0,0,0,0,0,0,0,0,0,0,0,0,0,0,0,0,0,0,0,0,0,0,0,0,0,0,0,0,0,0,0,0,0,0,0,0,0,0,0,0,0],"trees":[{"base_weights":[-1.7368002E0,-1.7769878E0,-1.3335365E0],"categories":[],"categories_nodes":[],"categories_segments":[],"categories_sizes":[],"default_left":[true,false,false],"id":0,"left_children":[1,-1,-1],"loss_changes":[5.856323E-1,0E0,0E0],"parents":[2147483647,0,0],"right_children":[2,-1,-1],"split_conditions":[4.168438E2,-1.7769878E-1,-1.3335365E-1],"split_indices":[3,0,0],"split_type":[0,0,0],"sum_hessian":[1.8135254E2,1.6181973E2,1.9532808E1],"tree_param":{"num_deleted":"0","num_feature":"4","num_nodes":"3","size_leaf_vector":"0"}},{"base_weights":[-1.576999E0,-1.6158522E0,-1.2275404E0],"categories":[],"categories_nodes":[],"categories_segments":[],"categories_sizes":[],"default_left":[true,false,false],"id":1,"left_children":[1,-1,-1],"loss_changes":[4.739685E-1,0E0,0E0],"parents":[2147483647,0,0],"right_children":[2,-1,-1],"split_conditions":[4.0270172E2,-1.6158523E-1,-1.2275404E-1],"split_indices":[3,0,0],"split_type":[0,0,0],"sum_hessian":[1.7999521E2,1.5872417E2,2.1271036E1],"tree_param":{"num_deleted":"0","num_feature":"4","num_nodes":"3","size_leaf_vector":"0"}},{"base_weights":[-1.450447E0,-1.47978E0,-1.0568968E0],"categories":[],"categories_nodes":[],"categories_segments":[],"categories_sizes":[],"default_left":[true,false,false],"id":2,"left_children":[1,-1,-1],"loss_changes":[4.8483276E-1,0E0,0E0],"parents":[2147483647,0,0],"right_children":[2,-1,-1],"split_conditions":[4.590556E2,-1.47978E-1,-1.0568968E-1],"split_indices":[3,0,0],"split_type":[0,0,0],"sum_hessian":[1.7647774E2,1.6166783E2,1.4809901E1],"tree_param":{"num_deleted":"0","num_feature":"4","num_nodes":"3","size_leaf_vector":"0"}},{"base_weights":[-1.3467759E0,-1.3884578E0,-1.0633411E0],"categories":[],"categories_nodes":[],"categories_segments":[],"categories_sizes":[],"default_left":[true,false,false],"id":3,"left_children":[1,-1,-1],"loss_changes":[5.6118774E-1,0E0,0E0],"parents":[2147483647,0,0],"right_children":[2,-1,-1],"split_conditions":[3.693095E2,-1.3884579E-1,-1.0633411E-1],"split_indices":[3,0,0],"split_type":[0,0,0],"sum_hessian":[1.7147072E2,1.460883E2,2.5382408E1],"tree_param":{"num_deleted":"0","num_feature":"4","num_nodes":"3","size_leaf_vector":"0"}},{"base_weights":[-1.2595553E0,-1.2956704E0,-9.503393E-1],"categories":[],"categories_nodes":[],"categories_segments":[],"categories_sizes":[],"default_left":[true,false,false],"id":4,"left_children":[1,-1,-1],"loss_changes":[6.278076E-1,0E0,0E0],"parents":[2147483647,0,0],"right_children":[2,-1,-1],"split_conditions":[4.0270172E2,-1.2956704E-1,-9.5033936E-2],"split_indices":[3,0,0],"split_type":[0,0,0],"sum_hessian":[1.6547894E2,1.453165E2,2.0162458E1],"tree_param":{"num_deleted":"0","num_feature":"4","num_nodes":"3","size_leaf_vector":"0"}},{"base_weights":[-1.1844093E0,-1.2283165E0,-9.219268E-1],"categories":[],"categories_nodes":[],"categories_segments":[],"categories_sizes":[],"default_left":[true,false,false],"id":5,"left_children":[1,-1,-1],"loss_changes":[7.101135E-1,0E0,0E0],"parents":[2147483647,0,0],"right_children":[2,-1,-1],"split_conditions":[3.5714667E2,-1.2283166E-1,-9.219268E-2],"split_indices":[3,0,0],"split_type":[0,0,0],"sum_hessian":[1.5887325E2,1.3295354E2,2.5919714E1],"tree_param":{"num_deleted":"0","num_feature":"4","num_nodes":"3","size_leaf_vector":"0"}},{"base_weights":[-1.1183088E0,-1.1502135E0,-7.7617496E-1],"categories":[],"categories_nodes":[],"categories_segments":[],"categories_sizes":[],"default_left":[true,false,false],"id":6,"left_children":[1,-1,-1],"loss_changes":[7.767639E-1,0E0,0E0],"parents":[2147483647,0,0],"right_children":[2,-1,-1],"split_conditions":[4.4102783E2,-1.1502135E-1,-7.7617496E-2],"split_indices":[3,0,0],"split_type":[0,0,0],"sum_hessian":[1.5194756E2,1.3682631E2,1.5121242E1],"tree_param":{"num_deleted":"0","num_feature":"4","num_nodes":"3","size_leaf_vector":"0"}},{"base_weights":[-1.0590907E0,-1.1058445E0,-7.995703E-1],"categories":[],"categories_nodes":[],"categories_segments":[],"categories_sizes":[],"default_left":[true,false,false],"id":7,"left_children":[1,-1,-1],"loss_changes":[8.861389E-1,0E0,0E0],"parents":[2147483647,0,0],"right_children":[2,-1,-1],"split_conditions":[3.5348166E2,-1.1058445E-1,-7.995703E-2],"split_indices":[3,0,0],"split_type":[0,0,0],"sum_hessian":[1.449034E2,1.2002013E2,2.4883265E1],"tree_param":{"num_deleted":"0","num_feature":"4","num_nodes":"3","size_leaf_vector":"0"}},{"base_weights":[-1.0052458E0,-1.0865096E0,-8.3713907E-1,-9.2367584E-1,-5.9528667E-1],"categories":[],"categories_nodes":[],"categories_segments":[],"categories_sizes":[],"default_left":[true,false,true,false,false],"id":8,"left_children":[1,-1,3,-1,-1],"loss_changes":[9.8805237E-1,0E0,4.8871994E-1,0E0,0E0],"parents":[2147483647,0,0,2,2],"right_children":[2,-1,4,-1,-1],"split_conditions":[5.0466312E2,-1.0865096E-1,3.379871E2,-9.236758E-2,-5.9528667E-2],"split_indices":[2,0,3,0,0],"split_type":[0,0,0,0,0],"sum_hessian":[1.3790694E2,8.928355E1,4.8623386E1,3.3733932E1,1.4889454E1],"tree_param":{"num_deleted":"0","num_feature":"4","num_nodes":"5","size_leaf_vector":"0"}},{"base_weights":[-9.5583284E-1,-1.0083027E0,-7.042991E-1,-8.435653E-1,-5.5148244E-1],"categories":[],"categories_nodes":[],"categories_segments":[],"categories_sizes":[],"default_left":[true,false,true,false,false],"id":9,"left_children":[1,-1,3,-1,-1],"loss_changes":[1.0334778E0,0E0,9.065914E-2,0E0,0E0],"parents":[2147483647,0,0,2,2],"right_children":[2,-1,4,-1,-1],"split_conditions":[3.404685E2,-1.0083027E-1,5.046682E2,-8.435653E-2,-5.5148244E-2],"split_indices":[3,0,2,0,0],"split_type":[0,0,0,0,0],"sum_hessian":[1.3111343E2,1.059944E2,2.5119034E1,1.0777275E1,1.4341759E1],"tree_param":{"num_deleted":"0","num_feature":"4","num_nodes":"5","size_leaf_vector":"0"}},{"base_weights":[-9.097901E-1,-9.9828315E-1,-7.446398E-1,-8.380141E-1,-5.341239E-1],"categories":[],"categories_nodes":[],"categories_segments":[],"categories_sizes":[],"default_left":[true,false,true,false,false],"id":10,"left_children":[1,-1,3,-1,-1],"loss_changes":[1.0912933E0,0E0,4.906807E-1,0E0,0E0],"parents":[2147483647,0,0,2,2],"right_children":[2,-1,4,-1,-1],"split_conditions":[4.9144403E2,-9.982832E-2,3.1222437E2,-8.380141E-2,-5.341239E-2],"split_indices":[2,0,3,0,0],"split_type":[0,0,0,0,0],"sum_hessian":[1.2453497E2,7.7801605E1,4.673337E1,3.030903E1,1.6424343E1],"tree_param":{"num_deleted":"0","num_feature":"4","num_nodes":"5","size_leaf_vector":"0"}},{"base_weights":[-8.6631906E-1,-9.1336524E-1,-5.7159275E-1,-9.6569705E-1,-7.604955E-1,-6.6585577E-1,-4.0737972E-1],"categories":[],"categories_nodes":[],"categories_segments":[],"categories_sizes":[],"default_left":[true,true,true,false,false,false,false],"id":11,"left_children":[1,3,5,-1,-1,-1,-1],"loss_changes":[1.1315765E0,7.496643E-2,2.4229527E-2,0E0,0E0,0E0,0E0],"parents":[2147483647,0,0,1,1,2,2],"right_children":[2,4,6,-1,-1,-1,-1],"split_conditions":[3.8553632E2,5.227101E2,5.982426E2,-9.656971E-2,-7.604955E-2,-6.658558E-2,-4.073797E-2],"split_indices":[3,2,2,0,0,0,0],"split_type":[0,0,0,0,0,0,0],"sum_hessian":[1.1826128E2,1.001721E2,1.8089178E1,7.066447E1,2.9507631E1,9.551507E0,8.537671E0],"tree_param":{"num_deleted":"0","num_feature":"4","num_nodes":"7","size_leaf_vector":"0"}},{"base_weights":[-8.2532555E-1,-8.848923E-1,-5.8046156E-1,-7.415215E-1,-4.576522E-1,-4.7196206E-1,-1.5059416E-1],"categories":[],"categories_nodes":[],"categories_segments":[],"categories_sizes":[],"default_left":[true,false,true,false,true,false,false],"id":12,"left_children":[1,-1,3,-1,5,-1,-1],"loss_changes":[1.1392975E0,0E0,1.5672779E-1,0E0,2.929449E-3,0E0,0E0],"parents":[2147483647,0,0,2,2,4,4],"right_children":[2,-1,4,-1,6,-1,-1],"split_conditions":[3.3035052E2,-8.848923E-2,4.5435516E2,-7.415215E-2,8.0840295E2,-4.7196206E-2,-1.5059416E-2],"split_indices":[3,0,2,0,3,0,0],"split_type":[0,0,0,0,0,0,0],"sum_hessian":[1.123255E2,8.824484E1,2.4080658E1,8.23836E0,1.5842297E1,1.4623741E1,1.2185557E0],"tree_param":{"num_deleted":"0","num_feature":"4","num_nodes":"7","size_leaf_vector":"0"}},{"base_weights":[-7.858563E-1,-8.8325685E-1,-6.194328E-1,-7.124692E-1,-4.252404E-1,-4.5387748E-1,-2.0223807E-1],"categories":[],"categories_nodes":[],"categories_segments":[],"categories_sizes":[],"default_left":[true,false,true,false,true,false,false],"id":13,"left_children":[1,-1,3,-1,5,-1,-1],"loss_changes":[1.1987686E0,0E0,4.7592354E-1,0E0,1.3227463E-2,0E0,0E0],"parents":[2147483647,0,0,2,2,4,4],"right_children":[2,-1,4,-1,6,-1,-1],"split_conditions":[4.8489758E2,-8.832569E-2,3.1222437E2,-7.124692E-2,6.5549585E2,-4.538775E-2,-2.0223808E-2],"split_indices":[2,0,3,0,3,0,0],"split_type":[0,0,0,0,0,0,0],"sum_hessian":[1.0670588E2,6.4594315E1,4.2111565E1,2.6666786E1,1.54447775E1,1.2769645E1,2.6751325E0],"tree_param":{"num_deleted":"0","num_feature":"4","num_nodes":"7","size_leaf_vector":"0"}},{"base_weights":[-7.4786484E-1,-8.598794E-1,-5.991542E-1,-6.929427E-1,-4.0584838E-1,-4.406039E-1,-2.1621452E-1],"categories":[],"categories_nodes":[],"categories_segments":[],"categories_sizes":[],"default_left":[true,false,true,false,true,false,false],"id":14,"left_children":[1,-1,3,-1,5,-1,-1],"loss_changes":[1.191349E0,0E0,5.765362E-1,0E0,2.2511244E-2,0E0,0E0],"parents":[2147483647,0,0,2,2,4,4],"right_children":[2,-1,4,-1,6,-1,-1],"split_conditions":[4.4585626E2,-8.598794E-2,3.099876E2,-6.929427E-2,6.037706E2,-4.406039E-2,-2.1621453E-2],"split_indices":[2,0,3,0,3,0,0],"split_type":[0,0,0,0,0,0,0],"sum_hessian":[1.0144792E2,5.5135517E1,4.63124E1,2.9442652E1,1.6869747E1,1.3138346E1,3.7314017E0],"tree_param":{"num_deleted":"0","num_feature":"4","num_nodes":"7","size_leaf_vector":"0"}},{"base_weights":[-7.1118706E-1,-8.210156E-1,-5.594681E-1,-8.275833E-1,-2.3507442E-1,-6.527917E-1,-3.7362015E-1,-4.0528476E-1,-1.985916E-1],"categories":[],"categories_nodes":[],"categories_segments":[],"categories_sizes":[],"default_left":[true,true,true,false,false,false,true,false,false],"id":15,"left_children":[1,3,5,-1,-1,-1,7,-1,-1],"loss_changes":[1.1659698E0,1.4965057E-2,5.209322E-1,0E0,0E0,0E0,1.4172792E-2,0E0,0E0],"parents":[2147483647,0,0,1,1,2,2,6,6],"right_children":[2,4,6,-1,-1,-1,8,-1,-1],"split_conditions":[4.559217E2,5.62525E2,3.100998E2,-8.275833E-2,-2.3507442E-2,-6.527917E-2,6.066399E2,-4.0528476E-2,-1.9859161E-2],"split_indices":[2,3,3,0,0,0,3,0,0],"split_type":[0,0,0,0,0,0,0,0,0],"sum_hessian":[9.65393E1,5.3441715E1,4.3097584E1,5.244151E1,1.0002068E0,2.7017988E1,1.6079597E1,1.2502262E1,3.577335E0],"tree_param":{"num_deleted":"0","num_feature":"4","num_nodes":"9","size_leaf_vector":"0"}},{"base_weights":[-6.757688E-1,-7.906079E-1,-5.297592E-1,-6.2161684E-1,-3.498629E-1,-3.8020033E-1,-1.8666026E-1],"categories":[],"categories_nodes":[],"categories_segments":[],"categories_sizes":[],"default_left":[true,false,true,false,true,false,false],"id":16,"left_children":[1,-1,3,-1,5,-1,-1],"loss_changes":[1.1402664E0,0E0,5.090618E-1,0E0,1.3938427E-2,0E0,0E0],"parents":[2147483647,0,0,2,2,4,4],"right_children":[2,-1,4,-1,6,-1,-1],"split_conditions":[4.4585626E2,-7.906079E-2,3.099876E2,-6.2161684E-2,6.037706E2,-3.8020033E-2,-1.8666027E-2],"split_indices":[2,0,3,0,3,0,0],"split_type":[0,0,0,0,0,0,0],"sum_hessian":[9.1982635E1,4.901596E1,4.2966675E1,2.681774E1,1.6148935E1,1.24963875E1,3.6525486E0],"tree_param":{"num_deleted":"0","num_feature":"4","num_nodes":"7","size_leaf_vector":"0"}},{"base_weights":[-6.411738E-1,-7.114849E-1,-4.1395018E-1,-7.498691E-1,-4.869895E-1,-6.09954E-1,-3.2621473E-1,-3.6160845E-1,-1.8720299E-1,-2.0706347E-1,-4.624728E-2],"categories":[],"categories_nodes":[],"categories_segments":[],"categories_sizes":[],"default_left":[true,true,true,false,false,false,true,false,true,false,false],"id":17,"left_children":[1,3,5,-1,-1,-1,7,-1,9,-1,-1],"loss_changes":[1.1232986E0,2.0684052E-1,2.0278025E-1,0E0,0E0,0E0,2.2287369E-2,0E0,6.618157E-3,0E0,0E0],"parents":[2147483647,0,0,1,1,2,2,6,6,8,8],"right_children":[2,4,6,-1,-1,-1,8,-1,10,-1,-1],"split_conditions":[3.149319E2,6.512389E2,3.9263327E2,-7.498691E-2,-4.869895E-2,-6.09954E-2,5.661001E2,-3.6160845E-2,6.3554785E2,-2.0706346E-2,-4.624728E-3],"split_indices":[3,2,2,0,0,0,3,0,0,0,0],"split_type":[0,0,0,0,0,0,0,0,0,0,0],"sum_hessian":[8.774462E1,6.53819E1,2.236272E1,5.383667E1,1.1545229E1,5.074324E0,1.7288397E1,1.2503585E1,4.784812E0,3.782821E0,1.0019912E0],"tree_param":{"num_deleted":"0","num_feature":"4","num_nodes":"11","size_leaf_vector":"0"}},{"base_weights":[-6.0793257E-1,-7.330992E-1,-4.7057542E-1,-5.727395E-1,-3.1398225E-1,-3.451347E-1,-1.7409785E-1,-1.9288638E-1,-4.4523623E-2],"categories":[],"categories_nodes":[],"categories_segments":[],"categories_sizes":[],"default_left":[true,false,true,false,true,false,true,false,false],"id":18,"left_children":[1,-1,3,-1,5,-1,7,-1,-1],"loss_changes":[1.1139946E0,0E0,5.1213455E-1,0E0,2.3976684E-2,0E0,4.8784465E-3,0E0,0E0],"parents":[2147483647,0,0,2,2,4,4,6,6],"right_children":[2,-1,4,-1,6,-1,8,-1,-1],"split_conditions":[4.288546E2,-7.330992E-2,2.783448E2,-5.727395E-2,5.661001E2,-3.451347E-2,6.3279407E2,-1.9288639E-2,-4.452362E-3],"split_indices":[2,0,3,0,3,0,0,0,0],"split_type":[0,0,0,0,0,0,0,0,0],"sum_hessian":[8.386087E1,4.1608215E1,4.225265E1,2.396196E1,1.8290691E1,1.3759211E1,4.5314817E0,3.5308795E0,1.000602E0],"tree_param":{"num_deleted":"0","num_feature":"4","num_nodes":"9","size_leaf_vector":"0"}},{"base_weights":[-5.752429E-1,-7.0073175E-1,-4.4070834E-1,-7.0862263E-1,-2.066531E-1,-5.4061353E-1,-2.9110062E-1,-3.1993958E-1,-1.6220054E-1,-1.7925987E-1,-4.2953115E-2],"categories":[],"categories_nodes":[],"categories_segments":[],"categories_sizes":[],"default_left":[true,true,true,false,false,false,true,false,true,false,false],"id":19,"left_children":[1,3,5,-1,-1,-1,7,-1,9,-1,-1],"loss_changes":[1.0628662E0,1.0845184E-2,4.6897602E-1,0E0,0E0,0E0,1.8533826E-2,0E0,3.4727007E-3,0E0,0E0],"parents":[2147483647,0,0,1,1,2,2,6,6,8,8],"right_children":[2,4,6,-1,-1,-1,8,-1,10,-1,-1],"split_conditions":[4.288546E2,5.2044556E2,2.783448E2,-7.086226E-2,-2.066531E-2,-5.4061353E-2,5.661001E2,-3.199396E-2,6.315829E2,-1.7925987E-2,-4.2953114E-3],"split_indices":[2,3,3,0,0,0,3,0,0,0,0],"split_type":[0,0,0,0,0,0,0,0,0,0,0],"sum_hessian":[8.024839E1,3.9342545E1,4.0905846E1,3.829668E1,1.0458621E0,2.2960035E1,1.7945808E1,1.3453715E1,4.492093E0,3.489615E0,1.002478E0],"tree_param":{"num_deleted":"0","num_feature":"4","num_nodes":"11","size_leaf_vector":"0"}},{"base_weights":[-5.4363364E-1,-6.7394453E-1,-4.1593286E-1,-5.16728E-1,-2.7292755E-1,-5.326501E-1,-2.0638563E-1,-3.1640476E-1,-1.7932779E-1,-1.9527467E-1,-5.5208374E-2],"categories":[],"categories_nodes":[],"categories_segments":[],"categories_sizes":[],"default_left":[true,false,true,true,true,false,false,false,true,false,false],"id":20,"left_children":[1,-1,3,5,7,-1,-1,-1,9,-1,-1],"loss_changes":[1.016552E0,0E0,4.6397734E-1,6.1912537E-3,2.2501945E-2,0E0,0E0,0E0,6.0124695E-3,0E0,0E0],"parents":[2147483647,0,0,2,2,3,3,4,4,8,8],"right_children":[2,-1,4,6,8,-1,-1,-1,10,-1,-1],"split_conditions":[4.1860583E2,-6.739446E-2,2.7223865E2,1.0669119E3,4.6940674E2,-5.3265013E-2,-2.0638563E-2,-3.1640477E-2,6.486615E2,-1.9527467E-2,-5.5208374E-3],"split_indices":[2,0,3,2,3,0,0,0,0,0,0],"split_type":[0,0,0,0,0,0,0,0,0,0,0],"sum_hessian":[7.693314E1,3.5960308E1,4.097283E1,2.250041E1,1.8472422E1,2.072099E1,1.7794203E0,1.0988057E1,7.484365E0,6.124241E0,1.3601245E0],"tree_param":{"num_deleted":"0","num_feature":"4","num_nodes":"11","size_leaf_vector":"0"}},{"base_weights":[-5.129813E-1,-6.580753E-1,-3.9938223E-1,-4.9794677E-1,-2.5082967E-1,-5.187663E-1,-2.3471475E-1,-2.8368703E-1,-1.4797944E-1,-1.6220094E-1,-3.9747726E-2],"categories":[],"categories_nodes":[],"categories_segments":[],"categories_sizes":[],"default_left":[true,false,true,true,true,false,false,false,true,false,false],"id":21,"left_children":[1,-1,3,5,7,-1,-1,-1,9,-1,-1],"loss_changes":[9.716034E-1,0E0,5.273924E-1,1.9442081E-2,2.4877548E-2,0E0,0E0,0E0,4.143432E-3,0E0,0E0],"parents":[2147483647,0,0,2,2,3,3,4,4,8,8],"right_children":[2,-1,4,6,8,-1,-1,-1,10,-1,-1],"split_conditions":[3.8905533E2,-6.580753E-2,2.783448E2,9.560217E2,5.217308E2,-5.187663E-2,-2.3471475E-2,-2.8368702E-2,6.486615E2,-1.6220095E-2,-3.9747725E-3],"split_indices":[2,0,3,2,3,0,0,0,0,0,0],"split_type":[0,0,0,0,0,0,0,0,0,0,0],"sum_hessian":[7.389304E1,3.0343697E1,4.3549347E1,2.4765482E1,1.8783865E1,2.2050692E1,2.7147899E0,1.2903387E1,5.880478E0,4.7567964E0,1.1236815E0],"tree_param":{"num_deleted":"0","num_feature":"4","num_nodes":"11","size_leaf_vector":"0"}},{"base_weights":[-4.832764E-1,-5.736833E-1,-3.147636E-1,-5.9861416E-1,-2.673057E-1,-3.7130362E-1,-1.6337694E-1,-1.7260733E-1,-5.2606307E-2],"categories":[],"categories_nodes":[],"categories_segments":[],"categories_sizes":[],"default_left":[true,true,true,false,false,false,true,false,false],"id":22,"left_children":[1,3,5,-1,-1,-1,7,-1,-1],"loss_changes":[9.178982E-1,1.8914127E-1,1.7379642E-1,0E0,0E0,0E0,3.6136806E-4,0E0,0E0],"parents":[2147483647,0,0,1,1,2,2,6,6],"right_children":[2,4,6,-1,-1,-1,8,-1,-1],"split_conditions":[5.347638E2,4.166358E2,3.918175E2,-5.9861418E-2,-2.6730571E-2,-3.7130363E-2,7.3757947E2,-1.7260734E-2,-5.260631E-3],"split_indices":[2,3,3,0,0,0,0,0,0],"split_type":[0,0,0,0,0,0,0,0,0],"sum_hessian":[7.110323E1,4.4711285E1,2.639195E1,4.046471E1,4.246575E0,1.815771E1,8.234241E0,7.0855675E0,1.1486733E0],"tree_param":{"num_deleted":"0","num_feature":"4","num_nodes":"9","size_leaf_vector":"0"}},{"base_weights":[-4.5419103E-1,-5.9942776E-1,-3.4519005E-1,-3.5790542E-1,-6.3458383E-1,-4.415805E-1,-2.093587E-1,-4.6345416E-1,-2.0757833E-1,-3.1597322E-1,-1.7069311E-1,-1.9982225E-1,-8.892058E-2],"categories":[],"categories_nodes":[],"categories_segments":[],"categories_sizes":[],"default_left":[true,true,true,false,false,true,true,false,false,false,true,false,false],"id":23,"left_children":[1,3,5,-1,-1,7,9,-1,-1,-1,11,-1,-1],"loss_changes":[8.936863E-1,1.4439583E-2,4.584098E-1,0E0,0E0,2.5146008E-2,2.5895298E-2,0E0,0E0,0E0,2.1263093E-2,0E0,0E0],"parents":[2147483647,0,0,1,1,2,2,5,5,6,6,10,10],"right_children":[2,4,6,-1,-1,8,10,-1,-1,-1,12,-1,-1],"split_conditions":[3.8905533E2,6.3879562E1,2.7474097E2,-3.5790544E-2,-6.345838E-2,9.271218E2,1.1971666E0,-4.6345416E-2,-2.0757833E-2,-3.1597324E-2,7.4377356E2,-1.9982224E-2,-8.892058E-3],"split_indices":[2,3,3,0,0,2,1,0,0,0,2,0,0],"split_type":[0,0,0,0,0,0,0,0,0,0,0,0,0],"sum_hessian":[6.852223E1,2.744897E1,4.107326E1,4.9084377E0,2.2540531E1,2.2707975E1,1.8365288E1,1.9870043E1,2.8379328E0,2.9790525E0,1.5386234E1,1.0280475E1,5.1057596E0],"tree_param":{"num_deleted":"0","num_feature":"4","num_nodes":"13","size_leaf_vector":"0"}},{"base_weights":[-4.269725E-1,-5.70239E-1,-3.2185724E-1,-3.368235E-1,-6.048663E-1,-4.1801816E-1,-1.9812538E-1,-4.375616E-1,-1.825044E-1,-3.0389112E-1,-1.6022305E-1,-1.8735291E-1,-8.349877E-2],"categories":[],"categories_nodes":[],"categories_segments":[],"categories_sizes":[],"default_left":[true,true,true,false,false,true,true,false,false,false,true,false,false],"id":24,"left_children":[1,3,5,-1,-1,7,9,-1,-1,-1,11,-1,-1],"loss_changes":[8.2888985E-1,1.5750885E-2,4.058752E-1,0E0,0E0,2.2372484E-2,3.0934334E-2,0E0,0E0,0E0,1.9196153E-2,0E0,0E0],"parents":[2147483647,0,0,1,1,2,2,5,5,6,6,10,10],"right_children":[2,4,6,-1,-1,8,10,-1,-1,-1,12,-1,-1],"split_conditions":[3.890349E2,6.3879562E1,2.6480078E2,-3.368235E-2,-6.0486633E-2,9.560217E2,1.1967849E0,-4.375616E-2,-1.8250441E-2,-3.0389113E-2,7.450176E2,-1.8735291E-2,-8.349877E-3],"split_indices":[2,3,3,0,0,2,1,0,0,0,2,0,0],"split_type":[0,0,0,0,0,0,0,0,0,0,0,0,0],"sum_hessian":[6.622841E1,2.6155277E1,4.0073128E1,4.7646813E0,2.1390596E1,2.12105E1,1.8862627E1,1.8793106E1,2.4173956E0,3.1249022E0,1.5737724E1,1.0561321E1,5.1764026E0],"tree_param":{"num_deleted":"0","num_feature":"4","num_nodes":"13","size_leaf_vector":"0"}},{"base_weights":[-4.0074354E-1,-5.49928E-1,-3.0413526E-1,-3.437096E-1,-5.9276026E-1,-3.928625E-1,-1.7999972E-1,-4.1855875E-1,-2.0307456E-1,-2.1723212E-1,-1.07695505E-1,-1.18985265E-1,-2.7103474E-2],"categories":[],"categories_nodes":[],"categories_segments":[],"categories_sizes":[],"default_left":[true,true,true,false,false,true,true,false,false,false,true,false,false],"id":25,"left_children":[1,3,5,-1,-1,7,9,-1,-1,-1,11,-1,-1],"loss_changes":[7.713852E-1,1.1435032E-2,3.8930702E-1,0E0,0E0,2.9662132E-2,2.8440654E-2,0E0,0E0,0E0,4.53452E-3,0E0,0E0],"parents":[2147483647,0,0,1,1,2,2,5,5,6,6,10,10],"right_children":[2,4,6,-1,-1,8,10,-1,-1,-1,12,-1,-1],"split_conditions":[3.7479654E2,7.571103E1,2.762009E2,-3.437096E-2,-5.9276026E-2,8.4728613E2,4.6940674E2,-4.1855875E-2,-2.0307457E-2,-2.1723213E-2,6.486615E2,-1.1898527E-2,-2.7103475E-3],"split_indices":[2,3,3,0,0,2,3,0,0,0,0,0,0],"split_type":[0,0,0,0,0,0,0,0,0,0,0,0,0],"sum_hessian":[6.412691E1,2.3360622E1,4.076629E1,5.5696707E0,1.779095E1,2.2511301E1,1.8254988E1,1.8765196E1,3.7461061E0,1.0726866E1,7.5281205E0,6.1852655E0,1.3428552E0],"tree_param":{"num_deleted":"0","num_feature":"4","num_nodes":"13","size_leaf_vector":"0"}},{"base_weights":[-3.7545082E-1,-5.277574E-1,-2.8560674E-1,-2.4459861E-1,-5.5279136E-1,-3.7132287E-1,-1.6437206E-1,-4.0183964E-1,-2.0789866E-1,-2.66485E-1,-1.3063544E-1,-1.5400961E-1,-6.3917585E-2],"categories":[],"categories_nodes":[],"categories_segments":[],"categories_sizes":[],"default_left":[true,true,true,false,false,true,true,false,false,false,true,false,false],"id":26,"left_children":[1,3,5,-1,-1,7,9,-1,-1,-1,11,-1,-1],"loss_changes":[7.139969E-1,2.2628307E-2,3.7465525E-1,0E0,0E0,3.4987688E-2,3.1191409E-2,0E0,0E0,0E0,1.5674025E-2,0E0,0E0],"parents":[2147483647,0,0,1,1,2,2,5,5,6,6,10,10],"right_children":[2,4,6,-1,-1,8,10,-1,-1,-1,12,-1,-1],"split_conditions":[3.6548804E2,4.773085E1,2.783448E2,-2.4459861E-2,-5.5279136E-2,7.760808E2,1.1971666E0,-4.0183965E-2,-2.0789867E-2,-2.6648501E-2,7.4377356E2,-1.5400961E-2,-6.3917586E-3],"split_indices":[2,3,3,0,0,2,1,0,0,0,2,0,0],"split_type":[0,0,0,0,0,0,0,0,0,0,0,0,0],"sum_hessian":[6.2193382E1,2.1266901E1,4.0926483E1,2.6023548E0,1.8664545E1,2.2766865E1,1.8159618E1,1.7955162E1,4.8117027E0,2.7964444E0,1.53631735E1,1.0408316E1,4.954858E0],"tree_param":{"num_deleted":"0","num_feature":"4","num_nodes":"13","size_leaf_vector":"0"}},{"base_weights":[-3.513033E-1,-5.000937E-1,-2.6538634E-1,-3.261967E-1,-5.5963784E-1,-3.3759528E-1,-1.3838188E-1,-3.810468E-1,-2.1637364E-1,-2.0819621E-1,-1.024176E-1,-1.1090168E-1,-6.9683953E-3],"categories":[],"categories_nodes":[],"categories_segments":[],"categories_sizes":[],"default_left":[true,true,true,false,false,true,true,false,false,false,true,false,false],"id":27,"left_children":[1,3,5,-1,-1,7,9,-1,-1,-1,11,-1,-1],"loss_changes":[6.526089E-1,3.859186E-2,3.2997656E-1,0E0,0E0,5.1824093E-2,2.0314336E-2,0E0,0E0,0E0,9.68425E-3,0E0,0E0],"parents":[2147483647,0,0,1,1,2,2,5,5,6,6,10,10],"right_children":[2,4,6,-1,-1,8,10,-1,-1,-1,12,-1,-1],"split_conditions":[3.6548804E2,9.908948E1,3.1326447E2,-3.261967E-2,-5.5963784E-2,6.643058E2,1.5204973E0,-3.810468E-2,-2.1637363E-2,-2.0819621E-2,7.537588E2,-1.1090169E-2,-6.9683953E-4],"split_indices":[2,3,3,0,0,2,1,0,0,0,0,0,0],"split_type":[0,0,0,0,0,0,0,0,0,0,0,0,0],"sum_hessian":[6.043225E1,2.0357174E1,4.007508E1,6.8449454E0,1.3512228E1,2.4491941E1,1.55831375E1,1.6451548E1,8.040393E0,3.6699698E0,1.1913168E1,1.0792018E1,1.1211494E0],"tree_param":{"num_deleted":"0","num_feature":"4","num_nodes":"13","size_leaf_vector":"0"}},{"base_weights":[-3.28245E-1,-4.7605008E-1,-2.4731816E-1,-3.0842277E-1,-5.3792083E-1,-3.3077887E-1,-1.429263E-1,-3.588542E-1,-1.791023E-1,-2.638652E-1,-1.121427E-1,-1.352157E-1,-5.055601E-2],"categories":[],"categories_nodes":[],"categories_segments":[],"categories_sizes":[],"default_left":[true,true,true,false,false,true,true,false,false,false,true,false,false],"id":28,"left_children":[1,3,5,-1,-1,7,9,-1,-1,-1,11,-1,-1],"loss_changes":[5.9785986E-1,4.2402744E-2,3.076756E-1,0E0,0E0,2.889657E-2,4.435128E-2,0E0,0E0,0E0,1.8131644E-2,0E0,0E0],"parents":[2147483647,0,0,1,1,2,2,5,5,6,6,10,10],"right_children":[2,4,6,-1,-1,8,10,-1,-1,-1,12,-1,-1],"split_conditions":[3.611123E2,1.02632164E2,2.647895E2,-3.0842278E-2,-5.3792085E-2,7.760808E2,1.0447705E0,-3.588542E-2,-1.791023E-2,-2.638652E-2,7.452069E2,-1.352157E-2,-5.0556012E-3],"split_indices":[2,3,3,0,0,2,1,0,0,0,2,0,0],"split_type":[0,0,0,0,0,0,0,0,0,0,0,0,0],"sum_hessian":[5.8825397E1,1.908536E1,3.9740036E1,6.7587466E0,1.2326612E1,2.087887E1,1.8861166E1,1.6465239E1,4.4136324E0,2.290584E0,1.6570583E1,1.1184759E1,5.3858232E0],"tree_param":{"num_deleted":"0","num_feature":"4","num_nodes":"13","size_leaf_vector":"0"}},{"base_weights":[-3.0643243E-1,-4.5004815E-1,-2.2933641E-1,-2.8847268E-1,-5.1075584E-1,-3.0837622E-1,-1.3209055E-1,-3.3988094E-1,-1.7865953E-1,-2.4897608E-1,-1.02765694E-1,-9.503552E-2,-3.5012454E-1,-1.9450022E-1,-5.107408E-2,-1.376717E-1,-6.1071977E-2],"categories":[],"categories_nodes":[],"categories_segments":[],"categories_sizes":[],"default_left":[true,true,true,false,false,true,true,true,true,false,true,false,false,false,false,false,false],"id":29,"left_children":[1,3,5,-1,-1,7,9,11,13,-1,15,-1,-1,-1,-1,-1,-1],"loss_changes":[5.4304314E-1,4.245305E-2,2.668593E-1,0E0,0E0,2.6431084E-2,4.1911185E-2,6.982565E-3,2.7493387E-3,0E0,1.6981363E-2,0E0,0E0,0E0,0E0,0E0,0E0],"parents":[2147483647,0,0,1,1,2,2,5,5,6,6,7,7,8,8,10,10],"right_children":[2,4,6,-1,-1,8,10,12,14,-1,16,-1,-1,-1,-1,-1,-1],"split_conditions":[3.611123E2,1.02632164E2,2.647895E2,-2.8847268E-2,-5.1075585E-2,7.2212415E2,1.0446608E0,3.571356E1,2.2102167E2,-2.4897609E-2,5.982686E2,-9.503553E-3,-3.5012454E-2,-1.9450022E-2,-5.107408E-3,-1.376717E-2,-6.1071976E-3],"split_indices":[2,3,3,0,0,2,1,3,3,0,2,0,0,0,0,0,0],"split_type":[0,0,0,0,0,0,0,0,0,0,0,0,0,0,0,0,0],"sum_hessian":[5.7367397E1,1.8349028E1,3.901837E1,6.5821786E0,1.1766849E1,2.0326351E1,1.869202E1,1.5050747E1,5.275605E0,2.246691E0,1.6445328E1,1.0171074E0,1.403364E1,4.2263956E0,1.0492094E0,7.6983166E0,8.747011E0],"tree_param":{"num_deleted":"0","num_feature":"4","num_nodes":"17","size_leaf_vector":"0"}},{"base_weights":[-2.8597677E-1,-4.247563E-1,-2.1289195E-1,-2.3675035E-1,-4.687729E-1,-2.9457393E-1,-1.286614E-1,-3.3012304E-1,-1.8221992E-1,-2.4690057E-1,-9.895993E-2,-1.5146501E-1,-3.5523915E-1,-1.2584543E-1,-4.5197275E-2],"categories":[],"categories_nodes":[],"categories_segments":[],"categories_sizes":[],"default_left":[true,true,true,false,false,true,true,true,false,false,true,false,false,false,false],"id":30,"left_children":[1,3,5,-1,-1,7,9,11,-1,-1,13,-1,-1,-1,-1],"loss_changes":[4.8822784E-1,4.3566227E-2,2.3301029E-1,0E0,0E0,1.6590714E-2,4.9881488E-2,6.1627626E-3,0E0,0E0,2.1170482E-2,0E0,0E0,0E0,0E0],"parents":[2147483647,0,0,1,1,2,2,5,5,6,6,7,7,10,10],"right_children":[2,4,6,-1,-1,8,10,12,-1,-1,14,-1,-1,-1,-1],"split_conditions":[3.611123E2,7.571103E1,2.4310501E2,-2.3675036E-2,-4.687729E-2,6.634491E2,1.0447791E0,6.407143E1,-1.8221993E-2,-2.4690058E-2,4.7078094E2,-1.5146501E-2,-3.5523918E-2,-1.2584544E-2,-4.5197275E-3],"split_indices":[2,3,3,0,0,2,1,3,0,0,3,0,0,0,0],"split_type":[0,0,0,0,0,0,0,0,0,0,0,0,0,0,0],"sum_hessian":[5.605151E1,1.7675661E1,3.8375847E1,4.563305E0,1.3112356E1,1.8214872E1,2.0160976E1,1.236448E1,5.850393E0,2.57949E0,1.7581486E1,2.3905325E0,9.973948E0,1.082659E1,6.7548957E0],"tree_param":{"num_deleted":"0","num_feature":"4","num_nodes":"15","size_leaf_vector":"0"}},{"base_weights":[-2.665549E-1,-3.4843567E-1,-1.5787733E-1,-3.8016608E-1,-1.2805994E-1,-2.299796E-1,-1.038182E-1,-2.0523158E-1,-4.1696E-1,-2.3425822E-1,-4.898942E-2,-2.4223606E-1,-6.262713E-2,-2.023941E-1,-7.285561E-2,1.3245967E-2,-1.03369474E-1,-9.34362E-2,-2.5705565E-2],"categories":[],"categories_nodes":[],"categories_segments":[],"categories_sizes":[],"default_left":[true,true,true,true,true,true,true,false,false,false,true,false,false,false,true,false,false,false,false],"id":31,"left_children":[1,3,5,7,9,11,13,-1,-1,-1,15,-1,-1,-1,17,-1,-1,-1,-1],"loss_changes":[4.4194913E-1,1.6823792E-1,7.678527E-2,8.569741E-2,3.3972405E-2,5.839348E-3,3.586623E-2,0E0,0E0,0E0,1.6148284E-2,0E0,0E0,0E0,1.1359215E-2,0E0,0E0,0E0,0E0],"parents":[2147483647,0,0,1,1,2,2,3,3,4,4,5,5,6,6,10,10,14,14],"right_children":[2,4,6,8,10,12,14,-1,-1,-1,16,-1,-1,-1,18,-1,-1,-1,-1],"split_conditions":[5.0466312E2,3.5899805E2,2.2102039E2,6.849646E1,3.304876E2,1.084379E3,1.0447791E0,-2.0523159E-2,-4.1696E-2,-2.3425823E-2,4.4328088E2,-2.4223607E-2,-6.262713E-3,-2.023941E-2,8.130499E2,1.3245967E-3,-1.0336948E-2,-9.343619E-3,-2.5705565E-3],"split_indices":[2,3,3,3,2,2,1,0,0,0,2,0,0,0,2,0,0,0,0],"split_type":[0,0,0,0,0,0,0,0,0,0,0,0,0,0,0,0,0,0,0],"sum_hessian":[5.484685E1,3.002159E1,2.482526E1,2.560921E1,4.412379E0,9.243011E0,1.5582249E1,5.5934334E0,2.0015776E1,1.0455154E0,3.3668635E0,8.195346E0,1.0476657E0,2.4011037E0,1.3181145E1,1.9227669E0,1.4440966E0,8.492543E0,4.688602E0],"tree_param":{"num_deleted":"0","num_feature":"4","num_nodes":"19","size_leaf_vector":"0"}},{"base_weights":[-2.4799697E-1,-3.8452932E-1,-1.8392865E-1,-2.3974311E-1,-4.5796937E-1,-2.5352195E-1,-1.00689836E-1,-2.8869796E-1,-1.5397508E-1,-1.9701965E-1,-7.2705105E-2,-7.6006524E-2,-2.992104E-1,-1.6571388E-1,-5.0380953E-2,-2.2655897E-1,-6.2455293E-2,-1.0277138E-1,-4.0443122E-2],"categories":[],"categories_nodes":[],"categories_segments":[],"categories_sizes":[],"default_left":[true,true,true,false,false,true,true,true,true,true,true,false,false,false,false,false,false,false,false],"id":32,"left_children":[1,3,5,-1,-1,7,9,11,13,15,17,-1,-1,-1,-1,-1,-1,-1,-1],"loss_changes":[4.080546E-1,6.633401E-2,2.0137846E-1,0E0,0E0,2.7943611E-2,3.8229913E-2,8.859634E-3,8.216202E-4,9.698421E-4,1.2034208E-2,0E0,0E0,0E0,0E0,0E0,0E0,0E0,0E0],"parents":[2147483647,0,0,1,1,2,2,5,5,6,6,7,7,8,8,9,9,10,10],"right_children":[2,4,6,-1,-1,8,10,12,14,16,18,-1,-1,-1,-1,-1,-1,-1,-1],"split_conditions":[3.5093585E2,1.19720566E2,2.647895E2,-2.3974312E-2,-4.579694E-2,6.512383E2,1.1967849E0,3.714023E1,2.2421085E2,8.6026416E2,3.4330722E2,-7.6006525E-3,-2.992104E-2,-1.6571388E-2,-5.038095E-3,-2.2655897E-2,-6.2455293E-3,-1.0277138E-2,-4.0443125E-3],"split_indices":[2,3,3,0,0,2,1,3,3,2,0,0,0,0,0,0,0,0,0],"split_type":[0,0,0,0,0,0,0,0,0,0,0,0,0,0,0,0,0,0,0],"sum_hessian":[5.3734074E1,1.556421E1,3.816986E1,6.6729813E0,8.891229E0,1.9674736E1,1.8495125E1,1.313368E1,6.5410566E0,2.8037436E0,1.5691382E1,1.0061918E0,1.2127488E1,5.3366838E0,1.2043729E0,1.7384702E0,1.0652735E0,6.990822E0,8.700561E0],"tree_param":{"num_deleted":"0","num_feature":"4","num_nodes":"19","size_leaf_vector":"0"}},{"base_weights":[-2.3082967E-1,-3.6294743E-1,-1.7095861E-1,-2.2336406E-1,-4.3506205E-1,-2.3385218E-1,-9.020837E-2,-2.6632348E-1,-1.4326254E-1,-1.8060018E-1,-6.456738E-2,-1.2341213E-1,-2.8821832E-1,-7.987526E-2,-1.4938995E-2],"categories":[],"categories_nodes":[],"categories_segments":[],"categories_sizes":[],"default_left":[true,true,true,false,false,true,true,true,false,false,true,false,false,false,false],"id":33,"left_children":[1,3,5,-1,-1,7,9,11,-1,-1,13,-1,-1,-1,-1],"loss_changes":[3.6302185E-1,6.254625E-2,1.7631555E-1,0E0,0E0,2.4275541E-2,3.1558514E-2,9.673357E-3,0E0,0E0,1.1025116E-2,0E0,0E0,0E0,0E0],"parents":[2147483647,0,0,1,1,2,2,5,5,6,6,7,7,10,10],"right_children":[2,4,6,-1,-1,8,10,12,-1,-1,14,-1,-1,-1,-1],"split_conditions":[3.4879364E2,1.19720566E2,2.762021E2,-2.2336407E-2,-4.3506205E-2,6.512383E2,1.1971666E0,6.852003E1,-1.4326254E-2,-1.806002E-2,5.6561664E2,-1.2341213E-2,-2.8821832E-2,-7.987526E-3,-1.4938995E-3],"split_indices":[2,3,3,0,0,2,1,3,0,0,3,0,0,0,0],"split_type":[0,0,0,0,0,0,0,0,0,0,0,0,0,0,0],"sum_hessian":[5.2738213E1,1.4867618E1,3.7870598E1,6.4603887E0,8.407229E0,2.0223343E1,1.7647253E1,1.3459119E1,6.764224E0,2.564221E0,1.5083033E1,2.6697574E0,1.0789361E1,1.1061611E1,4.021422E0],"tree_param":{"num_deleted":"0","num_feature":"4","num_nodes":"15","size_leaf_vector":"0"}},{"base_weights":[-2.144446E-1,-3.4673297E-1,-1.5988179E-1,-2.0769031E-1,-4.2498544E-1,-2.1364051E-1,-7.0519075E-2,-2.4824354E-1,-1.23187125E-1,-1.340109E-1,-4.31665E-2,-8.8547446E-2,-2.5845173E-1,-1.4391504E-1,-5.2578088E-2,-1.6577825E-1,-4.9659472E-2,2.943984E-2,-5.6726806E-2],"categories":[],"categories_nodes":[],"categories_segments":[],"categories_sizes":[],"default_left":[true,true,true,false,false,true,true,true,true,true,true,false,false,false,false,false,false,false,false],"id":34,"left_children":[1,3,5,-1,-1,7,9,11,13,15,17,-1,-1,-1,-1,-1,-1,-1,-1],"loss_changes":[3.257997E-1,7.0236325E-2,1.7349029E-1,0E0,0E0,4.4582844E-2,2.2410855E-2,3.8245916E-3,5.063504E-3,3.5933033E-3,1.4294393E-2,0E0,0E0,0E0,0E0,0E0,0E0,0E0,0E0],"parents":[2147483647,0,0,1,1,2,2,5,5,6,6,7,7,8,8,9,9,10,10],"right_children":[2,4,6,-1,-1,8,10,12,14,16,18,-1,-1,-1,-1,-1,-1,-1,-1],"split_conditions":[3.396038E2,1.24091194E2,3.1426532E2,-2.0769032E-2,-4.2498544E-2,6.512389E2,1.5214578E0,4.5462364E1,2.2102197E2,7.9255566E2,4.2349576E2,-8.854745E-3,-2.5845174E-2,-1.4391504E-2,-5.257809E-3,-1.6577825E-2,-4.9659475E-3,2.943984E-3,-5.6726807E-3],"split_indices":[2,3,3,0,0,2,1,3,3,2,2,0,0,0,0,0,0,0,0],"split_type":[0,0,0,0,0,0,0,0,0,0,0,0,0,0,0,0,0,0,0],"sum_hessian":[5.1817196E1,1.35675955E1,3.82496E1,6.20189E0,7.365706E0,2.3014093E1,1.5235505E1,1.5384356E1,7.629739E0,3.4132211E0,1.1822285E1,1.5055653E0,1.387879E1,5.095665E0,2.5340736E0,1.7782074E0,1.6350137E0,1.67622E0,1.0146065E1],"tree_param":{"num_deleted":"0","num_feature":"4","num_nodes":"19","size_leaf_vector":"0"}},{"base_weights":[-1.9907136E-1,-3.2668087E-1,-1.4805292E-1,-1.9442634E-1,-4.0377107E-1,-2.1611808E-1,-8.262206E-2,-2.4389374E-1,-1.2409458E-1,-1.9647528E-1,-5.710262E-2,-1.1367019E-1,-2.6883918E-1,-1.1169865E-1,-3.5678566E-2],"categories":[],"categories_nodes":[],"categories_segments":[],"categories_sizes":[],"default_left":[true,true,true,false,false,true,true,true,false,false,true,false,false,false,false],"id":35,"left_children":[1,3,5,-1,-1,7,9,11,-1,-1,13,-1,-1,-1,-1],"loss_changes":[2.9003763E-1,6.4406395E-2,1.556623E-1,0E0,0E0,1.6962826E-2,5.1202416E-2,1.2183309E-2,0E0,0E0,1.819178E-2,0E0,0E0,0E0,0E0],"parents":[2147483647,0,0,1,1,2,2,5,5,6,6,7,7,10,10],"right_children":[2,4,6,-1,-1,8,10,12,-1,-1,14,-1,-1,-1,-1],"split_conditions":[3.3794824E2,1.2594209E2,2.3758124E2,-1.9442635E-2,-4.0377107E-2,6.634491E2,1.0447791E0,6.852003E1,-1.2409459E-2,-1.964753E-2,2.4749278E2,-1.1367019E-2,-2.6883919E-2,-1.1169865E-2,-3.5678565E-3],"split_indices":[2,3,3,0,0,2,1,3,0,0,0,0,0,0,0],"split_type":[0,0,0,0,0,0,0,0,0,0,0,0,0,0,0],"sum_hessian":[5.097865E1,1.301694E1,3.7961708E1,6.09041E0,6.92653E0,1.7477524E1,2.0484184E1,1.2157619E1,5.3199034E0,2.5240898E0,1.7960094E1,2.8478165E0,9.309803E0,3.8740218E0,1.4086073E1],"tree_param":{"num_deleted":"0","num_feature":"4","num_nodes":"15","size_leaf_vector":"0"}},{"base_weights":[-1.848353E-1,-3.071797E-1,-1.3720877E-1,-1.7974839E-1,-3.8130128E-1,-1.9455943E-1,-7.014845E-2,-2.3301461E-1,-1.2515171E-1,-1.7125644E-1,-4.8410892E-2,-9.280913E-2,-2.5641376E-1,-1.3915753E-1,-3.7693117E-2,-6.930284E-2,-1.3653203E-2],"categories":[],"categories_nodes":[],"categories_segments":[],"categories_sizes":[],"default_left":[true,true,true,false,false,true,true,true,true,false,true,false,false,false,false,false,false],"id":36,"left_children":[1,3,5,-1,-1,7,9,11,13,-1,15,-1,-1,-1,-1,-1,-1],"loss_changes":[2.5631475E-1,5.94033E-2,1.351006E-1,0E0,0E0,2.497691E-2,3.433188E-2,1.5216112E-2,6.259054E-3,0E0,1.165653E-2,0E0,0E0,0E0,0E0,0E0,0E0],"parents":[2147483647,0,0,1,1,2,2,5,5,6,6,7,7,8,8,10,10],"right_children":[2,4,6,-1,-1,8,10,12,14,-1,16,-1,-1,-1,-1,-1,-1],"split_conditions":[3.3663504E2,1.24091194E2,2.647895E2,-1.7974839E-2,-3.813013E-2,5.676776E2,1.0417271E0,6.579222E1,2.2102197E2,-1.7125644E-2,4.7078094E2,-9.2809135E-3,-2.5641376E-2,-1.3915754E-2,-3.7693118E-3,-6.930284E-3,-1.3653203E-3],"split_indices":[2,3,3,0,0,2,1,3,3,0,3,0,0,0,0,0,0],"split_type":[0,0,0,0,0,0,0,0,0,0,0,0,0,0,0,0,0],"sum_hessian":[5.022205E1,1.2545372E1,3.7676678E1,5.8731623E0,6.6722097E0,1.928376E1,1.8392918E1,1.0891926E1,8.391833E0,2.0375044E0,1.6355413E1,2.26809E0,8.623836E0,6.7239237E0,1.6679096E0,9.594514E0,6.7608995E0],"tree_param":{"num_deleted":"0","num_feature":"4","num_nodes":"17","size_leaf_vector":"0"}},{"base_weights":[-1.7146946E-1,-2.8774622E-1,-1.2683472E-1,-1.4516589E-1,-3.436644E-1,-1.8771277E-1,-7.0773825E-2,-1.9655648E-1,-3.9452843E-2,-1.7452663E-1,-4.791194E-2,-9.586085E-2,-2.1702361E-1,-1.0043513E-1,-2.7778821E-2],"categories":[],"categories_nodes":[],"categories_segments":[],"categories_sizes":[],"default_left":[true,true,true,false,false,true,true,true,false,false,true,false,false,false,false],"id":37,"left_children":[1,3,5,-1,-1,7,9,11,-1,-1,13,-1,-1,-1,-1],"loss_changes":[2.2573388E-1,5.5568933E-2,1.17425025E-1,0E0,0E0,1.5525639E-2,4.273922E-2,1.3211668E-2,0E0,0E0,1.7335579E-2,0E0,0E0,0E0,0E0],"parents":[2147483647,0,0,1,1,2,2,5,5,6,6,7,7,10,10],"right_children":[2,4,6,-1,-1,8,10,12,-1,-1,14,-1,-1,-1,-1],"split_conditions":[3.3663504E2,9.311012E1,2.3465842E2,-1.4516589E-2,-3.436644E-2,7.376443E2,1.0447791E0,6.978248E1,-3.9452845E-3,-1.7452663E-2,2.4749278E2,-9.586085E-3,-2.1702362E-2,-1.0043513E-2,-2.7778822E-3],"split_indices":[2,3,3,0,0,0,1,3,0,0,0,0,0,0,0],"split_type":[0,0,0,0,0,0,0,0,0,0,0,0,0,0,0],"sum_hessian":[4.9526173E1,1.2227075E1,3.72991E1,4.4574633E0,7.769611E0,1.6755486E1,2.0543613E1,1.5504864E1,1.2506208E0,2.511564E0,1.803205E1,3.5792186E0,1.1925646E1,3.8914635E0,1.4140586E1],"tree_param":{"num_deleted":"0","num_feature":"4","num_nodes":"15","size_leaf_vector":"0"}},{"base_weights":[-1.587579E-1,-2.1126635E-1,-7.4808955E-2,-2.4245408E-1,-7.808497E-2,-9.4123736E-2,-1.3172694E-2,-1.4888078E-1,-2.9693583E-1,-9.965157E-2,1.3670807E-2,-1.0011625E-1,-3.3900577E-3,-5.4218378E-2,9.877083E-3,-3.192437E-1,-1.2862948E-1,-1.4414673E-1,-6.148754E-2,-1.4423768E-1,-7.240647E-2,2.7354958E-2,-2.2840487E-2],"categories":[],"categories_nodes":[],"categories_segments":[],"categories_sizes":[],"default_left":[true,true,true,true,true,true,true,false,true,true,false,true,false,false,true,false,false,false,false,false,false,false,false],"id":38,"left_children":[1,3,5,7,9,11,13,-1,15,17,-1,19,-1,-1,21,-1,-1,-1,-1,-1,-1,-1,-1],"loss_changes":[2.0408046E-1,1.0625768E-1,2.3454502E-2,7.7869415E-2,1.5597943E-2,8.159578E-3,6.3180192E-3,0E0,1.1982918E-2,1.2327656E-3,0E0,7.4398816E-3,0E0,0E0,3.3466755E-3,0E0,0E0,0E0,0E0,0E0,0E0,0E0,0E0],"parents":[2147483647,0,0,1,1,2,2,3,3,4,4,5,5,6,6,8,8,9,9,11,11,14,14],"right_children":[2,4,6,8,10,12,14,-1,16,18,-1,20,-1,-1,22,-1,-1,-1,-1,-1,-1,-1,-1],"split_conditions":[5.555453E2,3.3035364E2,4.676303E2,1.1973134E2,5.6613257E2,1.2971887E3,3.374165E2,-1.4888078E-2,4.792653E2,3.35091E2,1.3670807E-3,1.0185342E0,-3.3900578E-4,-5.421838E-3,1.0640608E3,-3.192437E-2,-1.2862948E-2,-1.4414673E-2,-6.148754E-3,-1.4423768E-2,-7.240647E-3,2.7354958E-3,-2.2840488E-3],"split_indices":[2,3,3,3,3,2,0,0,2,2,0,1,0,0,2,0,0,0,0,0,0,0,0],"split_type":[0,0,0,0,0,0,0,0,0,0,0,0,0,0,0,0,0,0,0,0,0,0,0],"sum_hessian":[4.888286E1,2.9139841E1,1.974302E1,2.2945988E1,6.193854E0,1.4631045E1,5.1119733E0,9.817292E0,1.3128695E1,4.945414E0,1.2484396E0,1.36276E1,1.0034454E0,1.3520652E0,3.759908E0,1.0800375E1,2.3283193E0,1.0011495E0,3.9442647E0,3.6347702E0,9.99283E0,2.5575562E0,1.2023518E0],"tree_param":{"num_deleted":"0","num_feature":"4","num_nodes":"23","size_leaf_vector":"0"}},{"base_weights":[-1.4688346E-1,-2.540341E-1,-1.07207686E-1,-1.4653037E-1,-3.321004E-1,-1.6507101E-1,-6.0608055E-2,-4.8473123E-2,-1.5974602E-1,-1.7388576E-1,-1.7759042E-2,-1.6200647E-1,-3.856431E-2,-8.353219E-2,-1.946774E-1,-8.7238416E-2,-2.0293051E-2],"categories":[],"categories_nodes":[],"categories_segments":[],"categories_sizes":[],"default_left":[true,true,true,true,false,true,true,false,false,true,false,false,true,false,false,false,false],"id":39,"left_children":[1,3,5,7,-1,9,11,-1,-1,13,-1,-1,15,-1,-1,-1,-1],"loss_changes":[1.8231249E-1,5.6990743E-2,9.165296E-2,1.438871E-3,0E0,1.7997056E-2,4.3962315E-2,0E0,0E0,1.2306571E-2,0E0,0E0,1.5806803E-2,0E0,0E0,0E0,0E0],"parents":[2147483647,0,0,1,1,2,2,3,3,5,5,6,6,9,9,12,12],"right_children":[2,4,6,8,-1,10,12,-1,-1,14,-1,-1,16,-1,-1,-1,-1],"split_conditions":[3.353736E2,1.4193552E2,2.2087798E2,3.9404785E1,-3.321004E-2,1.0669119E3,1.0447791E0,-4.8473123E-3,-1.5974602E-2,6.978248E1,-1.7759042E-3,-1.6200647E-2,2.4749445E2,-8.353219E-3,-1.946774E-2,-8.723842E-3,-2.029305E-3],"split_indices":[2,3,3,3,0,2,1,0,0,3,0,0,0,0,0,0,0],"split_type":[0,0,0,0,0,0,0,0,0,0,0,0,0,0,0,0,0],"sum_hessian":[4.8290268E1,1.1589163E1,3.6701107E1,6.08568E0,5.503483E0,1.5237808E1,2.1463299E1,1.2771747E0,4.8085055E0,1.4207291E1,1.0305176E0,2.6989872E0,1.876431E1,3.5963447E0,1.0610946E1,4.091104E0,1.4673207E1],"tree_param":{"num_deleted":"0","num_feature":"4","num_nodes":"17","size_leaf_vector":"0"}},{"base_weights":[-1.360093E-1,-2.4407816E-1,-1.0062199E-1,-1.3666385E-1,-3.213788E-1,-1.3909474E-1,-3.9032284E-2,-1.811877E-1,-8.39549E-2,3.770268E-2,-5.597363E-2,-3.7389696E-2,-1.9761586E-1,-1.0528699E-1,-3.0887857E-2,-2.4251644E-3,5.825894E-2,-9.4989E-2,-2.8082104E-2],"categories":[],"categories_nodes":[],"categories_segments":[],"categories_sizes":[],"default_left":[true,true,true,false,false,true,true,true,true,true,true,false,false,false,false,false,false,false,false],"id":40,"left_children":[1,3,5,-1,-1,7,9,11,13,15,17,-1,-1,-1,-1,-1,-1,-1,-1],"loss_changes":[1.6191941E-1,5.012989E-2,8.56435E-2,0E0,0E0,3.879139E-2,2.3128452E-2,2.174151E-2,1.0259829E-2,3.0460753E-3,1.2182467E-2,0E0,0E0,0E0,0E0,0E0,0E0,0E0,0E0],"parents":[2147483647,0,0,1,1,2,2,5,5,6,6,7,7,8,8,9,9,10,10],"right_children":[2,4,6,-1,-1,8,10,12,14,16,18,-1,-1,-1,-1,-1,-1,-1,-1],"split_conditions":[3.2313293E2,1.3911592E2,3.1326465E2,-1.3666386E-2,-3.2137882E-2,5.3107837E2,4.441441E2,5.0682648E1,2.1606218E2,4.1177814E2,5.982426E2,-3.7389696E-3,-1.9761587E-2,-1.05286995E-2,-3.0887858E-3,-2.4251644E-4,5.825894E-3,-9.498901E-3,-2.8082104E-3],"split_indices":[2,3,3,0,0,2,2,3,3,3,2,0,0,0,0,0,0,0,0],"split_type":[0,0,0,0,0,0,0,0,0,0,0,0,0,0,0,0,0,0,0],"sum_hessian":[4.776203E1,1.0327052E1,3.743498E1,5.4800773E0,4.8469753E0,2.2267134E1,1.5167845E1,1.133114E1,1.0935995E1,2.5214741E0,1.2646371E1,1.4976811E0,9.833459E0,7.098482E0,3.8375123E0,1.1529077E0,1.3685665E0,4.2690535E0,8.377317E0],"tree_param":{"num_deleted":"0","num_feature":"4","num_nodes":"19","size_leaf_vector":"0"}},{"base_weights":[-1.2562162E-1,-2.3327683E-1,-9.378991E-2,-1.2774672E-1,-3.1241128E-1,-1.3748124E-1,-4.284881E-2,-3.9876748E-2,-1.3876542E-1,-1.741249E-1,-8.2956366E-2,-1.3332842E-1,-2.5122885E-2,-3.4044765E-2,-1.9336541E-1,-9.745173E-2,-1.8191501E-2,5.045706E-2,-3.2776758E-2],"categories":[],"categories_nodes":[],"categories_segments":[],"categories_sizes":[],"default_left":[true,true,true,true,false,true,true,false,false,true,true,false,true,false,false,false,false,false,false],"id":41,"left_children":[1,3,5,7,-1,9,11,-1,-1,13,15,-1,17,-1,-1,-1,-1,-1,-1],"loss_changes":[1.4352739E-1,4.646218E-2,8.074427E-2,3.957227E-4,0E0,2.6515692E-2,2.7803876E-2,0E0,0E0,2.4010122E-2,7.755816E-3,0E0,1.1762456E-2,0E0,0E0,0E0,0E0,0E0,0E0],"parents":[2147483647,0,0,1,1,2,2,3,3,5,5,6,6,9,9,10,10,12,12],"right_children":[2,4,6,8,-1,10,12,-1,-1,14,16,-1,18,-1,-1,-1,-1,-1,-1],"split_conditions":[3.140066E2,1.4193658E2,2.647895E2,3.943888E1,-3.1241128E-2,5.2995526E2,1.0417271E0,-3.987675E-3,-1.3876542E-2,5.0385166E1,2.1606218E2,-1.3332843E-2,3.6325177E2,-3.4044764E-3,-1.9336542E-2,-9.745173E-3,-1.8191502E-3,5.045706E-3,-3.277676E-3],"split_indices":[2,3,3,3,0,2,1,0,0,3,3,0,2,0,0,0,0,0,0],"split_type":[0,0,0,0,0,0,0,0,0,0,0,0,0,0,0,0,0,0,0],"sum_hessian":[4.726778E1,9.34259E0,3.792519E1,5.1238956E0,4.2186947E0,1.9500828E1,1.8424362E1,1.0856056E0,4.03829E0,1.0350942E1,9.149886E0,1.9498671E0,1.6474495E1,1.5844939E0,8.766448E0,7.0641265E0,2.0857599E0,1.0006815E0,1.5473814E1],"tree_param":{"num_deleted":"0","num_feature":"4","num_nodes":"19","size_leaf_vector":"0"}},{"base_weights":[-1.1617613E-1,-2.1856491E-1,-8.623454E-2,-1.1899315E-1,-2.9422536E-1,-1.2070614E-1,-3.0995546E-2,-3.7873857E-2,-1.2899274E-1,-1.4074567E-1,-3.824282E-2,3.9474975E-2,-4.759575E-2,-1.6464506E-1,-8.893603E-2,-6.1293624E-2,6.002431E-3,6.2886286E-3,6.342322E-2,-8.136164E-2,-1.9481037E-2],"categories":[],"categories_nodes":[],"categories_segments":[],"categories_sizes":[],"default_left":[true,true,true,true,false,true,true,false,false,true,true,true,true,false,false,false,false,false,false,false,false],"id":42,"left_children":[1,3,5,7,-1,9,11,-1,-1,13,15,17,19,-1,-1,-1,-1,-1,-1,-1,-1],"loss_changes":[1.2777281E-1,4.160431E-2,6.986779E-2,3.8340688E-5,0E0,3.3381164E-2,2.0829387E-2,0E0,0E0,8.261919E-3,6.4454563E-3,2.4901638E-3,1.12919025E-2,0E0,0E0,0E0,0E0,0E0,0E0,0E0,0E0],"parents":[2147483647,0,0,1,1,2,2,3,3,5,5,6,6,9,9,10,10,11,11,12,12],"right_children":[2,4,6,8,-1,10,12,-1,-1,14,16,18,20,-1,-1,-1,-1,-1,-1,-1,-1],"split_conditions":[3.140066E2,1.4193658E2,3.1326465E2,3.943888E1,-2.9422536E-2,4.854851E2,4.441441E2,-3.7873858E-3,-1.2899274E-2,5.227092E2,9.192278E2,4.6227313E2,3.4332648E2,-1.6464507E-2,-8.893603E-3,-6.1293626E-3,6.002431E-4,6.288629E-4,6.3423216E-3,-8.1361635E-3,-1.9481037E-3],"split_indices":[2,3,3,3,0,0,2,0,0,2,2,3,0,0,0,0,0,0,0,0,0],"split_type":[0,0,0,0,0,0,0,0,0,0,0,0,0,0,0,0,0,0,0,0,0],"sum_hessian":[4.682642E1,9.16973E0,3.765669E1,5.070069E0,4.0996614E0,2.2457218E1,1.519947E1,1.0817957E0,3.9882734E0,1.749819E1,4.9590287E0,2.6350937E0,1.2564376E1,1.0484081E1,7.014109E0,3.0070872E0,1.9519417E0,1.6337342E0,1.0013595E0,4.8479958E0,7.7163796E0],"tree_param":{"num_deleted":"0","num_feature":"4","num_nodes":"21","size_leaf_vector":"0"}},{"base_weights":[-1.0723156E-1,-2.046289E-1,-7.905078E-2,-1.1079861E-1,-2.7682272E-1,-1.07035905E-1,-2.083882E-2,-1.3614705E-1,-6.043458E-2,4.8846263E-2,-3.723587E-2,-6.893847E-2,-1.6231845E-1,-7.10177E-2,-1.2185145E-2,1.5226298E-2,5.8518823E-2,-7.162245E-2,-9.076645E-3],"categories":[],"categories_nodes":[],"categories_segments":[],"categories_sizes":[],"default_left":[true,true,true,false,false,true,true,true,true,true,true,false,false,false,false,false,false,false,false],"id":43,"left_children":[1,3,5,-1,-1,7,9,11,13,15,17,-1,-1,-1,-1,-1,-1,-1,-1],"loss_changes":[1.1396515E-1,3.7141293E-2,6.0332417E-2,0E0,0E0,2.6628792E-2,1.748452E-2,1.52231455E-2,5.0974675E-3,9.889016E-5,1.0646189E-2,0E0,0E0,0E0,0E0,0E0,0E0,0E0,0E0],"parents":[2147483647,0,0,1,1,2,2,5,5,6,6,7,7,8,8,9,9,10,10],"right_children":[2,4,6,-1,-1,8,10,12,14,16,18,-1,-1,-1,-1,-1,-1,-1,-1],"split_conditions":[3.140066E2,1.4193658E2,3.541786E2,-1.1079862E-2,-2.7682273E-2,5.6766516E2,4.4315704E2,1.2089523E2,6.40204E2,4.6062628E2,6.304221E2,-6.893847E-3,-1.6231846E-2,-7.10177E-3,-1.2185145E-3,1.5226299E-3,5.8518825E-3,-7.1622455E-3,-9.076645E-4],"split_indices":[2,3,3,0,0,2,2,3,0,3,2,0,0,0,0,0,0,0,0],"split_type":[0,0,0,0,0,0,0,0,0,0,0,0,0,0,0,0,0,0,0],"sum_hessian":[4.64149E1,9.010806E0,3.7404095E1,5.0204573E0,3.990349E0,2.4693895E1,1.2710201E1,1.401648E1,1.0677415E1,2.0441017E0,1.06661E1,4.946892E0,9.069589E0,8.369702E0,2.3077123E0,1.0318307E0,1.0122709E0,4.107164E0,6.558935E0],"tree_param":{"num_deleted":"0","num_feature":"4","num_nodes":"19","size_leaf_vector":"0"}},{"base_weights":[-9.886053E-2,-1.9106895E-1,-7.2452754E-2,-1.0244953E-1,-2.6020324E-1,-1.1408606E-1,-3.467992E-2,-3.5021663E-2,-1.1515485E-1,-6.535204E-2,-1.4305305E-1,-1.3013735E-1,-1.589357E-2,-7.2417386E-2,-2.4459854E-2,-1.6572198E-1,-1.3666761E-2,-1.5439887E-1,-3.8894124E-2,2.1261866E-3,-4.810366E-2],"categories":[],"categories_nodes":[],"categories_segments":[],"categories_sizes":[],"default_left":[true,true,true,true,false,true,true,false,false,true,true,true,true,false,false,false,false,false,false,false,false],"id":44,"left_children":[1,3,5,7,-1,9,11,-1,-1,13,15,17,19,-1,-1,-1,-1,-1,-1,-1,-1],"loss_changes":[1.0068834E-1,3.37556E-2,5.6077078E-2,1.0822415E-3,0E0,1.5669733E-2,3.6401406E-2,0E0,0E0,6.694719E-4,2.787076E-2,1.495827E-3,1.1167079E-2,0E0,0E0,0E0,0E0,0E0,0E0,0E0,0E0],"parents":[2147483647,0,0,1,1,2,2,3,3,5,5,6,6,9,9,10,10,11,11,12,12],"right_children":[2,4,6,8,-1,10,12,-1,-1,14,16,18,20,-1,-1,-1,-1,-1,-1,-1,-1],"split_conditions":[3.140066E2,1.4193658E2,2.3465842E2,4.6478653E1,-2.6020324E-2,1.1986748E2,1.0447791E0,-3.5021664E-3,-1.1515485E-2,4.4460907E2,8.475863E2,7.8350867E2,2.4533327E0,-7.2417385E-3,-2.4459853E-3,-1.6572198E-2,-1.3666762E-3,-1.54398875E-2,-3.8894124E-3,2.1261866E-4,-4.8103663E-3],"split_indices":[2,3,3,3,0,3,1,0,0,0,2,2,1,0,0,0,0,0,0,0,0],"split_type":[0,0,0,0,0,0,0,0,0,0,0,0,0,0,0,0,0,0,0,0,0],"sum_hessian":[4.603528E1,8.860748E0,3.717453E1,4.9708214E0,3.8899274E0,1.672256E1,2.045197E1,1.3837318E0,3.5870895E0,7.448053E0,9.2745075E0,2.3884614E0,1.8063507E1,5.693411E0,1.7546419E0,7.6528673E0,1.6216406E0,1.3399907E0,1.0484706E0,1.2182222E1,5.881285E0],"tree_param":{"num_deleted":"0","num_feature":"4","num_nodes":"21","size_leaf_vector":"0"}},{"base_weights":[-9.163531E-2,-1.7871355E-1,-6.693272E-2,-7.682633E-2,-2.2720298E-1,-1.0671887E-1,-3.323215E-2,-2.8456071E-2,-9.265378E-2,-6.0339727E-2,-1.3635863E-1,-1.275686E-1,-1.465714E-2,-6.6731945E-2,-2.2933986E-2,-1.7879558E-1,-5.8835313E-2,-1.5009019E-1,-4.0819112E-2,-5.5864237E-2,9.898159E-5],"categories":[],"categories_nodes":[],"categories_segments":[],"categories_sizes":[],"default_left":[true,true,true,true,false,true,true,false,false,true,true,true,true,false,false,false,false,false,false,false,false],"id":45,"left_children":[1,3,5,7,-1,9,11,-1,-1,13,15,17,19,-1,-1,-1,-1,-1,-1,-1,-1],"loss_changes":[8.851236E-2,3.05835E-2,4.7385275E-2,9.205267E-4,0E0,1.5097216E-2,3.671215E-2,0E0,0E0,4.8032403E-4,2.0925894E-2,6.9656223E-4,1.1878168E-2,0E0,0E0,0E0,0E0,0E0,0E0,0E0,0E0],"parents":[2147483647,0,0,1,1,2,2,3,3,5,5,6,6,9,9,10,10,11,11,12,12],"right_children":[2,4,6,8,-1,10,12,-1,-1,14,16,18,20,-1,-1,-1,-1,-1,-1,-1,-1],"split_conditions":[3.1395847E2,9.686929E1,2.2691794E2,1.433017E2,-2.2720298E-2,1.1986748E2,1.0447791E0,-2.8456072E-3,-9.265378E-3,4.4460907E2,5.6763293E2,7.8350867E2,2.4749278E2,-6.6731945E-3,-2.2933986E-3,-1.7879559E-2,-5.883531E-3,-1.5009019E-2,-4.0819114E-3,-5.586424E-3,9.898159E-6],"split_indices":[2,3,3,0,0,3,1,0,0,0,2,2,0,0,0,0,0,0,0,0,0],"split_type":[0,0,0,0,0,0,0,0,0,0,0,0,0,0,0,0,0,0,0,0,0],"sum_hessian":[4.570919E1,8.723537E0,3.6985653E1,3.6462789E0,5.077259E0,1.5967776E1,2.1017876E1,1.5887611E0,2.057518E0,7.409481E0,8.558295E0,2.4923391E0,1.8525537E1,5.658504E0,1.7509769E0,4.686512E0,3.8717833E0,1.3989838E0,1.0933553E0,4.1501718E0,1.4375365E1],"tree_param":{"num_deleted":"0","num_feature":"4","num_nodes":"21","size_leaf_vector":"0"}},{"base_weights":[-8.503561E-2,-1.6672108E-1,-6.2055733E-2,-8.714453E-2,-2.3058441E-1,-7.843205E-2,5.169089E-3,-3.7431233E-2,-1.0504239E-1,-1.2048876E-1,-5.4343224E-2,5.774557E-2,-1.1996953E-2,-6.6148043E-3,-4.9160615E-2,-1.3776456E-1,-3.87928E-2,-7.6076105E-2,-3.0359896E-2,-5.465867E-2,1.3899722E-2],"categories":[],"categories_nodes":[],"categories_segments":[],"categories_sizes":[],"default_left":[true,true,true,true,false,true,true,true,false,true,true,false,true,false,false,false,false,false,false,false,false],"id":46,"left_children":[1,3,5,7,-1,9,11,13,-1,15,17,-1,19,-1,-1,-1,-1,-1,-1,-1,-1],"loss_changes":[7.6776415E-2,2.867946E-2,4.2036295E-2,1.3003834E-3,0E0,2.432108E-2,8.225018E-3,7.990538E-4,0E0,9.157315E-3,8.737676E-3,0E0,8.625361E-3,0E0,0E0,0E0,0E0,0E0,0E0,0E0,0E0],"parents":[2147483647,0,0,1,1,2,2,3,3,5,5,6,6,7,7,9,9,10,10,12,12],"right_children":[2,4,6,8,-1,10,12,14,-1,16,18,-1,20,-1,-1,-1,-1,-1,-1,-1,-1],"split_conditions":[3.1395847E2,1.4193658E2,4.6793842E2,1.4330463E2,-2.3058442E-2,2.4627124E2,4.6633466E2,6.6212494E1,-1.0504239E-2,2.9846686E2,2.1409427E2,5.774557E-3,3.3722925E2,-6.614804E-4,-4.9160616E-3,-1.3776456E-2,-3.87928E-3,-7.6076104E-3,-3.0359896E-3,-5.465867E-3,1.3899723E-3],"split_indices":[2,3,3,0,0,0,2,3,0,3,3,0,0,0,0,0,0,0,0,0,0],"split_type":[0,0,0,0,0,0,0,0,0,0,0,0,0,0,0,0,0,0,0,0,0],"sum_hessian":[4.5412758E1,8.597288E0,3.681547E1,4.880507E0,3.716781E0,2.9469769E1,7.3457026E0,2.1102982E0,2.7702088E0,9.274885E0,2.0194883E1,1.2261834E0,6.1195197E0,1.0129478E0,1.0973504E0,7.089417E0,2.1854677E0,9.455022E0,1.07398615E1,1.8920108E0,4.2275085E0],"tree_param":{"num_deleted":"0","num_feature":"4","num_nodes":"21","size_leaf_vector":"0"}},{"base_weights":[-7.8481026E-2,-1.5602712E-1,-5.6848023E-2,-8.162818E-2,-2.1620703E-1,-7.197634E-2,4.8500313E-3,-2.5789963E-2,-9.28565E-2,-1.11135386E-1,-4.9578294E-2,5.442606E-2,-1.13777155E-2,-1.4887136E-2,-1.2291041E-1,-5.8465153E-2,-6.9537098E-3,-3.5926495E-2,2.7586265E-2],"categories":[],"categories_nodes":[],"categories_segments":[],"categories_sizes":[],"default_left":[true,true,true,true,false,true,true,false,false,true,true,false,true,false,false,false,false,false,false],"id":47,"left_children":[1,3,5,7,-1,9,11,-1,-1,13,15,-1,17,-1,-1,-1,-1,-1,-1],"loss_changes":[6.8504155E-2,2.4828687E-2,3.5477944E-2,1.2723543E-3,0E0,2.1055192E-2,7.3352405E-3,0E0,0E0,9.747237E-3,7.5758025E-3,0E0,7.798027E-3,0E0,0E0,0E0,0E0,0E0,0E0],"parents":[2147483647,0,0,1,1,2,2,3,3,5,5,6,6,9,9,10,10,12,12],"right_children":[2,4,6,8,-1,10,12,-1,-1,14,16,-1,18,-1,-1,-1,-1,-1,-1],"split_conditions":[3.1395847E2,1.4193658E2,4.6793842E2,4.6478653E1,-2.1620704E-2,2.4663895E2,4.6633466E2,-2.5789964E-3,-9.28565E-3,5.929287E1,6.137705E2,5.442606E-3,8.4015875E2,-1.4887137E-3,-1.2291041E-2,-5.8465153E-3,-6.95371E-4,-3.5926495E-3,2.7586266E-3],"split_indices":[2,3,3,3,0,0,2,0,0,3,0,0,2,0,0,0,0,0,0],"split_type":[0,0,0,0,0,0,0,0,0,0,0,0,0,0,0,0,0,0,0],"sum_hessian":[4.512307E1,8.4872055E0,3.6635864E1,4.848959E0,3.6382465E0,2.9287903E1,7.3479624E0,1.3637787E0,3.4851801E0,9.2150955E0,2.0072807E1,1.2315792E0,6.116383E0,1.2513055E0,7.96379E0,1.630229E1,3.7705176E0,3.8001204E0,2.316263E0],"tree_param":{"num_deleted":"0","num_feature":"4","num_nodes":"19","size_leaf_vector":"0"}},{"base_weights":[-7.2163194E-2,-1.4565629E-1,-5.1833153E-2,-7.593701E-2,-2.0257212E-1,-8.590473E-2,-2.4943573E-2,-3.0696865E-2,-9.308548E-2,-4.2958785E-2,-1.18243694E-1,-1.1569635E-1,-7.342793E-3,-3.6142052E-3,-4.2060252E-2,-9.63892E-3,-4.8535183E-2,-1.3807623E-1,-5.6826305E-3,-1.3423193E-1,-3.473001E-2,1.0156455E-2,-4.0737145E-2],"categories":[],"categories_nodes":[],"categories_segments":[],"categories_sizes":[],"default_left":[true,true,true,true,false,true,true,true,false,true,true,true,true,false,false,false,false,false,false,false,false,false,false],"id":48,"left_children":[1,3,5,7,-1,9,11,13,-1,15,17,19,21,-1,-1,-1,-1,-1,-1,-1,-1,-1,-1],"loss_changes":[6.09563E-2,2.1848902E-2,3.2184206E-2,1.6551353E-3,0E0,1.7305069E-2,3.4850903E-2,7.9919E-4,0E0,1.1104066E-3,1.8466547E-2,6.8497285E-4,1.1977055E-2,0E0,0E0,0E0,0E0,0E0,0E0,0E0,0E0,0E0,0E0],"parents":[2147483647,0,0,1,1,2,2,3,3,5,5,6,6,7,7,9,9,10,10,11,11,12,12],"right_children":[2,4,6,8,-1,10,12,14,-1,16,18,20,22,-1,-1,-1,-1,-1,-1,-1,-1,-1,-1],"split_conditions":[3.1395847E2,1.4193658E2,2.2087798E2,1.4330463E2,-2.0257212E-2,1.2388488E2,1.0447791E0,6.6212494E1,-9.308549E-3,3.7103905E1,8.504489E2,8.298269E2,2.4533327E0,-3.6142053E-4,-4.2060255E-3,-9.6389203E-4,-4.853518E-3,-1.3807624E-2,-5.6826306E-4,-1.3423192E-2,-3.473001E-3,1.0156456E-3,-4.0737144E-3],"split_indices":[2,3,3,0,0,3,1,3,0,3,2,2,1,0,0,0,0,0,0,0,0,0,0],"split_type":[0,0,0,0,0,0,0,0,0,0,0,0,0,0,0,0,0,0,0,0,0,0,0],"sum_hessian":[4.485055E1,8.38266E0,3.646789E1,4.8166647E0,3.5659955E0,1.5117677E1,2.1350214E1,2.0908267E0,2.725838E0,7.4940352E0,7.6236415E0,2.5627668E0,1.8787447E1,1.0075539E0,1.0832727E0,1.4655663E0,6.028469E0,6.2888994E0,1.3347421E0,1.550043E0,1.0127238E0,1.2784172E1,6.003276E0],"tree_param":{"num_deleted":"0","num_feature":"4","num_nodes":"23","size_leaf_vector":"0"}},{"base_weights":[-6.693168E-2,-9.499616E-2,-2.3172779E-2,-1.1597779E-1,-2.6782295E-2,-5.6060012E-2,-1.1996934E-2,-5.626036E-2,-1.5709586E-1,1.5711004E-2,-6.3162126E-2,-7.6136656E-2,7.8081097E-3,-5.3047318E-2,3.407586E-3,-2.3119686E-2,-6.842372E-2,-1.853813E-1,-5.9515215E-2,-3.980807E-2,4.4180747E-2,-7.2197415E-2,-1.6773572E-2,-2.1368425E-2,-8.995609E-2,2.082681E-2,-4.7767546E-2],"categories":[],"categories_nodes":[],"categories_segments":[],"categories_sizes":[],"default_left":[true,true,true,true,true,true,true,true,true,true,true,true,false,false,true,false,false,false,false,false,false,false,false,false,false,false,false],"id":49,"left_children":[1,3,5,7,9,11,13,15,17,19,21,23,-1,-1,25,-1,-1,-1,-1,-1,-1,-1,-1,-1,-1,-1,-1],"loss_changes":[5.3828E-2,3.6215678E-2,6.365832E-3,4.2016864E-2,1.2993198E-2,6.473327E-3,1.0023516E-2,2.450429E-3,2.1281391E-2,8.684153E-3,6.2545575E-4,7.8831427E-4,0E0,0E0,1.1921618E-2,0E0,0E0,0E0,0E0,0E0,0E0,0E0,0E0,0E0,0E0,0E0,0E0],"parents":[2147483647,0,0,1,1,2,2,3,3,4,4,5,5,6,6,7,7,8,8,9,9,10,10,11,11,14,14],"right_children":[2,4,6,8,10,12,14,16,18,20,22,24,-1,-1,26,-1,-1,-1,-1,-1,-1,-1,-1,-1,-1,-1,-1],"split_conditions":[5.680064E2,3.1361243E2,9.50765E-1,1.1968598E2,4.441441E2,5.731372E2,1.9881717E2,5.039605E1,4.466828E2,3.3286084E2,5.2494763E2,1.6545386E2,7.80811E-4,-5.304732E-3,2.4532824E0,-2.3119687E-3,-6.842372E-3,-1.853813E-2,-5.9515215E-3,-3.980807E-3,4.4180746E-3,-7.2197416E-3,-1.6773572E-3,-2.1368426E-3,-8.995609E-3,2.082681E-3,-4.776755E-3],"split_indices":[2,3,1,3,2,0,3,3,2,2,3,3,0,0,1,0,0,0,0,0,0,0,0,0,0,0,0],"split_type":[0,0,0,0,0,0,0,0,0,0,0,0,0,0,0,0,0,0,0,0,0,0,0,0,0,0,0],"sum_hessian":[4.4623848E1,2.6474014E1,1.8149834E1,1.9710985E1,6.7630286E0,3.5847604E0,1.4565074E1,9.00334E0,1.0707646E1,3.3814642E0,3.3815644E0,2.5812614E0,1.0034989E0,3.3075104E0,1.1257564E1,3.1960487E0,5.807291E0,7.6037836E0,3.1038625E0,1.011219E0,2.3702452E0,2.3646324E0,1.0169321E0,1.0331222E0,1.5481392E0,8.841188E0,2.4163752E0],"tree_param":{"num_deleted":"0","num_feature":"4","num_nodes":"27","size_leaf_vector":"0"}},{"base_weights":[-6.189383E-2,-1.3056143E-1,-4.4284884E-2,-5.0359648E-2,-1.7150985E-1,-5.69615E-2,6.974325E-3,-1.5986012E-2,-6.312231E-2,-1.10366054E-1,-4.3720383E-2,5.2172612E-2,-8.354761E-3,-2.60023E-2,-1.3035753E-1,-5.0501026E-2,-2.9322791E-3,-4.721056E-2,1.4641214E-2],"categories":[],"categories_nodes":[],"categories_segments":[],"categories_sizes":[],"default_left":[true,true,true,true,false,true,true,false,false,true,true,false,true,false,false,false,false,false,false],"id":50,"left_children":[1,3,5,7,-1,9,11,-1,-1,13,15,-1,17,-1,-1,-1,-1,-1,-1],"loss_changes":[4.9121127E-2,2.0112082E-2,2.4863154E-2,9.1001485E-4,0E0,1.6597874E-2,6.2254514E-3,0E0,0E0,5.6555793E-3,7.0240647E-3,0E0,7.0369295E-3,0E0,0E0,0E0,0E0,0E0,0E0],"parents":[2147483647,0,0,1,1,2,2,3,3,5,5,6,6,9,9,10,10,12,12],"right_children":[2,4,6,8,-1,10,12,-1,-1,14,16,-1,18,-1,-1,-1,-1,-1,-1],"split_conditions":[3.0815924E2,9.687167E1,4.6793842E2,1.433017E2,-1.7150985E-2,1.8852246E2,4.6633466E2,-1.5986012E-3,-6.312231E-3,9.9471405E1,6.137705E2,5.217261E-3,3.3722925E2,-2.60023E-3,-1.3035754E-2,-5.0501027E-3,-2.9322793E-4,-4.721056E-3,1.4641214E-3],"split_indices":[2,3,3,0,0,0,2,0,0,3,0,0,0,0,0,0,0,0,0],"split_type":[0,0,0,0,0,0,0,0,0,0,0,0,0,0,0,0,0,0,0],"sum_hessian":[4.4405773E1,7.7539787E0,3.6651794E1,3.3744998E0,4.379479E0,2.929562E1,7.3561735E0,1.5235878E0,1.8509121E0,4.3631005E0,2.4932518E1,1.2543067E0,6.1018667E0,1.276588E0,3.0865128E0,2.1174347E1,3.7581713E0,1.8771294E0,4.224737E0],"tree_param":{"num_deleted":"0","num_feature":"4","num_nodes":"19","size_leaf_vector":"0"}},{"base_weights":[-5.6961145E-2,-1.2157616E-1,-4.051057E-2,-4.3412514E-2,-1.5703213E-1,-6.922433E-2,-1.790705E-2,-1.1547976E-2,-5.562854E-2,-3.230599E-2,-9.8286785E-2,-1.0187427E-1,-2.0675464E-3,-3.8323056E-2,-2.5475672E-3,-1.1359203E-1,8.384625E-3,-1.242788E-1,-3.4927428E-2,1.3538227E-2,-3.2371517E-2],"categories":[],"categories_nodes":[],"categories_segments":[],"categories_sizes":[],"default_left":[true,true,true,true,false,true,true,false,false,true,true,true,true,false,false,false,false,false,false,false,false],"id":51,"left_children":[1,3,5,7,-1,9,11,-1,-1,13,15,17,19,-1,-1,-1,-1,-1,-1,-1,-1],"loss_changes":[4.3117836E-2,1.7216653E-2,2.3115575E-2,9.490121E-4,0E0,1.4184572E-2,2.95091E-2,0E0,0E0,1.4451873E-3,1.4933363E-2,9.473264E-4,9.811511E-3,0E0,0E0,0E0,0E0,0E0,0E0,0E0,0E0],"parents":[2147483647,0,0,1,1,2,2,3,3,5,5,6,6,9,9,10,10,11,11,12,12],"right_children":[2,4,6,8,-1,10,12,-1,-1,14,16,18,20,-1,-1,-1,-1,-1,-1,-1,-1],"split_conditions":[3.0815924E2,8.900812E1,2.2087798E2,1.433017E2,-1.5703214E-2,1.2388488E2,1.0447791E0,-1.1547976E-3,-5.5628545E-3,9.871788E1,6.1767175E2,7.3145154E2,2.4533327E0,-3.8323055E-3,-2.5475674E-4,-1.1359203E-2,8.3846255E-4,-1.242788E-2,-3.4927428E-3,1.3538228E-3,-3.2371518E-3],"split_indices":[2,3,3,0,0,3,1,0,0,3,0,2,1,0,0,0,0,0,0,0,0],"split_type":[0,0,0,0,0,0,0,0,0,0,0,0,0,0,0,0,0,0,0,0,0],"sum_hessian":[4.419757E1,7.6721816E0,3.652539E1,3.0883148E0,4.583867E0,1.5179711E1,2.1345678E1,1.3949671E0,1.6933478E0,7.616278E0,7.563433E0,2.5255828E0,1.8820095E1,6.095899E0,1.5203792E0,6.55766E0,1.0057731E0,1.250656E0,1.2749268E0,1.2787903E1,6.0321918E0],"tree_param":{"num_deleted":"0","num_feature":"4","num_nodes":"21","size_leaf_vector":"0"}},{"base_weights":[-5.2712586E-2,-8.923557E-2,-2.7114727E-2,-1.0534689E-1,-2.7608735E-2,-4.0181953E-2,8.229159E-3,-4.7920227E-2,-1.5886524E-1,1.3203508E-2,-5.4848783E-2,-2.3846228E-2,-8.907363E-2,2.11394E-2,-2.7135646E-2,-1.32670645E-2,-5.9297785E-2,-1.780873E-1,-3.503503E-2,-5.885521E-2,-5.1469803E-3,1.9539364E-3,6.094284E-2],"categories":[],"categories_nodes":[],"categories_segments":[],"categories_sizes":[],"default_left":[true,true,true,true,true,true,true,true,true,false,false,true,false,true,false,false,false,false,false,false,false,false,false],"id":52,"left_children":[1,3,5,7,9,11,13,15,17,-1,-1,19,-1,21,-1,-1,-1,-1,-1,-1,-1,-1,-1],"loss_changes":[3.9667338E-2,1.5076235E-2,1.32178385E-2,3.5427734E-2,6.4042304E-3,1.4282256E-2,4.3913666E-3,2.4413336E-3,9.986773E-3,0E0,0E0,1.0670715E-2,0E0,4.987971E-3,0E0,0E0,0E0,0E0,0E0,0E0,0E0,0E0,0E0],"parents":[2147483647,0,0,1,1,2,2,3,3,4,4,5,5,6,6,7,7,8,8,11,11,13,13],"right_children":[2,4,6,8,10,12,14,16,18,-1,-1,20,-1,22,-1,-1,-1,-1,-1,-1,-1,-1,-1],"split_conditions":[2.5331052E2,2.9795404E2,4.303206E2,1.3896852E2,4.3544464E2,2.398838E0,1.00396326E3,5.0518692E1,4.8051907E2,1.3203508E-3,-5.4848786E-3,1.041228E0,-8.907363E-3,8.1262164E2,-2.7135646E-3,-1.3267065E-3,-5.929779E-3,-1.780873E-2,-3.503503E-3,-5.885521E-3,-5.1469804E-4,1.9539364E-4,6.094284E-3],"split_indices":[0,3,3,3,2,1,2,3,2,0,0,1,0,2,0,0,0,0,0,0,0,0,0],"split_type":[0,0,0,0,0,0,0,0,0,0,0,0,0,0,0,0,0,0,0,0,0,0,0],"sum_hessian":[4.4017094E1,1.7113512E1,2.6903582E1,1.3004315E1,4.1091967E0,1.9541775E1,7.3618073E0,7.1874175E0,5.8168974E0,1.851095E0,2.2581017E0,1.5762823E1,3.7789514E0,5.687706E0,1.6741011E0,2.3119318E0,4.875486E0,4.6559944E0,1.160903E0,4.740372E0,1.1022451E1,4.54573E0,1.1419759E0],"tree_param":{"num_deleted":"0","num_feature":"4","num_nodes":"23","size_leaf_vector":"0"}},{"base_weights":[-4.8635542E-2,-1.0724982E-1,-3.390524E-2,-5.3177882E-2,-1.5893689E-1,-8.6378254E-2,-2.3632664E-2,-1.2021691E-2,-6.2100936E-2,-1.0183952E-1,-1.1758083E-2,-4.71623E-2,-8.139986E-3,-2.4305373E-2,-7.344169E-2,-2.029377E-2,-1.2655625E-1,-2.1056293E-2,-6.868316E-2,-8.006315E-2,4.8693363E-3],"categories":[],"categories_nodes":[],"categories_segments":[],"categories_sizes":[],"default_left":[true,true,true,true,false,true,true,false,true,true,false,true,true,false,false,false,false,false,false,false,false],"id":53,"left_children":[1,3,5,7,-1,9,11,-1,13,15,-1,17,19,-1,-1,-1,-1,-1,-1,-1,-1],"loss_changes":[3.5084546E-2,1.542867E-2,1.8065695E-2,1.3389103E-3,0E0,5.413823E-3,1.1489691E-2,0E0,1.1246838E-4,6.7360587E-3,0E0,5.7018995E-3,1.989734E-2,0E0,0E0,0E0,0E0,0E0,0E0,0E0,0E0],"parents":[2147483647,0,0,1,1,2,2,3,3,5,5,6,6,8,8,9,9,11,11,12,12],"right_children":[2,4,6,8,-1,10,12,-1,14,16,-1,18,20,-1,-1,-1,-1,-1,-1,-1,-1],"split_conditions":[3.0815924E2,1.5475006E2,1.8852246E2,4.5950512E1,-1.5893688E-2,3.292391E2,2.1265778E2,-1.2021691E-3,1.593319E0,9.9471405E1,-1.1758083E-3,1.2836957E2,1.0448445E0,-2.4305375E-3,-7.344169E-3,-2.029377E-3,-1.2655625E-2,-2.1056293E-3,-6.8683163E-3,-8.006315E-3,4.8693363E-4],"split_indices":[2,3,0,3,0,3,3,0,1,3,0,3,1,0,0,0,0,0,0,0,0],"split_type":[0,0,0,0,0,0,0,0,0,0,0,0,0,0,0,0,0,0,0,0,0],"sum_hessian":[4.384666E1,7.5445924E0,3.6302067E1,4.678777E0,2.8658152E0,4.7303734E0,3.1571693E1,1.2518905E0,3.4268868E0,3.6163046E0,1.1140686E0,1.1723048E1,1.9848646E1,1.5163856E0,1.9105011E0,1.2647331E0,2.3515713E0,6.191195E0,5.5318527E0,2.250771E0,1.7597874E1],"tree_param":{"num_deleted":"0","num_feature":"4","num_nodes":"21","size_leaf_vector":"0"}},{"base_weights":[-4.525336E-2,-7.772224E-2,-2.2702096E-2,-9.217045E-2,-2.3233231E-2,-8.208358E-2,-1.4840257E-2,-4.0994424E-2,-1.4065011E-1,1.5869759E-2,-5.03321E-2,-4.9527742E-2,-5.7661408E-3,-1.1065392E-2,-5.0933655E-2,-1.5825059E-1,-2.9978497E-2,1.3265505E-2,-6.879164E-2,-4.373682E-2,1.0925049E-2],"categories":[],"categories_nodes":[],"categories_segments":[],"categories_sizes":[],"default_left":[true,true,true,true,true,false,true,true,true,false,false,true,true,false,false,false,false,false,false,false,false],"id":54,"left_children":[1,3,5,7,9,-1,11,13,15,-1,-1,17,19,-1,-1,-1,-1,-1,-1,-1,-1],"loss_changes":[3.0968316E-2,1.1958785E-2,1.1757214E-2,2.8520316E-2,6.1931517E-3,0E0,7.824078E-3,1.856083E-3,8.278117E-3,0E0,0E0,7.2155716E-3,1.4138286E-2,0E0,0E0,0E0,0E0,0E0,0E0,0E0,0E0],"parents":[2147483647,0,0,1,1,2,2,3,3,4,4,6,6,7,7,8,8,11,11,12,12],"right_children":[2,4,6,8,10,-1,12,14,16,-1,-1,18,20,-1,-1,-1,-1,-1,-1,-1,-1],"split_conditions":[2.5331052E2,2.9795404E2,3.3126926E2,1.3896852E2,4.3544464E2,-8.208359E-3,9.50765E-1,5.0518692E1,4.8051907E2,1.5869759E-3,-5.03321E-3,8.51615E1,2.1208235E2,-1.1065392E-3,-5.0933654E-3,-1.582506E-2,-2.9978498E-3,1.3265506E-3,-6.8791644E-3,-4.373682E-3,1.092505E-3],"split_indices":[0,3,2,3,2,0,1,3,2,0,0,3,3,0,0,0,0,0,0,0,0],"split_type":[0,0,0,0,0,0,0,0,0,0,0,0,0,0,0,0,0,0,0,0,0],"sum_hessian":[4.3703827E1,1.6910273E1,2.6793552E1,1.2819525E1,4.090747E0,2.0288239E0,2.476473E1,7.1341677E0,5.6853576E0,1.8441133E0,2.2466335E0,4.210642E0,2.0554089E1,2.3054116E0,4.828756E0,4.534336E0,1.1510215E0,1.0615988E0,3.149043E0,5.781481E0,1.4772607E1],"tree_param":{"num_deleted":"0","num_feature":"4","num_nodes":"21","size_leaf_vector":"0"}},{"base_weights":[-4.189643E-2,-9.464487E-2,-2.8783666E-2,-4.5968927E-2,-1.4203992E-1,-7.5772874E-2,-1.9685369E-2,-1.4568625E-2,-6.0138E-2,-8.957272E-2,-1.0083076E-2,-3.9024834E-2,-7.013929E-3,-2.927927E-2,7.889557E-3,-1.7301861E-2,-1.1188158E-1,-2.182198E-2,-6.963412E-2,-5.5627022E-2,8.475112E-3],"categories":[],"categories_nodes":[],"categories_segments":[],"categories_sizes":[],"default_left":[true,true,true,true,false,true,true,true,false,true,false,true,true,false,false,false,false,false,false,false,false],"id":55,"left_children":[1,3,5,7,-1,9,11,13,-1,15,-1,17,19,-1,-1,-1,-1,-1,-1,-1,-1],"loss_changes":[2.8098471E-2,1.29304975E-2,1.4381006E-2,1.6331105E-3,0E0,4.2382143E-3,7.6797735E-3,1.2463466E-3,0E0,5.41649E-3,0E0,5.130088E-3,1.6153658E-2,0E0,0E0,0E0,0E0,0E0,0E0,0E0,0E0],"parents":[2147483647,0,0,1,1,2,2,3,3,5,5,6,6,7,7,9,9,11,11,12,12],"right_children":[2,4,6,8,-1,10,12,14,-1,16,-1,18,20,-1,-1,-1,-1,-1,-1,-1,-1],"split_conditions":[3.0815924E2,1.5475006E2,1.8852246E2,1.4331764E2,-1.4203993E-2,3.292391E2,2.1265778E2,1.171174E2,-6.0138E-3,9.9471405E1,-1.0083076E-3,1.9609126E0,1.3865569E0,-2.927927E-3,7.8895566E-4,-1.7301862E-3,-1.1188158E-2,-2.182198E-3,-6.963412E-3,-5.562702E-3,8.4751117E-4],"split_indices":[2,3,0,0,0,3,3,0,0,3,0,1,1,0,0,0,0,0,0,0,0],"split_type":[0,0,0,0,0,0,0,0,0,0,0,0,0,0,0,0,0,0,0,0,0],"sum_hessian":[4.3562225E1,7.4351664E0,3.6127056E1,4.639841E0,2.7953255E0,4.6716304E0,3.1455427E1,2.0733206E0,2.5665205E0,3.560156E0,1.1114743E0,1.1628292E1,1.9827135E1,1.0692272E0,1.0040933E0,1.2585547E0,2.3016014E0,8.541031E0,3.0872614E0,4.164687E0,1.5662448E1],"tree_param":{"num_deleted":"0","num_feature":"4","num_nodes":"21","size_leaf_vector":"0"}},{"base_weights":[-3.8952418E-2,-8.842262E-2,-2.6711296E-2,-4.2948175E-2,-1.329399E-1,-7.10018E-2,-1.8172637E-2,-1.381863E-2,-5.604149E-2,-8.597433E-2,-1.2794361E-2,-2.516623E-2,1.0717083E-2,-2.7806262E-2,7.491467E-3,-1.9840218E-2,-1.1249795E-1,-1.639134E-2,-5.499678E-2,-1.8200574E-2,2.4815083E-2],"categories":[],"categories_nodes":[],"categories_segments":[],"categories_sizes":[],"default_left":[true,true,true,true,false,true,true,true,false,true,false,true,true,false,false,false,false,false,false,false,false],"id":56,"left_children":[1,3,5,7,-1,9,11,13,-1,15,-1,17,19,-1,-1,-1,-1,-1,-1,-1,-1],"loss_changes":[2.4549313E-2,1.1259392E-2,1.2724055E-2,1.3705017E-3,0E0,3.820125E-3,6.8182657E-3,1.1237691E-3,0E0,5.338058E-3,0E0,6.007258E-3,3.3128853E-3,0E0,0E0,0E0,0E0,0E0,0E0,0E0,0E0],"parents":[2147483647,0,0,1,1,2,2,3,3,5,5,6,6,7,7,9,9,11,11,12,12],"right_children":[2,4,6,8,-1,10,12,14,-1,16,-1,18,20,-1,-1,-1,-1,-1,-1,-1,-1],"split_conditions":[3.0815924E2,1.5475006E2,1.8852246E2,1.4331764E2,-1.3293991E-2,2.9851727E2,4.945794E2,1.171174E2,-5.6041493E-3,1.1591765E2,-1.2794362E-3,2.4523335E0,3.3722925E2,-2.7806263E-3,7.4914674E-4,-1.9840219E-3,-1.1249795E-2,-1.6391341E-3,-5.499678E-3,-1.8200575E-3,2.4815083E-3],"split_indices":[2,3,0,0,0,3,3,0,0,3,0,1,0,0,0,0,0,0,0,0,0],"split_type":[0,0,0,0,0,0,0,0,0,0,0,0,0,0,0,0,0,0,0,0,0],"sum_hessian":[4.3439392E1,7.3821993E0,3.605719E1,4.623769E0,2.7584307E0,4.645482E0,3.1411709E1,2.07121E0,2.552559E0,3.3155894E0,1.3298928E0,2.5393389E1,6.0183196E0,1.0664005E0,1.0048093E0,1.4494771E0,1.8661125E0,2.0818844E1,4.574545E0,1.8770769E0,4.141243E0],"tree_param":{"num_deleted":"0","num_feature":"4","num_nodes":"21","size_leaf_vector":"0"}},{"base_weights":[-3.6106456E-2,-5.3095534E-2,-6.4800084E-3,-5.9385832E-2,1.7581632E-2,2.9294859E-3,-4.4036213E-2,-2.7438955E-2,-7.4773885E-2,5.1489495E-2,-2.5832087E-2,-1.6629925E-2,2.828823E-2,-7.73505E-2,5.867382E-3,-3.781268E-2,-3.7122245E-3,-1.008452E-1,-3.679368E-2,-3.10743E-2,2.1253202E-2,4.2199936E-2,-2.4410678E-2],"categories":[],"categories_nodes":[],"categories_segments":[],"categories_sizes":[],"default_left":[true,true,true,true,true,true,true,true,true,false,false,true,true,false,false,false,false,false,false,false,false,false,false],"id":57,"left_children":[1,3,5,7,9,11,13,15,17,-1,-1,19,21,-1,-1,-1,-1,-1,-1,-1,-1,-1,-1],"loss_changes":[2.1964345E-2,1.3505593E-2,6.239805E-3,1.0713868E-2,5.8380663E-3,7.7940812E-3,6.3172188E-3,2.3262408E-3,1.3069391E-2,0E0,0E0,5.5664014E-3,6.0152328E-3,0E0,0E0,0E0,0E0,0E0,0E0,0E0,0E0,0E0,0E0],"parents":[2147483647,0,0,1,1,2,2,3,3,4,4,5,5,6,6,7,7,8,8,11,11,12,12],"right_children":[2,4,6,8,10,12,14,16,18,-1,-1,20,22,-1,-1,-1,-1,-1,-1,-1,-1,-1,-1],"split_conditions":[5.982686E2,5.2090894E2,2.4533327E0,1.19923065E2,4.8032605E2,1.6412406E0,4.3457272E2,3.7592267E2,2.6275684E2,5.1489496E-3,-2.5832087E-3,6.126741E2,1.0720898E3,-7.73505E-3,5.867382E-4,-3.7812681E-3,-3.7122247E-4,-1.008452E-2,-3.679368E-3,-3.1074302E-3,2.1253203E-3,4.2199935E-3,-2.441068E-3],"split_indices":[2,3,1,3,2,1,3,2,3,0,0,0,2,0,0,0,0,0,0,0,0,0,0],"split_type":[0,0,0,0,0,0,0,0,0,0,0,0,0,0,0,0,0,0,0,0,0,0,0],"sum_hessian":[4.3321964E1,2.7029766E1,1.6292196E1,2.4967415E1,2.062352E0,1.3765361E1,2.526836E0,9.021389E0,1.5946025E1,1.053504E0,1.008848E0,7.965623E0,5.7997384E0,1.185458E0,1.3413779E0,5.8639135E0,3.1574757E0,8.473933E0,7.472092E0,5.8969283E0,2.0686946E0,4.7460732E0,1.0536652E0],"tree_param":{"num_deleted":"0","num_feature":"4","num_nodes":"23","size_leaf_vector":"0"}},{"base_weights":[-3.3091277E-2,-7.796469E-2,-2.2108376E-2,-3.640484E-2,-1.19610734E-1,-6.2946215E-2,-1.4341601E-2,-1.0013428E-2,-4.897789E-2,-1.3893037E-1,-3.397823E-2,-7.640154E-2,-5.627737E-3,-4.3439697E-2,-6.796422E-3,-2.4073908E-2,9.458067E-3,-2.4170639E-2,-8.81748E-2,2.2579655E-2,-6.0055416E-2,-3.6372866E-2,5.7291477E-3],"categories":[],"categories_nodes":[],"categories_segments":[],"categories_sizes":[],"default_left":[true,true,true,true,true,true,true,true,false,false,false,true,false,true,true,false,false,false,false,false,false,false,false],"id":58,"left_children":[1,3,5,7,9,11,13,15,-1,-1,-1,17,-1,19,21,-1,-1,-1,-1,-1,-1,-1,-1],"loss_changes":[2.0058658E-2,1.000201E-2,1.0802049E-2,1.3641585E-3,1.4097355E-3,3.8903821E-3,6.7964746E-3,1.0655907E-3,0E0,0E0,0E0,6.0968474E-4,0E0,8.448532E-3,1.0149899E-2,0E0,0E0,0E0,0E0,0E0,0E0,0E0,0E0],"parents":[2147483647,0,0,1,1,2,2,3,3,4,4,5,5,6,6,7,7,11,11,13,13,14,14],"right_children":[2,4,6,8,10,12,14,16,-1,-1,-1,18,-1,20,22,-1,-1,-1,-1,-1,-1,-1,-1],"split_conditions":[3.0815924E2,1.5475006E2,1.8852246E2,1.4331764E2,2.7693927E2,2.2824402E0,9.50765E-1,1.171174E2,-4.897789E-3,-1.3893037E-2,-3.397823E-3,1.1591765E2,-5.627737E-4,6.407484E1,1.988182E2,-2.4073909E-3,9.458067E-4,-2.417064E-3,-8.81748E-3,2.2579655E-3,-6.005542E-3,-3.6372866E-3,5.729148E-4],"split_indices":[2,3,0,0,2,1,1,0,0,0,0,3,0,3,3,0,0,0,0,0,0,0,0],"split_type":[0,0,0,0,0,0,0,0,0,0,0,0,0,0,0,0,0,0,0,0,0,0,0],"sum_hessian":[4.3197556E1,7.2946563E0,3.5902897E1,4.5891514E0,2.7055047E0,4.601833E0,3.1301065E1,2.0604954E0,2.528656E0,1.6996441E0,1.0058607E0,3.4573102E0,1.1445227E0,5.465604E0,2.583546E1,1.0592432E0,1.0012523E0,1.1975428E0,2.2597675E0,1.0268159E0,4.438788E0,7.119768E0,1.8715693E1],"tree_param":{"num_deleted":"0","num_feature":"4","num_nodes":"23","size_leaf_vector":"0"}},{"base_weights":[-3.0812249E-2,-7.337734E-2,-2.0437956E-2,-3.3984713E-2,-1.1312808E-1,-5.8986578E-2,-1.3136251E-2,-2.5588193E-3,-4.2517446E-2,-1.3474607E-1,-3.5516787E-2,-7.435903E-2,-8.863108E-3,-3.981305E-2,-6.2360354E-3,-1.0789784E-2,-5.5152297E-2,-1.598297E-2,-9.963662E-2,2.1413194E-2,-5.5396955E-2,-3.1651355E-2,5.96569E-3],"categories":[],"categories_nodes":[],"categories_segments":[],"categories_sizes":[],"default_left":[true,true,true,true,true,true,true,false,true,false,false,true,false,true,true,false,false,false,false,false,false,false,false],"id":59,"left_children":[1,3,5,7,9,11,13,-1,15,-1,-1,17,-1,19,21,-1,-1,-1,-1,-1,-1,-1,-1],"loss_changes":[1.797584E-2,9.0845525E-3,9.596522E-3,1.3865302E-3,1.3890639E-3,3.6415588E-3,5.6910515E-3,0E0,1.1373553E-3,0E0,0E0,4.510764E-3,0E0,7.3356917E-3,8.506203E-3,0E0,0E0,0E0,0E0,0E0,0E0,0E0,0E0],"parents":[2147483647,0,0,1,1,2,2,3,3,4,4,5,5,6,6,8,8,11,11,13,13,14,14],"right_children":[2,4,6,8,10,12,14,-1,16,-1,-1,18,-1,20,22,-1,-1,-1,-1,-1,-1,-1,-1],"split_conditions":[3.0815924E2,1.5475006E2,1.8852246E2,4.6478653E1,2.7162827E2,2.8080515E2,9.50765E-1,-2.5588193E-4,1.593319E0,-1.3474608E-2,-3.5516787E-3,1.1591765E2,-8.863108E-4,6.407484E1,2.1210461E2,-1.0789784E-3,-5.51523E-3,-1.598297E-3,-9.963662E-3,2.1413194E-3,-5.5396957E-3,-3.1651356E-3,5.9656904E-4],"split_indices":[2,3,0,3,2,3,1,0,1,0,0,3,0,3,3,0,0,0,0,0,0,0,0],"split_type":[0,0,0,0,0,0,0,0,0,0,0,0,0,0,0,0,0,0,0,0,0,0,0],"sum_hessian":[4.31039E1,7.25678E0,3.5847122E1,4.5764775E0,2.6803024E0,4.581434E0,3.1265688E1,1.2548329E0,3.3216445E0,1.5205892E0,1.1597133E0,3.1361003E0,1.4453335E0,5.4450088E0,2.5820679E1,1.4740627E0,1.847582E0,1.440865E0,1.6952354E0,1.0288382E0,4.4161706E0,7.858331E0,1.7962349E1],"tree_param":{"num_deleted":"0","num_feature":"4","num_nodes":"23","size_leaf_vector":"0"}},{"base_weights":[-2.8753223E-2,-6.9236085E-2,-1.8925056E-2,-3.188243E-2,-1.0714716E-1,-5.5516988E-2,-1.202274E-2,-7.807259E-3,-4.374483E-2,-1.2763645E-1,-3.3672802E-2,-6.8309315E-2,-3.1252261E-3,-1.7289689E-2,1.5800882E-2,-2.1425527E-2,1.0082322E-2,-1.7174577E-2,-7.8499824E-2,-4.8031006E-2,-7.444502E-3,-1.2467256E-2,2.5203606E-2],"categories":[],"categories_nodes":[],"categories_segments":[],"categories_sizes":[],"default_left":[true,true,true,true,true,true,true,true,false,false,false,true,false,true,true,false,false,false,false,false,false,false,false],"id":60,"left_children":[1,3,5,7,9,11,13,15,-1,-1,-1,17,-1,19,21,-1,-1,-1,-1,-1,-1,-1,-1],"loss_changes":[1.6203448E-2,8.228298E-3,8.625999E-3,1.2479029E-3,1.2080111E-3,3.5148263E-3,4.996777E-3,9.601245E-4,0E0,0E0,0E0,9.566918E-4,0E0,7.9896115E-3,1.8167533E-3,0E0,0E0,0E0,0E0,0E0,0E0,0E0,0E0],"parents":[2147483647,0,0,1,1,2,2,3,3,4,4,5,5,6,6,7,7,11,11,13,13,14,14],"right_children":[2,4,6,8,10,12,14,16,-1,-1,-1,18,-1,20,22,-1,-1,-1,-1,-1,-1,-1,-1],"split_conditions":[3.0815924E2,1.5475006E2,1.8852246E2,1.4331764E2,2.7162827E2,2.2824402E0,6.40204E2,1.1710399E2,-4.374483E-3,-1.2763645E-2,-3.3672804E-3,3.5158356E2,-3.125226E-4,1.073771E0,1.7428526E2,-2.1425528E-3,1.0082322E-3,-1.7174578E-3,-7.849983E-3,-4.8031006E-3,-7.444502E-4,-1.2467256E-3,2.5203608E-3],"split_indices":[2,3,0,0,2,1,0,0,0,0,0,2,0,1,3,0,0,0,0,0,0,0,0],"split_type":[0,0,0,0,0,0,0,0,0,0,0,0,0,0,0,0,0,0,0,0,0,0,0],"sum_hessian":[4.3018513E1,7.222775E0,3.5795734E1,4.565441E0,2.6573339E0,4.5628753E0,3.123286E1,2.0543048E0,2.5111363E0,1.5014721E0,1.1558617E0,3.4232209E0,1.1396543E0,2.6579935E1,4.6529255E0,1.0541725E0,1.0001324E0,1.0150709E0,2.40815E0,5.506723E0,2.1073214E1,1.0800295E0,3.572896E0],"tree_param":{"num_deleted":"0","num_feature":"4","num_nodes":"23","size_leaf_vector":"0"}},{"base_weights":[-2.6746383E-2,-6.5220654E-2,-1.744361E-2,-2.1751601E-2,-9.285677E-2,-3.9560735E-2,-7.5949286E-3,-8.087455E-4,-2.7522963E-2,-1.4023688E-2,-1.1314335E-1,-6.0848914E-2,-7.2280886E-3,-1.2601761E-2,2.3442512E-2,-3.2678945E-4,-7.324275E-2,-3.817879E-2,2.4995606E-2,-4.709855E-3,-4.190565E-2,3.4776293E-3,3.6126886E-2],"categories":[],"categories_nodes":[],"categories_segments":[],"categories_sizes":[],"default_left":[true,true,true,true,true,true,true,false,false,false,false,true,true,true,true,false,false,false,false,false,false,false,false],"id":61,"left_children":[1,3,5,7,9,11,13,-1,-1,-1,-1,15,17,19,21,-1,-1,-1,-1,-1,-1,-1,-1],"loss_changes":[1.4588449E-2,7.819157E-3,7.7040996E-3,5.203369E-4,5.9314147E-3,7.189609E-3,4.438881E-3,0E0,0E0,0E0,0E0,4.8884396E-3,6.4750663E-3,5.262756E-3,9.008469E-4,0E0,0E0,0E0,0E0,0E0,0E0,0E0,0E0],"parents":[2147483647,0,0,1,1,2,2,3,3,4,4,5,5,6,6,11,11,12,12,13,13,14,14],"right_children":[2,4,6,8,10,12,14,-1,-1,-1,-1,16,18,20,22,-1,-1,-1,-1,-1,-1,-1,-1],"split_conditions":[3.0815924E2,2.029147E0,2.4709276E2,7.3935544E-1,1.0265242E2,1.8500239E0,6.036887E2,-8.087455E-5,-2.7522964E-3,-1.4023688E-3,-1.1314335E-2,6.9380394E1,2.6463934E2,2.5149407E0,5.0020972E2,-3.2678945E-5,-7.3242746E-3,-3.8178791E-3,2.4995606E-3,-4.709855E-4,-4.190565E-3,3.4776292E-4,3.6126885E-3],"split_indices":[2,1,0,1,3,1,3,0,0,0,0,3,3,1,0,0,0,0,0,0,0,0,0],"split_type":[0,0,0,0,0,0,0,0,0,0,0,0,0,0,0,0,0,0,0,0,0,0,0],"sum_hessian":[4.2937885E1,7.190137E0,3.5747746E1,3.48913E0,3.7010067E0,1.0084405E1,2.5663343E1,1.0001096E0,2.4890206E0,1.1036257E0,2.597381E0,5.548949E0,4.535456E0,2.2609976E1,3.0533664E0,1.1176343E0,4.4313145E0,2.2191594E0,2.3162966E0,1.8727224E1,3.8827524E0,1.6812648E0,1.3721018E0],"tree_param":{"num_deleted":"0","num_feature":"4","num_nodes":"23","size_leaf_vector":"0"}},{"base_weights":[-2.4693128E-2,-6.0878128E-2,-1.5979616E-2,-3.0234946E-2,-1.0052108E-1,-4.8954725E-2,-9.815351E-3,-2.535352E-5,-3.812791E-2,-1.2377676E-1,-2.5960984E-2,-6.356143E-2,-4.32596E-3,-3.2058947E-2,-4.130083E-3,-6.002883E-3,-5.1967848E-2,-1.1684249E-2,-8.9230366E-2,2.2770248E-2,-4.676795E-2,-2.8209174E-2,5.9255795E-3],"categories":[],"categories_nodes":[],"categories_segments":[],"categories_sizes":[],"default_left":[true,true,true,true,true,true,true,false,true,false,false,true,false,true,true,false,false,false,false,false,false,false,false],"id":62,"left_children":[1,3,5,7,9,11,13,-1,15,-1,-1,17,-1,19,21,-1,-1,-1,-1,-1,-1,-1,-1],"loss_changes":[1.2854531E-2,6.86739E-3,6.9793463E-3,1.4367979E-3,2.2056438E-3,3.329441E-3,3.9358977E-3,0E0,1.8132967E-3,0E0,0E0,4.407486E-3,0E0,6.2270705E-3,6.6489237E-3,0E0,0E0,0E0,0E0,0E0,0E0,0E0,0E0],"parents":[2147483647,0,0,1,1,2,2,3,3,4,4,5,5,6,6,8,8,11,11,13,13,14,14],"right_children":[2,4,6,8,10,12,14,-1,16,-1,-1,18,-1,20,22,-1,-1,-1,-1,-1,-1,-1,-1],"split_conditions":[3.0815924E2,1.8201114E2,1.8852246E2,4.6478653E1,2.688656E2,2.8080515E2,9.50765E-1,-2.535352E-6,1.5933039E0,-1.2377677E-2,-2.5960985E-3,1.22412E2,-4.32596E-4,6.407484E1,1.988182E2,-6.0028833E-4,-5.196785E-3,-1.168425E-3,-8.923037E-3,2.2770248E-3,-4.676795E-3,-2.8209174E-3,5.9255795E-4],"split_indices":[2,3,0,3,2,3,1,0,1,0,0,3,0,3,3,0,0,0,0,0,0,0,0],"split_type":[0,0,0,0,0,0,0,0,0,0,0,0,0,0,0,0,0,0,0,0,0,0,0],"sum_hessian":[4.285477E1,7.155046E0,3.5699726E1,5.029798E0,2.125248E0,4.5292525E0,3.1170473E1,1.2497411E0,3.7800572E0,1.1168141E0,1.0084339E0,3.0927799E0,1.4364725E0,5.4008217E0,2.5769651E1,1.5698605E0,2.2101967E0,1.5054467E0,1.5873331E0,1.0264784E0,4.3743434E0,7.0595913E0,1.871006E1],"tree_param":{"num_deleted":"0","num_feature":"4","num_nodes":"23","size_leaf_vector":"0"}},{"base_weights":[-2.3083463E-2,-3.578295E-2,-1.4009897E-3,-4.0853754E-2,1.8177275E-2,7.976666E-3,-4.0215135E-2,-1.4295167E-2,-5.422414E-2,5.08634E-2,-2.4335522E-2,-6.8681166E-3,2.6196823E-2,-7.035771E-2,4.887856E-3,-2.4639778E-2,6.124219E-3,-7.420357E-2,-2.5791254E-2,-2.7202472E-2,1.6832601E-2,3.9451573E-2,-2.3740334E-2],"categories":[],"categories_nodes":[],"categories_segments":[],"categories_sizes":[],"default_left":[true,true,true,true,true,true,true,true,true,false,false,true,true,false,false,false,false,false,false,false,false,false,false],"id":63,"left_children":[1,3,5,7,9,11,13,15,17,-1,-1,19,21,-1,-1,-1,-1,-1,-1,-1,-1,-1,-1],"loss_changes":[1.2007248E-2,8.287359E-3,6.5866504E-3,8.284491E-3,5.4908246E-3,4.155701E-3,5.123038E-3,2.2423263E-3,7.5229406E-3,0E0,0E0,4.743386E-3,5.4422338E-3,0E0,0E0,0E0,0E0,0E0,0E0,0E0,0E0,0E0,0E0],"parents":[2147483647,0,0,1,1,2,2,3,3,4,4,5,5,6,6,7,7,8,8,11,11,12,12],"right_children":[2,4,6,8,10,12,14,16,18,-1,-1,20,22,-1,-1,-1,-1,-1,-1,-1,-1,-1,-1],"split_conditions":[5.982686E2,5.2090894E2,2.4532824E0,1.19923065E2,4.8032605E2,1.6412406E0,4.3457272E2,3.7544867E2,2.6275684E2,5.08634E-3,-2.4335522E-3,8.5918555E2,1.0720898E3,-7.035771E-3,4.887856E-4,-2.4639778E-3,6.124219E-4,-7.4203573E-3,-2.5791253E-3,-2.7202473E-3,1.6832602E-3,3.9451574E-3,-2.3740334E-3],"split_indices":[2,3,1,3,2,1,3,2,3,0,0,2,2,0,0,0,0,0,0,0,0,0,0],"split_type":[0,0,0,0,0,0,0,0,0,0,0,0,0,0,0,0,0,0,0,0,0,0,0],"sum_hessian":[4.2788273E1,2.6573673E1,1.6214598E1,2.4513006E1,2.0606668E0,1.3699286E1,2.5153124E0,8.9011545E0,1.5611852E1,1.0539261E0,1.0067408E0,7.892202E0,5.807084E0,1.1720743E0,1.3432382E0,5.7708926E0,3.1302621E0,8.223513E0,7.388339E0,4.168248E0,3.723954E0,4.7549577E0,1.0521264E0],"tree_param":{"num_deleted":"0","num_feature":"4","num_nodes":"23","size_leaf_vector":"0"}},{"base_weights":[-2.1168068E-2,-5.4253686E-2,-1.3267109E-2,-2.5318326E-2,-9.277058E-2,-4.3466322E-2,-7.6802806E-3,1.3450311E-3,-3.259386E-2,-1.15667365E-1,-2.2414634E-2,1.1166187E-3,-5.7340197E-2,-1.5102862E-3,-2.6358785E-2,-3.5505935E-3,-4.5717295E-2,-6.9425754E-2,-1.5782872E-2,-1.3543567E-2,1.7788637E-2,3.2443557E-2,-4.6867058E-2],"categories":[],"categories_nodes":[],"categories_segments":[],"categories_sizes":[],"default_left":[true,true,true,true,true,true,true,false,true,false,false,false,true,true,true,false,false,false,false,false,false,false,false],"id":64,"left_children":[1,3,5,7,9,11,13,-1,15,-1,-1,-1,17,19,21,-1,-1,-1,-1,-1,-1,-1,-1],"loss_changes":[1.0706192E-2,6.6810343E-3,5.8424566E-3,1.2081435E-3,2.4016537E-3,3.466242E-3,3.6603804E-3,0E0,1.6499832E-3,0E0,0E0,0E0,1.0207519E-3,6.092015E-3,1.1061269E-2,0E0,0E0,0E0,0E0,0E0,0E0,0E0,0E0],"parents":[2147483647,0,0,1,1,2,2,3,3,4,4,5,5,6,6,8,8,12,12,13,13,14,14],"right_children":[2,4,6,8,10,12,14,-1,16,-1,-1,-1,18,20,22,-1,-1,-1,-1,-1,-1,-1,-1],"split_conditions":[3.0815924E2,1.8201114E2,1.8852246E2,4.6478653E1,2.688656E2,3.470092E2,2.4536376E0,1.345031E-4,1.5933039E0,-1.1566737E-2,-2.2414634E-3,1.1166187E-4,2.8080515E2,1.8025203E0,4.0822818E2,-3.5505937E-4,-4.57173E-3,-6.9425753E-3,-1.5782872E-3,-1.3543566E-3,1.7788637E-3,3.2443558E-3,-4.686706E-3],"split_indices":[2,3,0,3,2,2,1,0,1,0,0,0,3,1,2,0,0,0,0,0,0,0,0],"split_type":[0,0,0,0,0,0,0,0,0,0,0,0,0,0,0,0,0,0,0,0,0,0,0],"sum_hessian":[4.2709354E1,7.1021347E0,3.560722E1,5.0018697E0,2.100265E0,4.500412E0,3.110681E1,1.2469991E0,3.7548704E0,1.0986778E0,1.0015874E0,1.2863413E0,3.2140708E0,2.4195324E1,6.911486E0,1.5640502E0,2.1908202E0,1.9704338E0,1.2436371E0,1.5086684E1,9.108639E0,1.6366959E0,5.2747903E0],"tree_param":{"num_deleted":"0","num_feature":"4","num_nodes":"23","size_leaf_vector":"0"}},{"base_weights":[-1.9722262E-2,-5.1284675E-2,-1.2211708E-2,-2.3626182E-2,-8.836933E-2,-1.8562593E-2,1.00768395E-2,1.2703213E-3,-3.0437337E-2,-1.10333174E-1,-2.1474527E-2,-4.708619E-2,-8.733121E-3,2.279349E-3,3.269934E-2,-3.3347323E-3,-4.270829E-2,4.5701414E-3,-8.2521774E-2,-3.602781E-2,6.2168613E-3,1.8746143E-2,-1.9055253E-2],"categories":[],"categories_nodes":[],"categories_segments":[],"categories_sizes":[],"default_left":[true,true,true,true,true,true,true,false,true,false,false,true,true,true,false,false,false,false,false,false,false,false,false],"id":65,"left_children":[1,3,5,7,9,11,13,-1,15,-1,-1,17,19,21,-1,-1,-1,-1,-1,-1,-1,-1,-1],"loss_changes":[9.721952E-3,6.1984044E-3,5.36437E-3,1.0548029E-3,2.165202E-3,7.6681366E-3,1.4705178E-3,0E0,1.4356966E-3,0E0,0E0,1.347903E-2,9.47005E-3,3.0231983E-3,0E0,0E0,0E0,0E0,0E0,0E0,0E0,0E0,0E0],"parents":[2147483647,0,0,1,1,2,2,3,3,4,4,5,5,6,6,8,8,11,11,12,12,13,13],"right_children":[2,4,6,8,10,12,14,-1,16,-1,-1,18,20,22,-1,-1,-1,-1,-1,-1,-1,-1,-1],"split_conditions":[3.0815924E2,1.8201114E2,5.231217E2,4.6478653E1,2.686577E2,1.0737278E0,6.195238E2,1.2703214E-4,1.5933039E0,-1.1033318E-2,-2.1474527E-3,1.4021327E2,2.1210449E2,2.987605E2,3.2699339E-3,-3.3347323E-4,-4.270829E-3,4.5701416E-4,-8.252177E-3,-3.602781E-3,6.2168617E-4,1.8746144E-3,-1.9055253E-3],"split_indices":[2,3,0,3,2,1,3,0,1,0,0,3,3,3,0,0,0,0,0,0,0,0,0],"split_type":[0,0,0,0,0,0,0,0,0,0,0,0,0,0,0,0,0,0,0,0,0,0,0],"sum_hessian":[4.2653957E1,7.07857E0,3.557539E1,4.992299E0,2.0862706E0,2.7816534E1,7.758855E0,1.2471484E0,3.7451508E0,1.081744E0,1.0045267E0,6.157658E0,2.1658875E1,6.5886455E0,1.170209E0,1.5635431E0,2.1816077E0,2.859802E0,3.2978563E0,7.16592E0,1.4492955E1,3.7870185E0,2.8016272E0],"tree_param":{"num_deleted":"0","num_feature":"4","num_nodes":"23","size_leaf_vector":"0"}},{"base_weights":[-1.8356044E-2,-4.8484888E-2,-1.1211126E-2,-2.205958E-2,-8.421754E-2,-3.909277E-2,-6.0979296E-3,-6.4165336E-3,-3.5528317E-2,-1.0546804E-1,-2.017704E-2,2.213064E-3,-5.226658E-2,-2.5982343E-4,-2.3931025E-2,-2.8496932E-2,2.2489458E-2,-6.283809E-2,-1.3183638E-2,-2.4647728E-2,7.583028E-3,3.0618386E-2,-4.313058E-2],"categories":[],"categories_nodes":[],"categories_segments":[],"categories_sizes":[],"default_left":[true,true,true,true,true,true,true,true,false,false,false,false,true,true,true,false,false,false,false,false,false,false,false],"id":66,"left_children":[1,3,5,7,9,11,13,15,-1,-1,-1,-1,17,19,21,-1,-1,-1,-1,-1,-1,-1,-1],"loss_changes":[8.841737E-3,5.749481E-3,4.971167E-3,1.0332975E-3,2.050124E-3,3.0965758E-3,3.3319835E-3,3.1875258E-3,0E0,0E0,0E0,0E0,9.043887E-4,5.0005596E-3,9.591313E-3,0E0,0E0,0E0,0E0,0E0,0E0,0E0,0E0],"parents":[2147483647,0,0,1,1,2,2,3,3,4,4,5,5,6,6,7,7,12,12,13,13,14,14],"right_children":[2,4,6,8,10,12,14,16,-1,-1,-1,-1,18,20,22,-1,-1,-1,-1,-1,-1,-1,-1],"split_conditions":[3.0815924E2,1.8221658E2,1.8852246E2,2.6689545E2,2.686577E2,3.470092E2,2.4536376E0,2.382579E2,-3.5528317E-3,-1.0546804E-2,-2.017704E-3,2.2130641E-4,1.9365238E0,9.50765E-1,4.0822818E2,-2.8496932E-3,2.2489459E-3,-6.2838094E-3,-1.3183638E-3,-2.464773E-3,7.583028E-4,3.0618387E-3,-4.313058E-3],"split_indices":[2,3,0,2,2,2,1,2,0,0,0,0,1,1,2,0,0,0,0,0,0,0,0],"split_type":[0,0,0,0,0,0,0,0,0,0,0,0,0,0,0,0,0,0,0,0,0,0,0],"sum_hessian":[4.259822E1,7.0564604E0,3.5541763E1,4.9863005E0,2.07016E0,4.4780464E0,3.1063715E1,2.990007E0,1.9962937E0,1.0686535E0,1.0015063E0,1.2840328E0,3.1940134E0,2.4166712E1,6.897003E0,1.7031639E0,1.2868432E0,2.0355933E0,1.1584202E0,5.3591995E0,1.8807512E1,1.6407086E0,5.2562947E0],"tree_param":{"num_deleted":"0","num_feature":"4","num_nodes":"23","size_leaf_vector":"0"}},{"base_weights":[-1.7162912E-2,-2.8623102E-2,-5.216699E-4,-3.333105E-2,4.0077258E-2,8.314072E-3,-2.3598498E-2,-9.25502E-3,-4.6132993E-2,-4.038022E-3,2.680114E-2,-4.519549E-2,3.3372901E-3,-1.8049192E-2,8.436123E-3,-6.452879E-2,-1.472418E-2,1.2886479E-2,-2.8015641E-2,4.5411244E-2,-2.6688231E-2,-9.826372E-3,-5.7369653E-2,-1.041902E-2,1.5734369E-2],"categories":[],"categories_nodes":[],"categories_segments":[],"categories_sizes":[],"default_left":[true,true,true,true,false,true,true,true,true,true,true,true,true,false,false,false,false,false,false,false,false,false,false,false,false],"id":67,"left_children":[1,3,5,7,-1,9,11,13,15,17,19,21,23,-1,-1,-1,-1,-1,-1,-1,-1,-1,-1,-1,-1],"loss_changes":[8.291124E-3,9.6717235E-3,4.0254807E-3,7.175548E-3,0E0,3.3782227E-3,3.327226E-3,1.6790472E-3,8.209176E-3,4.1972813E-3,7.051724E-3,7.7075E-4,7.371206E-4,0E0,0E0,0E0,0E0,0E0,0E0,0E0,0E0,0E0,0E0,0E0,0E0],"parents":[2147483647,0,0,1,1,2,2,3,3,5,5,6,6,7,7,8,8,9,9,10,10,11,11,12,12],"right_children":[2,4,6,8,-1,10,12,14,16,18,20,22,24,-1,-1,-1,-1,-1,-1,-1,-1,-1,-1,-1,-1],"split_conditions":[5.680064E2,5.84854E2,2.202295E0,1.2409064E2,4.007726E-3,1.6360514E0,4.3457272E2,3.7544867E2,2.9435278E2,2.9120874E2,9.906603E2,7.089137E2,2.5849247E0,-1.8049192E-3,8.436123E-4,-6.4528794E-3,-1.4724181E-3,1.2886479E-3,-2.8015643E-3,4.5411247E-3,-2.668823E-3,-9.826373E-4,-5.736965E-3,-1.0419021E-3,1.5734369E-3],"split_indices":[2,3,1,3,0,1,3,2,3,3,2,2,1,0,0,0,0,0,0,0,0,0,0,0,0],"split_type":[0,0,0,0,0,0,0,0,0,0,0,0,0,0,0,0,0,0,0,0,0,0,0,0,0],"sum_hessian":[4.2552925E1,2.4772818E1,1.7780106E1,2.366586E1,1.1069576E0,1.3319867E1,4.4602385E0,8.813552E0,1.4852308E1,8.453353E0,4.866514E0,2.099207E0,2.3610318E0,5.8735857E0,2.9399664E0,8.701471E0,6.150837E0,5.2266836E0,3.2266698E0,3.7224252E0,1.1440889E0,1.0002806E0,1.0989263E0,1.1947957E0,1.166236E0],"tree_param":{"num_deleted":"0","num_feature":"4","num_nodes":"25","size_leaf_vector":"0"}},{"base_weights":[-1.571933E-2,-4.6937976E-2,-9.895097E-3,-1.3663535E-2,-9.4651796E-2,-3.6901493E-2,-4.459259E-3,6.363341E-3,-2.822288E-2,-5.1911097E-2,5.0888453E-3,-6.321169E-4,-2.9691458E-2,-8.961739E-3,-7.6083414E-2,-2.1655561E-2,5.9363665E-3,2.444488E-2,-5.6759525E-2],"categories":[],"categories_nodes":[],"categories_segments":[],"categories_sizes":[],"default_left":[true,true,true,true,false,true,true,false,false,true,false,true,true,false,false,false,false,false,false],"id":68,"left_children":[1,3,5,7,-1,9,11,-1,-1,13,-1,15,17,-1,-1,-1,-1,-1,-1],"loss_changes":[7.4438844E-3,9.139911E-3,5.4026134E-3,1.6492199E-3,0E0,4.1822856E-3,3.1395745E-3,0E0,0E0,4.165394E-3,0E0,4.191293E-3,7.6675685E-3,0E0,0E0,0E0,0E0,0E0,0E0],"parents":[2147483647,0,0,1,1,2,2,3,3,5,5,6,6,9,9,11,11,12,12],"right_children":[2,4,6,8,-1,10,12,-1,-1,14,-1,16,18,-1,-1,-1,-1,-1,-1],"split_conditions":[2.882649E2,1.8221658E2,1.8852246E2,1.4322797E2,-9.465179E-3,2.74856E2,2.7990386E0,6.363341E-4,-2.822288E-3,1.1591765E2,5.0888455E-4,1.0421131E0,4.3566565E2,-8.9617394E-4,-7.6083415E-3,-2.1655562E-3,5.9363665E-4,2.444488E-3,-5.6759524E-3],"split_indices":[2,3,0,0,0,3,1,0,0,3,0,1,2,0,0,0,0,0,0],"split_type":[0,0,0,0,0,0,0,0,0,0,0,0,0,0,0,0,0,0,0],"sum_hessian":[4.2494316E1,5.5714636E0,3.692285E1,4.040254E0,1.5312095E0,5.2166877E0,3.1706165E1,1.9377501E0,2.1025038E0,3.6689465E0,1.5477412E0,2.8420486E1,3.2856793E0,1.8149279E0,1.8540186E0,6.2189355E0,2.2201551E1,1.1275274E0,2.158152E0],"tree_param":{"num_deleted":"0","num_feature":"4","num_nodes":"19","size_leaf_vector":"0"}},{"base_weights":[-1.4726752E-2,-4.4148285E-2,-9.25086E-3,-1.274329E-2,-8.943144E-2,-3.458259E-2,-4.1625514E-3,5.9412215E-3,-2.6358696E-2,-4.8703365E-2,4.77847E-3,-8.072269E-3,1.5947375E-2,-3.1210406E-2,-8.093259E-3,-4.760214E-3,-6.851649E-2,-3.222478E-2,-7.147921E-4,3.6657114E-2,1.7807261E-3],"categories":[],"categories_nodes":[],"categories_segments":[],"categories_sizes":[],"default_left":[true,true,true,true,false,true,true,false,true,true,false,true,true,false,false,false,false,false,false,false,false],"id":69,"left_children":[1,3,5,7,-1,9,11,-1,13,15,-1,17,19,-1,-1,-1,-1,-1,-1,-1,-1],"loss_changes":[6.5925596E-3,8.180308E-3,4.741353E-3,1.437736E-3,0E0,3.68032E-3,2.699615E-3,0E0,2.1865591E-5,3.7262551E-3,0E0,4.95971E-3,1.5948407E-3,0E0,0E0,0E0,0E0,0E0,0E0,0E0,0E0],"parents":[2147483647,0,0,1,1,2,2,3,3,5,5,6,6,8,8,9,9,11,11,12,12],"right_children":[2,4,6,8,-1,10,12,-1,14,16,-1,18,20,-1,-1,-1,-1,-1,-1,-1,-1],"split_conditions":[2.882649E2,1.8221658E2,1.8852246E2,1.4322797E2,-8.943144E-3,2.74856E2,6.40204E2,5.9412216E-4,8.000032E1,9.569023E1,4.77847E-4,1.073771E0,1.2335906E0,-3.1210405E-3,-8.0932595E-4,-4.760214E-4,-6.8516494E-3,-3.2224783E-3,-7.147921E-5,3.6657115E-3,1.7807262E-4],"split_indices":[2,3,0,0,0,3,0,0,3,3,0,1,1,0,0,0,0,0,0,0,0],"split_type":[0,0,0,0,0,0,0,0,0,0,0,0,0,0,0,0,0,0,0,0,0],"sum_hessian":[4.2454823E1,5.55358E0,3.690124E1,4.035957E0,1.5176232E0,5.202841E0,3.1698402E1,1.938871E0,2.0970857E0,3.6544561E0,1.5483847E0,2.7039959E1,4.6584425E0,1.0969874E0,1.0000985E0,1.521098E0,2.133358E0,5.524552E0,2.1515408E1,1.2473787E0,3.411064E0],"tree_param":{"num_deleted":"0","num_feature":"4","num_nodes":"21","size_leaf_vector":"0"}},{"base_weights":[-1.3697903E-2,-4.1715432E-2,-8.49984E-3,-2.4644337E-3,-7.2383754E-2,-3.2306578E-2,-3.7318354E-3,-2.1416944E-2,1.2931684E-2,-1.3359724E-2,-1.01245426E-1,-4.5488507E-2,4.6183644E-3,-1.4733146E-4,-2.7494261E-2,-7.42791E-3,-6.712616E-2,-1.9383585E-2,5.0095995E-3,2.3154423E-2,-5.3019058E-2],"categories":[],"categories_nodes":[],"categories_segments":[],"categories_sizes":[],"default_left":[true,true,true,true,true,true,true,false,false,false,false,true,false,true,true,false,false,false,false,false,false],"id":70,"left_children":[1,3,5,7,9,11,13,-1,-1,-1,-1,15,-1,17,19,-1,-1,-1,-1,-1,-1],"loss_changes":[5.9680147E-3,7.691887E-3,4.178689E-3,1.4158337E-3,4.8398357E-3,3.2226788E-3,2.78003E-3,0E0,0E0,0E0,0E0,3.3335136E-3,0E0,3.014287E-3,6.759425E-3,0E0,0E0,0E0,0E0,0E0,0E0],"parents":[2147483647,0,0,1,1,2,2,3,3,4,4,5,5,6,6,11,11,13,13,14,14],"right_children":[2,4,6,8,10,12,14,-1,-1,-1,-1,16,-1,18,20,-1,-1,-1,-1,-1,-1],"split_conditions":[2.882649E2,2.125681E0,1.8852246E2,2.382579E2,1.7277405E2,2.7640137E2,2.7990386E0,-2.1416943E-3,1.2931684E-3,-1.3359723E-3,-1.0124543E-2,1.1591765E2,4.6183643E-4,9.50765E-1,4.3566565E2,-7.42791E-4,-6.7126164E-3,-1.9383585E-3,5.0096E-4,2.3154423E-3,-5.301906E-3],"split_indices":[2,1,0,2,3,3,1,0,0,0,0,3,0,1,2,0,0,0,0,0,0],"split_type":[0,0,0,0,0,0,0,0,0,0,0,0,0,0,0,0,0,0,0,0,0],"sum_hessian":[4.2413387E1,5.538063E0,3.6875324E1,2.9030008E0,2.6350625E0,5.1893077E0,3.1686014E1,1.125929E0,1.7770718E0,1.3457673E0,1.2892951E0,3.653218E0,1.5360899E0,2.8407078E1,3.278938E0,1.8109848E0,1.8422332E0,5.42228E0,2.2984797E1,1.12985E0,2.1490881E0],"tree_param":{"num_deleted":"0","num_feature":"4","num_nodes":"21","size_leaf_vector":"0"}},{"base_weights":[-1.2887415E-2,-2.1592574E-2,1.6585254E-3,-2.5652839E-2,1.8842334E-2,8.642085E-3,-2.826487E-2,-6.218546E-3,-3.7769042E-2,4.8564203E-2,-2.110233E-2,-1.4268223E-2,1.4822472E-2,-5.7831034E-2,1.1059644E-2,7.4581853E-3,-1.8494518E-2,-8.4148005E-2,-2.4872145E-2,9.5932335E-3,-3.380215E-2,3.269304E-2,8.996255E-4],"categories":[],"categories_nodes":[],"categories_segments":[],"categories_sizes":[],"default_left":[true,true,true,true,true,true,true,true,true,false,false,true,true,false,false,false,false,false,false,false,false,false,false],"id":71,"left_children":[1,3,5,7,9,11,13,15,17,-1,-1,19,21,-1,-1,-1,-1,-1,-1,-1,-1,-1,-1],"loss_changes":[5.5289557E-3,4.9507245E-3,3.8324236E-3,5.687481E-3,4.657221E-3,2.2911392E-3,4.689394E-3,1.9605735E-3,7.0559178E-3,0E0,0E0,2.0161918E-3,2.9705954E-3,0E0,0E0,0E0,0E0,0E0,0E0,0E0,0E0,0E0,0E0],"parents":[2147483647,0,0,1,1,2,2,3,3,4,4,5,5,6,6,7,7,8,8,11,11,12,12],"right_children":[2,4,6,8,10,12,14,16,18,-1,-1,20,22,-1,-1,-1,-1,-1,-1,-1,-1,-1,-1],"split_conditions":[5.982686E2,5.2090894E2,2.4532824E0,1.4061484E2,4.8032605E2,1.5824399E2,4.3457272E2,1.4266962E0,1.1326098E0,4.85642E-3,-2.110233E-3,1.1483767E0,2.987088E2,-5.7831034E-3,1.1059644E-3,7.4581854E-4,-1.8494519E-3,-8.4148E-3,-2.4872145E-3,9.5932337E-4,-3.3802153E-3,3.269304E-3,8.996255E-5],"split_indices":[2,3,1,3,2,3,3,1,1,0,0,1,3,0,0,0,0,0,0,0,0,0,0],"split_type":[0,0,0,0,0,0,0,0,0,0,0,0,0,0,0,0,0,0,0,0,0,0,0],"sum_hessian":[4.238129E1,2.6210762E1,1.6170527E1,2.4151201E1,2.0595617E0,1.3687349E1,2.4831777E0,9.855808E0,1.4295392E1,1.0571642E0,1.0023975E0,2.6298885E0,1.1057461E1,1.1488235E0,1.334354E0,4.8475647E0,5.008243E0,1.9082832E0,1.2387109E1,1.4128864E0,1.2170022E0,4.2518597E0,6.805601E0],"tree_param":{"num_deleted":"0","num_feature":"4","num_nodes":"23","size_leaf_vector":"0"}},{"base_weights":[-1.1912426E-2,-4.46675E-2,-7.917537E-3,-1.0258589E-2,-8.144088E-2,-1.2723087E-2,1.0411111E-2,-2.0176107E-2,4.8391977E-3,-5.0545752E-2,-9.778197E-3,3.213531E-3,3.09651E-2,-2.0485546E-2,-9.670619E-4,1.7286176E-2,-1.5481667E-2],"categories":[],"categories_nodes":[],"categories_segments":[],"categories_sizes":[],"default_left":[true,true,true,true,false,true,true,false,false,false,true,true,false,false,false,false,false],"id":72,"left_children":[1,3,5,7,-1,9,11,-1,-1,-1,13,15,-1,-1,-1,-1,-1],"loss_changes":[5.317889E-3,4.8536295E-3,3.642137E-3,6.167375E-4,0E0,3.072219E-3,1.206371E-3,0E0,0E0,0E0,2.899806E-3,2.2811987E-3,0E0,0E0,0E0,0E0,0E0],"parents":[2147483647,0,0,1,1,2,2,3,3,5,5,6,6,10,10,11,11],"right_children":[2,4,6,8,-1,10,12,-1,-1,-1,14,16,-1,-1,-1,-1,-1],"split_conditions":[2.600265E2,1.6110391E2,5.231217E2,2.2952582E2,-8.144088E-3,1.9331145E-1,6.195238E2,-2.0176107E-3,4.8391978E-4,-5.0545754E-3,2.1265778E2,2.987605E2,3.09651E-3,-2.0485546E-3,-9.670619E-5,1.7286176E-3,-1.5481667E-3],"split_indices":[2,3,0,2,0,1,3,0,0,0,3,3,0,0,0,0,0],"split_type":[0,0,0,0,0,0,0,0,0,0,0,0,0,0,0,0,0],"sum_hessian":[4.2342926E1,3.4961305E0,3.8846798E1,2.4668565E0,1.029274E0,3.1019653E1,7.8271422E0,1.2858428E0,1.1810136E0,1.0731238E0,2.9946531E1,6.6535525E0,1.17359E0,1.2920496E1,1.7026035E1,3.8390841E0,2.8144684E0],"tree_param":{"num_deleted":"0","num_feature":"4","num_nodes":"17","size_leaf_vector":"0"}},{"base_weights":[-1.10457465E-2,-4.2452827E-2,-7.2299712E-3,-9.681034E-3,-7.7627815E-2,-9.840704E-3,2.1050995E-2,-1.9061906E-2,4.5759715E-3,-5.7202987E-3,-3.8395304E-2,-1.6700063E-3,4.056624E-2,-9.465108E-3,1.89996E-2,6.539919E-3,-5.5302426E-2],"categories":[],"categories_nodes":[],"categories_segments":[],"categories_sizes":[],"default_left":[true,true,true,true,false,true,true,false,false,true,true,false,false,false,false,false,false],"id":73,"left_children":[1,3,5,7,-1,9,11,-1,-1,13,15,-1,-1,-1,-1,-1,-1],"loss_changes":[4.883208E-3,4.4201715E-3,3.1473502E-3,5.506494E-4,0E0,4.1498574E-3,1.7012445E-3,0E0,0E0,3.2929676E-3,3.7865862E-3,0E0,0E0,0E0,0E0,0E0,0E0],"parents":[2147483647,0,0,1,1,2,2,3,3,5,5,6,6,9,9,